{"learner":{"attributes":{"best_iteration":"44","best_ntree_limit":"45","best_score":"0.505852","scikit_learn":"{\"use_label_encoder\": false, \"n_estimators\": 250, \"objective\": \"multi:softprob\", \"max_depth\": 6, \"learning_rate\": 0.3, \"verbosity\": null, \"booster\": \"gbtree\", \"tree_method\": null, \"gamma\": null, \"min_child_weight\": null, \"max_delta_step\": null, \"subsample\": 0.9, \"colsample_bytree\": 0.9, \"colsample_bylevel\": 0.9, \"colsample_bynode\": 0.9, \"reg_alpha\": null, \"reg_lambda\": null, \"scale_pos_weight\": null, \"base_score\": null, \"missing\": NaN, \"num_parallel_tree\": null, \"random_state\": null, \"n_jobs\": null, \"monotone_constraints\": null, \"interaction_constraints\": null, \"importance_type\": null, \"gpu_id\": null, \"validate_parameters\": null, \"predictor\": null, \"enable_categorical\": false, \"kwargs\": {\"num_class\": 3, \"eval_metric\": [\"merror\", \"mlogloss\"]}, \"classes_\": [0, 1, 2], \"n_classes_\": 3, \"evals_result_\": {\"validation_0\": {\"merror\": [0.276073, 0.252529, 0.250262, 0.242937, 0.240146, 0.238926, 0.239275, 0.235089, 0.232124, 0.233868, 0.229334, 0.227241, 0.225497, 0.224799, 0.224625, 0.223753, 0.222881, 0.220963, 0.220788, 0.220614, 0.219742, 0.218521, 0.217475, 0.215905, 0.216428, 0.212592, 0.212592, 0.212766, 0.213289, 0.212592, 0.213289, 0.212766, 0.212766, 0.212766, 0.213812, 0.211196, 0.211371, 0.210324, 0.210324, 0.21015, 0.211545, 0.210848, 0.210673, 0.21015, 0.209452, 0.209801, 0.209627, 0.21015, 0.209801, 0.209278, 0.20858, 0.208057, 0.208929, 0.208406, 0.207708, 0.206488, 0.206488, 0.20579, 0.205616, 0.205441, 0.204395, 0.204046, 0.203174, 0.202651, 0.20422, 0.204046, 0.204744, 0.204395, 0.203872, 0.204744, 0.204046, 0.204569, 0.203523, 0.203, 0.202302, 0.201779, 0.200907, 0.20143, 0.201779, 0.201604, 0.201256, 0.199512, 0.199163, 0.198988, 0.197942, 0.197419, 0.197245, 0.197768, 0.197593, 0.197245, 0.197245, 0.197419, 0.198116, 0.198291, 0.198465], \"mlogloss\": [0.920127, 0.806248, 0.733983, 0.681489, 0.644722, 0.621836, 0.602055, 0.584539, 0.572928, 0.564092, 0.555516, 0.551165, 0.54561, 0.541218, 0.536696, 0.534607, 0.531082, 0.529576, 0.528608, 0.526735, 0.524459, 0.522388, 0.520669, 0.519221, 0.517, 0.515516, 0.515372, 0.514298, 0.512998, 0.51249, 0.512281, 0.511638, 0.512153, 0.512214, 0.511292, 0.509838, 0.508334, 0.507757, 0.507402, 0.50677, 0.506903, 0.506757, 0.506713, 0.507154, 0.505852, 0.506485, 0.506779, 0.506575, 0.506835, 0.507073, 0.507069, 0.506725, 0.507177, 0.507294, 0.507536, 0.507889, 0.507924, 0.507692, 0.508054, 0.50809, 0.50844, 0.508278, 0.508787, 0.509081, 0.509104, 0.509548, 0.510028, 0.509829, 0.509616, 0.509672, 0.50946, 0.509587, 0.509448, 0.509076, 0.509141, 0.509574, 0.509266, 0.509232, 0.509867, 0.509743, 0.510115, 0.510026, 0.509413, 0.50927, 0.508467, 0.508035, 0.508353, 0.508858, 0.508849, 0.508969, 0.509388, 0.508961, 0.50925, 0.509194, 0.510454]}}, \"_estimator_type\": \"classifier\"}"},"feature_names":["Detection probability","Nucleus: Area µm^2","Nucleus: Length µm","Nucleus: Circularity","Nucleus: Solidity","Nucleus: Max diameter µm","Nucleus: Min diameter µm","Cell: Area µm^2","Cell: Length µm","Cell: Circularity","Cell: Solidity","Cell: Max diameter µm","Cell: Min diameter µm","Nucleus/Cell area ratio","Hematoxylin: Nucleus: Mean","Hematoxylin: Nucleus: Median","Hematoxylin: Nucleus: Min","Hematoxylin: Nucleus: Max","Hematoxylin: Nucleus: Std.Dev.","Hematoxylin: Cytoplasm: Mean","Hematoxylin: Cytoplasm: Median","Hematoxylin: Cytoplasm: Min","Hematoxylin: Cytoplasm: Max","Hematoxylin: Cytoplasm: Std.Dev.","Hematoxylin: Membrane: Mean","Hematoxylin: Membrane: Median","Hematoxylin: Membrane: Min","Hematoxylin: Membrane: Max","Hematoxylin: Membrane: Std.Dev.","Hematoxylin: Cell: Mean","Hematoxylin: Cell: Median","Hematoxylin: Cell: Min","Hematoxylin: Cell: Max","Hematoxylin: Cell: Std.Dev."],"feature_types":["float","float","float","float","float","float","float","float","float","float","float","float","float","float","float","float","float","float","float","float","float","float","float","float","float","float","float","float","float","float","float","float","float","float"],"gradient_booster":{"model":{"gbtree_model_param":{"num_trees":"285","size_leaf_vector":"0"},"tree_info":[0,1,2,0,1,2,0,1,2,0,1,2,0,1,2,0,1,2,0,1,2,0,1,2,0,1,2,0,1,2,0,1,2,0,1,2,0,1,2,0,1,2,0,1,2,0,1,2,0,1,2,0,1,2,0,1,2,0,1,2,0,1,2,0,1,2,0,1,2,0,1,2,0,1,2,0,1,2,0,1,2,0,1,2,0,1,2,0,1,2,0,1,2,0,1,2,0,1,2,0,1,2,0,1,2,0,1,2,0,1,2,0,1,2,0,1,2,0,1,2,0,1,2,0,1,2,0,1,2,0,1,2,0,1,2,0,1,2,0,1,2,0,1,2,0,1,2,0,1,2,0,1,2,0,1,2,0,1,2,0,1,2,0,1,2,0,1,2,0,1,2,0,1,2,0,1,2,0,1,2,0,1,2,0,1,2,0,1,2,0,1,2,0,1,2,0,1,2,0,1,2,0,1,2,0,1,2,0,1,2,0,1,2,0,1,2,0,1,2,0,1,2,0,1,2,0,1,2,0,1,2,0,1,2,0,1,2,0,1,2,0,1,2,0,1,2,0,1,2,0,1,2,0,1,2,0,1,2,0,1,2,0,1,2,0,1,2,0,1,2,0,1,2,0,1,2,0,1,2,0,1,2,0,1,2],"trees":[{"base_weights":[-1.599316E-3,7.5348276E-1,-4.26305E-1,9.9475706E-1,1.6991694E-1,2.1500527E-3,-5.5929136E-1,1.205042E0,4.7105503E-1,6.481461E-1,-2.2401294E-1,-4.9573034E-1,2.2337748E-1,-2.3864867E-1,-6.7501193E-1,1.2703891E0,6.5346533E-1,-3.8206485E-1,8.055418E-1,-4.2369026E-1,8.2634044E-1,-8.647213E-2,-6.121192E-1,9.3861383E-1,-5.8021367E-1,4.7011608E-1,-2.0083015E-1,-5.819731E-1,1.13509536E-1,-5.7167315E-1,-7.198709E-1,1.2956889E0,3.333333E-1,9.2785966E-1,9.215841E-2,-5.3062993E-1,6.315789E-1,9.3027717E-1,2.2949913E-1,3.9560437E-1,-6.324787E-1,9.510422E-1,3.70392E-1,-6.0206544E-1,1.9306096E-1,-3.9646208E-1,-7.14576E-1,1.0528541E0,-5.853659E-1,9.836065E-1,-5.9086084E-1,1.2194403E0,3.2845902E-1,5.2653056E-1,-3.430354E-1,5.694051E-1,-6.144931E-1,1.1175128E0,-5.223534E-2,-6.8354696E-1,-3.1772372E-1,-7.2256273E-1,-4.2574747E-8,9.935408E-1,1.3558882E0,7.9816514E-1,-5.1827246E-1,1.151039E0,1.04587115E-1,8.648648E-1,-1.9058055E-1,-3.8002986E-1,-7.331976E-1,1.2041522E0,-1.0300434E-1,1.1250696E0,5.719607E-1,-5.190616E-1,3.9999998E-1,7.7720207E-1,-4.7191018E-1,-4.9180366E-2,-6.623377E-1,1.2176279E0,7.3496073E-1,7.3565805E-1,-2.533177E-2,-3.042122E-1,-6.8367803E-1,6.1255544E-1,1.8191362E-2,-4.740332E-1,7.384615E-1,-7.2783834E-1,-6.1224528E-2,1.1324503E0,-5.172414E-1,-2.5544848E-8,1.2244898E0,-6.841891E-1,-4.6224582E-1,1.2992126E0,6.382975E-2,5.093351E-1,-7.212827E-2,9.821718E-1,6.3209035E-2,1.5169807E-1,-4.7518742E-1,1.1408451E0,-2.8187925E-1,-6.7637473E-1,-4.5351875E-1,-5.853659E-1,1.152237E0,2.9826587E-1,-2.9243943E-1,-3.926702E-1,-6.94989E-1,1.2084059E-1,-4.754479E-1,7.8947365E-1,-7.2421974E-1,1.1917808E0,-6.9600004E-1],"categories":[],"categories_nodes":[],"categories_segments":[],"categories_sizes":[],"default_left":[true,true,true,true,true,true,true,true,true,true,true,true,true,true,true,true,true,true,true,true,true,true,true,true,true,true,true,true,true,true,true,true,true,true,true,true,true,true,true,true,true,true,true,true,true,true,true,true,false,true,true,true,true,true,true,true,true,true,true,true,true,true,true,false,false,false,false,false,false,false,false,false,false,false,false,false,false,false,false,false,false,false,false,false,false,false,false,false,false,false,false,false,false,false,false,false,false,false,false,false,false,false,false,false,false,false,false,false,false,false,false,false,false,false,false,false,false,false,false,false,false,false,false,false,false],"id":0,"left_children":[1,3,5,7,9,11,13,15,17,19,21,23,25,27,29,31,33,35,37,39,41,43,45,47,49,51,53,55,57,59,61,63,65,67,69,71,73,75,77,79,81,83,85,87,89,91,93,95,-1,97,99,101,103,105,107,109,111,113,115,117,119,121,123,-1,-1,-1,-1,-1,-1,-1,-1,-1,-1,-1,-1,-1,-1,-1,-1,-1,-1,-1,-1,-1,-1,-1,-1,-1,-1,-1,-1,-1,-1,-1,-1,-1,-1,-1,-1,-1,-1,-1,-1,-1,-1,-1,-1,-1,-1,-1,-1,-1,-1,-1,-1,-1,-1,-1,-1,-1,-1,-1,-1,-1,-1],"loss_changes":[6.884879E3,1.0880068E3,7.829199E2,6.0156836E2,4.262596E2,3.5870547E2,3.8891748E2,1.3976172E2,4.4777975E2,1.9552597E2,6.6192215E1,1.21951614E2,2.3609837E2,3.364627E2,3.53042E1,8.221973E1,6.386679E1,6.694701E1,8.074878E1,2.5281876E1,4.948651E1,1.3234328E2,6.8879166E0,1.0385239E1,1.6345306E1,1.509534E2,8.601976E1,5.310681E1,2.2875897E2,6.617761E1,1.0403076E1,6.039258E1,3.7228035E1,5.1101532E1,3.0192892E1,1.1507118E1,2.4098389E1,6.398108E1,2.597475E1,1.0408362E1,2.0051804E0,3.871759E1,2.7466017E1,7.638275E0,4.3685074E1,9.750484E0,1.8511429E0,7.1538124E0,0E0,1.6058879E0,1.0978943E1,2.0781769E1,8.702498E1,2.8672112E1,4.549668E1,1.9401539E1,1.3348022E1,1.2191925E1,9.948034E1,5.123657E0,4.962317E1,1.3971924E1,1.8248547E1,0E0,0E0,0E0,0E0,0E0,0E0,0E0,0E0,0E0,0E0,0E0,0E0,0E0,0E0,0E0,0E0,0E0,0E0,0E0,0E0,0E0,0E0,0E0,0E0,0E0,0E0,0E0,0E0,0E0,0E0,0E0,0E0,0E0,0E0,0E0,0E0,0E0,0E0,0E0,0E0,0E0,0E0,0E0,0E0,0E0,0E0,0E0,0E0,0E0,0E0,0E0,0E0,0E0,0E0,0E0,0E0,0E0,0E0,0E0,0E0,0E0,0E0],"parents":[2147483647,0,0,1,1,2,2,3,3,4,4,5,5,6,6,7,7,8,8,9,9,10,10,11,11,12,12,13,13,14,14,15,15,16,16,17,17,18,18,19,19,20,20,21,21,22,22,23,23,24,24,25,25,26,26,27,27,28,28,29,29,30,30,31,31,32,32,33,33,34,34,35,35,36,36,37,37,38,38,39,39,40,40,41,41,42,42,43,43,44,44,45,45,46,46,47,47,49,49,50,50,51,51,52,52,53,53,54,54,55,55,56,56,57,57,58,58,59,59,60,60,61,61,62,62],"right_children":[2,4,6,8,10,12,14,16,18,20,22,24,26,28,30,32,34,36,38,40,42,44,46,48,50,52,54,56,58,60,62,64,66,68,70,72,74,76,78,80,82,84,86,88,90,92,94,96,-1,98,100,102,104,106,108,110,112,114,116,118,120,122,124,-1,-1,-1,-1,-1,-1,-1,-1,-1,-1,-1,-1,-1,-1,-1,-1,-1,-1,-1,-1,-1,-1,-1,-1,-1,-1,-1,-1,-1,-1,-1,-1,-1,-1,-1,-1,-1,-1,-1,-1,-1,-1,-1,-1,-1,-1,-1,-1,-1,-1,-1,-1,-1,-1,-1,-1,-1,-1,-1,-1,-1,-1],"split_conditions":[2.4855E-1,4.5525E-1,5.9995E-1,9.8445E-1,1.1715E-1,2.535E-2,1.2125E-1,1.11499995E-1,2.7150001E-2,1.395E-2,1.3685E-1,6.831E-1,1.2325E-1,3.1850003E-2,1.3964999E-1,7.1569996E0,3.9885E-1,6.96205E0,1.0655E-1,9.668E-1,1.1475E-1,3.495E-2,1.4795E-1,3.895E-1,2.098E-1,7.0659995E-1,4.5585E-1,1.58665E0,1.8208499E0,4.925E-2,4E-4,1.765E-2,6.86E-2,8.9650005E-2,8.995E-2,-5.4449998E-2,3.4245E-1,7.305E-2,5.3400002E-2,7.47E-2,1.955E-2,9.728E-1,1.0525E-1,9.8045003E-1,1.0245E-1,1.02725E0,7.167305E1,8.84E-2,-1.7560977E-1,1.967E-1,1.455E-2,1.19E-1,3.4004998E-1,9.7945E-1,9.765E-2,7.4189997E-1,1.735E-2,2.3699999E-2,3.2815E-1,6.868E-1,1.1955E-1,3.8090003E-1,1.8235001E-1,2.9806226E-1,4.067665E-1,2.3944955E-1,-1.5548174E-1,3.453117E-1,3.1376135E-2,2.5945947E-1,-5.7174165E-2,-1.1400896E-1,-2.199593E-1,3.612457E-1,-3.0901302E-2,3.375209E-1,1.7158821E-1,-1.5571849E-1,1.2E-1,2.3316063E-1,-1.4157306E-1,-1.475411E-2,-1.9870132E-1,3.6528838E-1,2.2048824E-1,2.2069742E-1,-7.599531E-3,-9.126367E-2,-2.0510341E-1,1.8376663E-1,5.4574087E-3,-1.4220996E-1,2.2153845E-1,-2.1835151E-1,-1.836736E-2,3.3973512E-1,-1.5517244E-1,-7.663455E-9,3.6734694E-1,-2.0525673E-1,-1.3867375E-1,3.897638E-1,1.9148925E-2,1.5280053E-1,-2.1638483E-2,2.9465154E-1,1.8962711E-2,4.550942E-2,-1.4255624E-1,3.4225354E-1,-8.456378E-2,-2.0291243E-1,-1.3605563E-1,-1.7560977E-1,3.4567112E-1,8.947977E-2,-8.773183E-2,-1.1780107E-1,-2.0849672E-1,3.625218E-2,-1.4263438E-1,2.3684211E-1,-2.1726593E-1,3.5753426E-1,-2.0880002E-1],"split_indices":[14,27,22,9,28,20,28,29,30,25,29,3,29,25,29,6,27,5,29,9,29,20,29,14,22,3,22,6,6,20,26,25,28,28,28,21,22,28,25,29,19,9,28,9,29,27,1,29,0,22,30,28,15,9,28,3,25,30,14,3,29,17,24,0,0,0,0,0,0,0,0,0,0,0,0,0,0,0,0,0,0,0,0,0,0,0,0,0,0,0,0,0,0,0,0,0,0,0,0,0,0,0,0,0,0,0,0,0,0,0,0,0,0,0,0,0,0,0,0,0,0,0,0,0,0],"split_type":[0,0,0,0,0,0,0,0,0,0,0,0,0,0,0,0,0,0,0,0,0,0,0,0,0,0,0,0,0,0,0,0,0,0,0,0,0,0,0,0,0,0,0,0,0,0,0,0,0,0,0,0,0,0,0,0,0,0,0,0,0,0,0,0,0,0,0,0,0,0,0,0,0,0,0,0,0,0,0,0,0,0,0,0,0,0,0,0,0,0,0,0,0,0,0,0,0,0,0,0,0,0,0,0,0,0,0,0,0,0,0,0,0,0,0,0,0,0,0,0,0,0,0,0,0],"sum_hessian":[2.146711E4,7.727555E3,1.3739555E4,5.4666665E3,2.2608887E3,3.2546665E3,1.0484889E4,3.8995554E3,1.567111E3,1.02088885E3,1.2399999E3,1.00088885E3,2.2537776E3,2.7813333E3,7.703555E3,3.485333E3,4.142222E2,4.413333E2,1.1257777E3,1.4533333E2,8.755555E2,9.164444E2,3.2355554E2,5.5111107E1,9.457777E2,1.4248888E3,8.2888885E2,1.4079999E3,1.3733333E3,2.3359998E3,5.367555E3,3.3933333E3,9.199999E1,2.7777777E2,1.3644444E2,3.853333E2,5.5999996E1,9.2488885E2,2.0088887E2,2.9333332E1,1.1599999E2,6.866666E2,1.8888887E2,3.2177777E2,5.946666E2,1.0577777E2,2.1777777E2,5.1555553E1,3.5555553E0,5.7777777E0,9.3999994E2,2.2533331E2,1.1995555E3,1.351111E2,6.937777E2,3.822222E1,1.3697777E3,1.9377777E2,1.1795555E3,1.6204443E3,7.1555554E2,5.347555E3,1.9999998E1,5.666666E2,2.8266665E3,5.9555553E1,3.2444443E1,2.1822221E2,5.9555553E1,3.5999996E1,1.00444435E2,2.2266666E2,1.6266666E2,3.1111109E1,2.4888887E1,5.977778E2,3.2711108E2,3.6888885E1,1.6399998E2,2.0444443E1,8.888888E0,5.7777777E0,1.1022221E2,3.053333E2,3.813333E2,9.777777E1,9.111111E1,7.022222E1,2.5155554E2,1.7422221E2,4.2044443E2,9.955555E1,6.222222E0,2.1333331E2,4.444444E0,4.9333332E1,2.222222E0,1.3333333E0,4.444444E0,5.4222217E2,3.9777774E2,2.1066666E2,1.4666666E1,8.2622217E2,3.733333E2,6.755555E1,6.755555E1,1.4622221E2,5.4755554E2,2.2666666E1,1.5555554E1,9.87111E2,3.8266666E2,3.5555553E0,1.9022221E2,4.7955554E2,6.9999994E2,6.2666664E1,1.5577777E3,1.8933333E2,5.2622217E2,5.333333E0,5.3422217E3,7.1111107E0,1.2888888E1],"tree_param":{"num_deleted":"0","num_feature":"34","num_nodes":"125","size_leaf_vector":"0"}},{"base_weights":[-3.149008E-3,6.9660455E-1,-3.1290984E-1,1.2086695E0,2.792809E-1,3.6856425E-1,-4.186017E-1,-1.7251056E-1,1.2462126E0,9.87089E-1,1.5280426E-1,-2.3862173E-1,7.5101817E-1,-4.8257515E-1,2.5264716E-1,-5.08772E-1,6.602871E-1,1.3610892E0,1.0448155E0,1.1089406E0,4.7790337E-1,2.6568496E-1,-5.0503814E-1,-5.526509E-1,2.0826098E-1,1.1142355E0,4.3658412E-1,-5.1341885E-1,3.3784133E-1,5.733622E-1,-1.3645314E-1,-5.7344073E-1,9.6E-1,9.2727274E-1,-2.8301892E-1,-1.7142862E-1,1.370158E0,6.0063446E-1,1.2333785E0,3.612565E-1,1.2309711E0,1.3879004E0,1.0698997E-1,-7.136327E-2,5.045051E-1,-6.2495846E-1,-1.649581E-1,-5.756293E-1,5.3932583E-1,9.982301E-1,1.5483827E-2,8.5714287E-1,1.3046154E0,-1.5563145E-1,6.293238E-1,-3.676137E-1,-5.976362E-1,-6.0538125E-1,5.3500783E-1,7.863731E-1,2.4394697E-1,2.5787503E-1,-4.0863794E-1,-6.705883E-1,-3.973643E-8,-2.0000003E-1,1.255814E0,2.3999998E-1,-5.675676E-1,1.0344827E0,-5.647059E-1,1.5463914E-1,1.3766329E0,-2.8428933E-1,7.435583E-1,1.3024681E0,5.256198E-1,-5.049505E-1,5.363825E-1,-2.4705887E-1,1.2651356E0,1.4498141E0,-2.5544848E-8,5.405405E-1,-2.7851465E-1,-5.404186E-1,8.300711E-2,7.973544E-1,1.7590468E-1,8.571428E-1,-6.3347816E-1,1.5087037E-1,-4.513275E-1,-5.8811736E-1,1.0909091E0,-5.853659E-1,1.2631578E0,-3.4682125E-2,1.4214463E0,-2.512636E-1,4.046364E-1,1.0052603E0,-6.7092694E-2,1.3423618E0,5.9999996E-1,5.303867E-1,-2.505801E-1,9.053389E-1,2.3201726E-1,1.9852196E-1,-4.1644177E-1,-2.263213E-1,-6.274517E-1,8.571428E-1,-6.4383566E-1,7.555211E-1,-4.013051E-1,-3.6144584E-1,8.7568086E-1,9.754601E-1,3.3352796E-2,7.308448E-1,8.084482E-2,-5.070968E-1,1.8320607E-1],"categories":[],"categories_nodes":[],"categories_segments":[],"categories_sizes":[],"default_left":[true,true,true,true,true,true,true,true,true,true,true,true,true,true,true,true,true,true,true,true,true,true,true,true,true,true,true,true,true,true,true,true,false,true,true,true,true,true,true,true,true,true,true,true,true,true,true,true,true,true,true,true,true,true,true,true,true,true,true,true,true,true,true,false,false,false,false,false,false,false,false,false,false,false,false,false,false,false,false,false,false,false,false,false,false,false,false,false,false,false,false,false,false,false,false,false,false,false,false,false,false,false,false,false,false,false,false,false,false,false,false,false,false,false,false,false,false,false,false,false,false,false,false,false,false],"id":1,"left_children":[1,3,5,7,9,11,13,15,17,19,21,23,25,27,29,31,33,35,37,39,41,43,45,47,49,51,53,55,57,59,61,63,-1,65,67,69,71,73,75,77,79,81,83,85,87,89,91,93,95,97,99,101,103,105,107,109,111,113,115,117,119,121,123,-1,-1,-1,-1,-1,-1,-1,-1,-1,-1,-1,-1,-1,-1,-1,-1,-1,-1,-1,-1,-1,-1,-1,-1,-1,-1,-1,-1,-1,-1,-1,-1,-1,-1,-1,-1,-1,-1,-1,-1,-1,-1,-1,-1,-1,-1,-1,-1,-1,-1,-1,-1,-1,-1,-1,-1,-1,-1,-1,-1,-1,-1],"loss_changes":[4.657997E3,1.4087554E3,1.0730333E3,1.5373047E2,3.25199E2,4.6474954E2,5.5390796E2,2.2521143E1,6.526318E1,3.3643066E1,2.291862E2,1.08718185E2,1.3972272E2,2.981189E2,1.4019003E2,5.964567E0,6.1109324E0,2.5697754E1,8.730542E1,4.0035583E1,3.6342255E1,2.1201224E2,1.8335121E1,1.1721649E1,4.873362E1,2.6731628E1,7.539455E1,1.3912769E2,7.97752E1,4.3008896E1,5.4641006E1,3.0763397E0,0E0,7.0410166E0,1.0126262E0,6.117183E0,1.4122559E1,4.007965E1,3.535376E1,9.928785E0,1.9551636E1,2.68293E0,1.3168565E1,7.918707E1,1.4819357E2,4.759018E0,1.0850979E1,9.921387E0,8.789835E0,2.749231E1,2.6918076E1,3.3606842E1,7.838501E0,1.0735679E1,5.438974E1,1.1500818E2,7.947632E1,4.7324066E0,7.337044E1,3.8597992E1,3.743643E1,1.7366043E1,1.7632862E1,0E0,0E0,0E0,0E0,0E0,0E0,0E0,0E0,0E0,0E0,0E0,0E0,0E0,0E0,0E0,0E0,0E0,0E0,0E0,0E0,0E0,0E0,0E0,0E0,0E0,0E0,0E0,0E0,0E0,0E0,0E0,0E0,0E0,0E0,0E0,0E0,0E0,0E0,0E0,0E0,0E0,0E0,0E0,0E0,0E0,0E0,0E0,0E0,0E0,0E0,0E0,0E0,0E0,0E0,0E0,0E0,0E0,0E0,0E0,0E0,0E0,0E0],"parents":[2147483647,0,0,1,1,2,2,3,3,4,4,5,5,6,6,7,7,8,8,9,9,10,10,11,11,12,12,13,13,14,14,15,15,16,16,17,17,18,18,19,19,20,20,21,21,22,22,23,23,24,24,25,25,26,26,27,27,28,28,29,29,30,30,31,31,33,33,34,34,35,35,36,36,37,37,38,38,39,39,40,40,41,41,42,42,43,43,44,44,45,45,46,46,47,47,48,48,49,49,50,50,51,51,52,52,53,53,54,54,55,55,56,56,57,57,58,58,59,59,60,60,61,61,62,62],"right_children":[2,4,6,8,10,12,14,16,18,20,22,24,26,28,30,32,34,36,38,40,42,44,46,48,50,52,54,56,58,60,62,64,-1,66,68,70,72,74,76,78,80,82,84,86,88,90,92,94,96,98,100,102,104,106,108,110,112,114,116,118,120,122,124,-1,-1,-1,-1,-1,-1,-1,-1,-1,-1,-1,-1,-1,-1,-1,-1,-1,-1,-1,-1,-1,-1,-1,-1,-1,-1,-1,-1,-1,-1,-1,-1,-1,-1,-1,-1,-1,-1,-1,-1,-1,-1,-1,-1,-1,-1,-1,-1,-1,-1,-1,-1,-1,-1,-1,-1,-1,-1,-1,-1,-1,-1],"split_conditions":[4.7712E0,4.235E-2,3.555E-2,9.7749996E-1,3.035E-2,9.785E-2,1.6685E-1,1.7074001E0,2.1650001E-2,1.6325E-1,1.3925001E-1,9.7354996E-1,5.95E-3,7.0062E0,7.03E-2,8.575E-2,3.745E-2,-1.0199999E-2,1.12849995E-1,9.4E-2,9.0450004E-2,1.3395E-1,1.5845E-1,6.3868504E0,2.15E-3,1.5114999E-1,9.7025E-1,7.1975E-1,5.9E-2,7.9805E-1,7.6559997E-1,8.955E-2,2.8800002E-1,-8.75E-3,5.8675003E-1,3.9449997E-2,1.13566E1,7.6105E-1,1.33407E1,7.972E-1,1.51895E0,8.5469997E-1,2.93475E0,7.9505E-1,1.25987E1,1.375E-1,1.4320001E-1,1.1975E-1,4.0399998E-1,1.1700001E-2,-3.385E-2,1.1235E-1,9.6445E-1,6.0080004E-1,8.0625E-1,2.4349999E-2,2.595E-2,2.13E-2,1.4795E-1,1.2575E-1,7.04E-2,6.3750005E-1,2.2165E-1,-2.0117651E-1,-1.192093E-8,-6.0000014E-2,3.767442E-1,7.2E-2,-1.7027028E-1,3.1034482E-1,-1.6941178E-1,4.6391744E-2,4.1298988E-1,-8.52868E-2,2.2306749E-1,3.9074042E-1,1.5768595E-1,-1.5148516E-1,1.6091475E-1,-7.411766E-2,3.795407E-1,4.3494424E-1,-7.663455E-9,1.6216215E-1,-8.35544E-2,-1.6212559E-1,2.4902135E-2,2.3920633E-1,5.2771404E-2,2.5714284E-1,-1.9004346E-1,4.526111E-2,-1.3539825E-1,-1.7643522E-1,3.2727274E-1,-1.7560977E-1,3.7894738E-1,-1.0404638E-2,4.2643392E-1,-7.537908E-2,1.2139093E-1,3.015781E-1,-2.0127809E-2,4.0270856E-1,1.7999999E-1,1.5911601E-1,-7.517403E-2,2.7160168E-1,6.960518E-2,5.955659E-2,-1.24932535E-1,-6.789639E-2,-1.8823552E-1,2.5714284E-1,-1.9315071E-1,2.2665635E-1,-1.2039154E-1,-1.0843376E-1,2.6270428E-1,2.9263803E-1,1.0005839E-2,2.1925345E-1,2.4253447E-2,-1.5212905E-1,5.4961823E-2],"split_indices":[5,30,30,9,25,33,18,6,30,29,25,9,25,6,25,19,30,24,33,23,24,33,18,6,30,18,9,0,23,0,0,28,0,16,0,28,12,3,12,3,6,0,6,3,12,24,30,28,22,19,26,29,3,0,0,25,25,25,29,33,24,0,18,0,0,0,0,0,0,0,0,0,0,0,0,0,0,0,0,0,0,0,0,0,0,0,0,0,0,0,0,0,0,0,0,0,0,0,0,0,0,0,0,0,0,0,0,0,0,0,0,0,0,0,0,0,0,0,0,0,0,0,0,0,0],"split_type":[0,0,0,0,0,0,0,0,0,0,0,0,0,0,0,0,0,0,0,0,0,0,0,0,0,0,0,0,0,0,0,0,0,0,0,0,0,0,0,0,0,0,0,0,0,0,0,0,0,0,0,0,0,0,0,0,0,0,0,0,0,0,0,0,0,0,0,0,0,0,0,0,0,0,0,0,0,0,0,0,0,0,0,0,0,0,0,0,0,0,0,0,0,0,0,0,0,0,0,0,0,0,0,0,0,0,0,0,0,0,0,0,0,0,0,0,0,0,0,0,0,0,0,0,0],"sum_hessian":[2.1487555E4,6.5928887E3,1.4894666E4,2.9595554E3,3.633333E3,1.9995554E3,1.289511E4,7.822221E1,2.8813333E3,5.497778E2,3.0835554E3,7.7288885E2,1.2266666E3,1.1773333E4,1.1217777E3,5.5999996E1,2.2222221E1,1.831111E3,1.0502222E3,4.4266663E2,1.0711111E2,2.6324443E3,4.5111108E2,4.5377774E2,3.1911108E2,5.6799994E2,6.586666E2,1.134711E4,4.262222E2,6.146666E2,5.0711108E2,5.4222218E1,1.7777777E0,1.7333332E1,4.8888884E0,1.0666666E1,1.8204443E3,3.142222E2,7.3599994E2,6.2666664E1,3.7999997E2,3.0222221E1,7.6888885E1,1.0919999E3,1.5404443E3,3.3288885E2,1.1822221E2,4.4488885E2,8.888888E0,6.1777775E1,2.573333E2,2.4399998E2,3.2399997E2,1.6177777E2,4.9688885E2,4.1564443E3,7.190666E3,7.333333E1,3.5288885E2,3.7244443E2,2.4222221E2,2.071111E2,2.9999997E2,4.622222E1,7.9999995E0,3.9999998E0,1.3333332E1,1.7777777E0,3.111111E0,2.222222E0,8.444444E0,9.777777E0,1.8106665E3,4.3555553E1,2.7066666E2,6.697777E2,6.622222E1,1.0222221E1,5.2444443E1,8.444444E0,3.7155554E2,2.8888887E1,1.3333333E0,3.5999996E1,4.0888885E1,2.6977777E2,8.2222217E2,8.137777E2,7.266666E2,1.3333333E0,3.3155554E2,5.6444443E1,6.1777775E1,4.422222E2,2.6666665E0,3.5555553E0,5.333333E0,1.8222221E1,4.3555553E1,1.5288889E2,1.04444435E2,2.1022221E2,3.3777775E1,3.0666666E2,1.7333332E1,1.911111E1,1.4266666E2,2.9244443E2,2.0444443E2,3.2977777E2,3.8266665E3,5.351111E2,6.655555E3,1.3333333E0,7.199999E1,2.8577777E2,6.711111E1,2.6666664E1,3.4577777E2,5.333333E1,1.8888887E2,5.5555553E1,1.5155554E2,2.573333E2,4.2666664E1],"tree_param":{"num_deleted":"0","num_feature":"34","num_nodes":"125","size_leaf_vector":"0"}},{"base_weights":[2.9043285E-3,-5.1038957E-1,8.7530917E-1,-6.705128E-1,-2.0353372E-1,9.636443E-2,1.0146135E0,-7.173498E-1,-5.455671E-1,-5.826344E-1,8.422912E-2,-9.69664E-2,1.0646766E0,3.1277865E-1,1.1619056E0,-7.3726666E-1,-6.5677536E-1,-7.024355E-1,-4.52892E-1,-6.1129344E-1,2.0722131E-1,-2.6223484E-1,3.6411425E-1,-2.978607E-1,2.0804435E-1,1.1758598E0,4.115523E-1,-5.239025E-1,4.0251964E-1,9.720926E-1,1.3578525E0,-7.3846054E-1,-3.9884397E-1,-7.2809935E-1,-5.2530783E-1,-7.107148E-1,-1.7518252E-1,-6.1850464E-1,-2.4051687E-1,-6.8621707E-1,-4.7283414E-1,6.930091E-1,-3.0283916E-1,-5.479485E-1,-6.993232E-2,-9.7542584E-2,4.8021734E-1,-4.857926E-1,-8.212754E-2,9.4089264E-1,-1.0772037E-2,-5.853659E-1,1.2166998E0,7.164179E-1,-3.5294122E-1,4.817518E-1,-6.7224085E-1,6.0231656E-1,-1.4876038E-1,5.478017E-1,1.0840561E0,-3.1168836E-1,1.3625828E0,-7.467111E-1,-7.144748E-1,-6.470589E-1,1.0344827E0,8.571428E-1,-7.3096293E-1,-5.9636176E-1,-3.1957996E-1,-7.1602595E-1,-1.6853938E-1,-6.8316835E-1,1E0,-6.448012E-1,-2.727273E-1,-1.48478E-1,-6.039442E-1,-6.907208E-1,1.8461534E-1,4.0677962E-1,-4.9823862E-1,-5.853659E-1,8.484848E-1,-4.5283026E-1,3.934426E-1,-5.9688205E-1,3.218884E-1,-3.3798608E-1,1.710958E-1,-1.9229214E-1,1.1428571E0,-3.5561165E-1,5.48068E-1,-5.426622E-1,4.095559E-2,3.374536E-1,-2.7490044E-1,3.050847E-1,1.0983359E0,-4.6153852E-1,2.619184E-1,7.908309E-1,1.3344738E0,-5.172414E-1,8.78453E-1,-6.2264156E-1,7.31707E-2,-6.2264156E-1,1.0645161E0,1.0344827E0,-7.2177887E-1,1.0925641E-1,7.9522383E-1,-3.331322E-1,1.9484879E-1,7.474322E-1,5.7803426E-2,7.00797E-1,1.2060419E0,8.571428E-1,-6.461539E-1,1.3660245E0,-6.1224496E-1],"categories":[],"categories_nodes":[],"categories_segments":[],"categories_sizes":[],"default_left":[true,true,true,true,true,true,true,true,true,true,true,true,true,true,true,true,true,true,true,true,true,true,true,true,true,true,true,true,true,true,true,true,true,true,true,true,true,true,true,true,true,true,true,true,true,true,true,true,true,true,true,false,true,true,true,true,true,true,true,true,true,true,true,false,false,false,false,false,false,false,false,false,false,false,false,false,false,false,false,false,false,false,false,false,false,false,false,false,false,false,false,false,false,false,false,false,false,false,false,false,false,false,false,false,false,false,false,false,false,false,false,false,false,false,false,false,false,false,false,false,false,false,false,false,false],"id":2,"left_children":[1,3,5,7,9,11,13,15,17,19,21,23,25,27,29,31,33,35,37,39,41,43,45,47,49,51,53,55,57,59,61,63,65,67,69,71,73,75,77,79,81,83,85,87,89,91,93,95,97,99,101,-1,103,105,107,109,111,113,115,117,119,121,123,-1,-1,-1,-1,-1,-1,-1,-1,-1,-1,-1,-1,-1,-1,-1,-1,-1,-1,-1,-1,-1,-1,-1,-1,-1,-1,-1,-1,-1,-1,-1,-1,-1,-1,-1,-1,-1,-1,-1,-1,-1,-1,-1,-1,-1,-1,-1,-1,-1,-1,-1,-1,-1,-1,-1,-1,-1,-1,-1,-1,-1,-1],"loss_changes":[9.611083E3,6.637991E2,8.625957E2,5.156787E1,5.0566193E2,2.2610077E2,6.968076E2,7.3032227E0,3.4936035E1,4.5402283E1,2.5567636E2,6.1779427E1,1.4111984E1,8.815164E1,2.0599121E2,1.6647949E0,1.4679749E1,3.7989197E0,5.356671E1,1.9700562E1,1.7747269E1,6.4703384E1,7.8213196E1,2.4596825E1,6.4242905E1,1.3027954E1,7.4261613E0,1.7313465E1,1.1665871E2,1.3407227E2,2.2064453E1,4.2285156E-1,7.5081196E0,5.342041E0,8.120438E0,2.4264526E0,9.77047E0,7.6206665E0,2.2347466E1,5.031311E0,1.5420395E1,7.7623215E0,3.856632E0,2.0362823E1,4.5635532E1,3.4759735E1,6.628903E1,9.744583E0,2.3072773E1,8.885567E0,3.8157703E1,0E0,7.3542023E0,4.9187193E0,1.1309384E0,1.045985E1,9.173252E0,7.381741E1,1.795125E1,5.8050156E1,1.0396802E2,3.8985014E0,1.940918E1,0E0,0E0,0E0,0E0,0E0,0E0,0E0,0E0,0E0,0E0,0E0,0E0,0E0,0E0,0E0,0E0,0E0,0E0,0E0,0E0,0E0,0E0,0E0,0E0,0E0,0E0,0E0,0E0,0E0,0E0,0E0,0E0,0E0,0E0,0E0,0E0,0E0,0E0,0E0,0E0,0E0,0E0,0E0,0E0,0E0,0E0,0E0,0E0,0E0,0E0,0E0,0E0,0E0,0E0,0E0,0E0,0E0,0E0,0E0,0E0,0E0,0E0],"parents":[2147483647,0,0,1,1,2,2,3,3,4,4,5,5,6,6,7,7,8,8,9,9,10,10,11,11,12,12,13,13,14,14,15,15,16,16,17,17,18,18,19,19,20,20,21,21,22,22,23,23,24,24,25,25,26,26,27,27,28,28,29,29,30,30,31,31,32,32,33,33,34,34,35,35,36,36,37,37,38,38,39,39,40,40,41,41,42,42,43,43,44,44,45,45,46,46,47,47,48,48,49,49,50,50,52,52,53,53,54,54,55,55,56,56,57,57,58,58,59,59,60,60,61,61,62,62],"right_children":[2,4,6,8,10,12,14,16,18,20,22,24,26,28,30,32,34,36,38,40,42,44,46,48,50,52,54,56,58,60,62,64,66,68,70,72,74,76,78,80,82,84,86,88,90,92,94,96,98,100,102,-1,104,106,108,110,112,114,116,118,120,122,124,-1,-1,-1,-1,-1,-1,-1,-1,-1,-1,-1,-1,-1,-1,-1,-1,-1,-1,-1,-1,-1,-1,-1,-1,-1,-1,-1,-1,-1,-1,-1,-1,-1,-1,-1,-1,-1,-1,-1,-1,-1,-1,-1,-1,-1,-1,-1,-1,-1,-1,-1,-1,-1,-1,-1,-1,-1,-1,-1,-1,-1,-1],"split_conditions":[1.3084999E-1,1.0005E-1,6.065E-2,8.115E-2,1.0578199E1,1.399E-1,1.2025E-1,1.0525E-1,1.285375E1,1.04200006E-1,1.0725E-1,1.5035E-1,1.07205E0,8.745E-2,1.08449996E-1,1.1345E-1,9.0900004E-2,1.8385E-1,2.0805001E-1,4.135E-2,5.4185E-1,1.9035E-1,2.025E-1,4.775E-2,8.5214996E-1,3.8115E-1,2.6285E-1,4.025E-2,8.7885E-1,7.2099996E-1,4.9985E-1,8.805E-2,1.624E-1,9.9195E-1,1.1015E-1,1.2775001E-1,7.165E-2,1.1875E-1,4.8065E-1,7.09E-2,-1.2515E-1,1.13749996E-1,9.25E-1,9.3899995E-2,1.0065E-1,1.2515E-1,1.1105E-1,1.135E-1,6.1810005E-1,1.3374999E-1,1.280114E2,-1.7560977E-1,1.6444999E-1,7.442E-1,2.171E-1,1.088E-1,1.396925E1,9.7E-2,1.0795E-1,9.9469995E-1,1.4383499E1,-7.15E-2,-3.0999999E-3,-2.2401333E-1,-2.1434245E-1,-1.9411768E-1,3.1034482E-1,2.5714284E-1,-2.1928889E-1,-1.7890853E-1,-9.587399E-2,-2.148078E-1,-5.0561816E-2,-2.0495051E-1,3E-1,-1.9344036E-1,-8.181819E-2,-4.45434E-2,-1.8118326E-1,-2.0721625E-1,5.5384606E-2,1.2203389E-1,-1.494716E-1,-1.7560977E-1,2.5454545E-1,-1.3584909E-1,1.1803278E-1,-1.7906462E-1,9.656652E-2,-1.0139583E-1,5.1328745E-2,-5.7687644E-2,3.4285712E-1,-1.066835E-1,1.644204E-1,-1.6279867E-1,1.2286677E-2,1.0123608E-1,-8.2470134E-2,9.152541E-2,3.2950076E-1,-1.3846156E-1,7.857552E-2,2.3724928E-1,4.0034217E-1,-1.5517244E-1,2.6353592E-1,-1.8679248E-1,2.195121E-2,-1.8679248E-1,3.1935483E-1,3.1034482E-1,-2.1653368E-1,3.2776926E-2,2.3856716E-1,-9.993967E-2,5.845464E-2,2.2422966E-1,1.7341029E-2,2.1023911E-1,3.618126E-1,2.5714284E-1,-1.9384618E-1,4.0980735E-1,-1.836735E-1],"split_indices":[29,28,13,28,1,25,28,33,12,25,29,19,22,23,25,25,13,16,15,25,17,15,15,13,32,27,28,16,32,0,32,33,13,10,29,29,20,29,27,13,26,28,3,25,13,25,33,25,17,28,7,0,19,3,25,25,11,28,28,22,1,21,21,0,0,0,0,0,0,0,0,0,0,0,0,0,0,0,0,0,0,0,0,0,0,0,0,0,0,0,0,0,0,0,0,0,0,0,0,0,0,0,0,0,0,0,0,0,0,0,0,0,0,0,0,0,0,0,0,0,0,0,0,0,0],"split_type":[0,0,0,0,0,0,0,0,0,0,0,0,0,0,0,0,0,0,0,0,0,0,0,0,0,0,0,0,0,0,0,0,0,0,0,0,0,0,0,0,0,0,0,0,0,0,0,0,0,0,0,0,0,0,0,0,0,0,0,0,0,0,0,0,0,0,0,0,0,0,0,0,0,0,0,0,0,0,0,0,0,0,0,0,0,0,0,0,0,0,0,0,0,0,0,0,0,0,0,0,0,0,0,0,0,0,0,0,0,0,0,0,0,0,0,0,0,0,0,0,0,0,0,0,0],"sum_hessian":[2.1460887E4,1.3511555E4,7.949333E3,8.877777E3,4.6337773E3,1.2062222E3,6.743111E3,6.4537773E3,2.4239998E3,1.999111E3,2.6346665E3,1.00622217E3,1.9999998E2,1.1702222E3,5.5728887E3,4.8484443E3,1.6053333E3,8.977777E2,1.5262222E3,1.9293333E3,6.977777E1,1.1773333E3,1.4573333E3,6.066666E2,3.9955554E2,1.7022221E2,2.9777777E1,1.12888885E2,1.0573333E3,2.8337776E3,2.7391108E3,4.830222E3,1.8222221E1,1.0377777E3,5.6755554E2,8.835555E2,1.4222221E1,8.564444E2,6.697777E2,1.2493333E3,6.7999994E2,3.5555553E1,3.422222E1,4.7288885E2,7.044444E2,2.928889E2,1.1644443E3,3.2355554E2,2.8311108E2,9.111111E1,3.0844443E2,3.5555553E0,1.6666666E2,2.1333332E1,8.444444E0,1.4222221E1,9.8666664E1,7.7599994E2,2.813333E2,5.9288885E2,2.2408887E3,7.5555553E0,2.7315554E3,3.5715554E3,1.2586666E3,1.5999999E1,2.222222E0,1.3333333E0,1.0364443E3,4.2044443E2,1.471111E2,8.746666E2,8.888888E0,1.0222221E1,3.9999998E0,7.951111E2,6.133333E1,5.3555554E2,1.3422221E2,1.2431111E3,6.222222E0,1.8666666E1,6.613333E2,3.5555553E0,3.1999998E1,2.8444443E1,5.7777777E0,4.4799997E2,2.4888887E1,3.333333E2,3.7111108E2,2.728889E2,1.9999998E1,8.711111E1,1.0773333E3,2.9199997E2,3.1555553E1,8.8888885E1,1.9422221E2,1.8666666E1,7.244444E1,1.1599999E2,1.9244443E2,3.7777775E1,1.2888889E2,2.222222E0,1.911111E1,4.8888884E0,3.5555553E0,4.8888884E0,9.333333E0,2.222222E0,9.6444435E1,2.1866666E2,5.573333E2,1.831111E2,9.822221E1,4.2088885E2,1.7199998E2,5.426666E2,1.6982222E3,1.3333333E0,6.222222E0,2.7271108E3,4.444444E0],"tree_param":{"num_deleted":"0","num_feature":"34","num_nodes":"125","size_leaf_vector":"0"}},{"base_weights":[-1.3612695E-3,5.7477033E-1,-4.8189372E-1,1.0052779E-1,7.3518705E-1,-1.3471413E-1,-5.855697E-1,-3.3166555E-1,5.288787E-1,8.44377E-1,2.495271E-1,-4.6739146E-1,1.2170522E-2,-4.4950396E-1,-6.326303E-1,7.3944813E-1,-4.0648174E-1,8.3335763E-1,2.6838118E-1,5.766934E-1,9.042035E-1,3.356345E-1,-3.35163E-1,1.2565105E-2,-5.345108E-1,-1.954988E-1,3.9194894E-1,-5.836629E-1,-3.5972837E-1,-5.8278674E-1,-6.5663224E-1,8.6719006E-1,-4.5459723E-1,6.268068E-1,-4.3223268E-1,-1.1566738E-1,8.765395E-1,5.358107E-1,-7.914163E-2,9.0542823E-1,3.0438498E-1,9.9494344E-1,7.778477E-1,4.6372685E-1,-8.016517E-2,-5.075014E-1,-1.5238553E-1,8.92873E-1,-3.7963423E-1,-1.8514124E-1,-5.87984E-1,2.292188E-1,-3.234997E-1,6.3507974E-1,9.298635E-2,-5.899712E-1,1.0264236E0,-6.0674596E-1,-2.5075388E-1,3.01769E-1,-5.881599E-1,8.621943E-1,-6.572916E-1,9.177186E-1,-5.133281E-1,-6.700483E-1,3.466667E-1,1.1501209E0,-2.0805646E-1,-5.555339E-1,-1.7745334E-1,-5.578554E-1,6.790627E-1,9.392767E-1,5.325563E-1,7.064986E-1,1.7868899E-1,3.6835805E-1,-2.5413743E-1,9.3648094E-1,-3.546897E-1,6.817131E-1,8.8875726E-2,9.9886954E-1,-5.8989756E-2,8.3397675E-1,2.3203298E-1,1.5760368E-1,5.748794E-1,9.707097E-1,-1.9495837E-1,-5.9048355E-1,1.1395513E-2,-3.5347793E-1,3.236711E-1,-4.4459993E-1,9.8425645E-1,3.2928857E-1,-4.9723682E-1,-4.712886E-1,5.248939E-1,-6.6838485E-1,-5.10722E-1,5.703091E-1,-2.3186687E-1,3.6234865E-1,-3.6598793E-1,5.1864284E-1,1.0569121E0,1.8392162E-1,-5.3372353E-1,-5.950981E-1,1.0291042E0,-3.321118E-1,-6.4465266E-1,-9.84797E-3,-4.7382382E-1,8.415984E-1,-5.6850463E-1,-6.047538E-1,-4.0443873E-1,5.2206117E-1,-6.579146E-1],"categories":[],"categories_nodes":[],"categories_segments":[],"categories_sizes":[],"default_left":[true,true,true,true,true,true,true,true,true,true,true,true,true,true,true,true,true,true,true,true,true,true,true,true,true,true,true,true,true,true,true,true,true,true,true,true,true,true,true,true,true,true,true,true,true,true,true,true,true,true,true,true,true,true,true,true,false,true,true,true,true,false,true,false,false,false,false,false,false,false,false,false,false,false,false,false,false,false,false,false,false,false,false,false,false,false,false,false,false,false,false,false,false,false,false,false,false,false,false,false,false,false,false,false,false,false,false,false,false,false,false,false,false,false,false,false,false,false,false,false,false,false,false],"id":3,"left_children":[1,3,5,7,9,11,13,15,17,19,21,23,25,27,29,31,33,35,37,39,41,43,45,47,49,51,53,55,57,59,61,63,65,67,69,71,73,75,77,79,81,83,85,87,89,91,93,95,97,99,101,103,105,107,109,111,-1,113,115,117,119,-1,121,-1,-1,-1,-1,-1,-1,-1,-1,-1,-1,-1,-1,-1,-1,-1,-1,-1,-1,-1,-1,-1,-1,-1,-1,-1,-1,-1,-1,-1,-1,-1,-1,-1,-1,-1,-1,-1,-1,-1,-1,-1,-1,-1,-1,-1,-1,-1,-1,-1,-1,-1,-1,-1,-1,-1,-1,-1,-1,-1,-1],"loss_changes":[5.7568906E3,7.193413E2,4.0801538E2,4.428928E2,3.7449854E2,1.2746891E2,5.5618896E1,9.57406E1,9.506781E1,9.186084E1,6.5485146E1,2.5745026E1,1.428674E2,2.6853485E1,7.374756E0,1.230851E1,2.9908554E1,2.2782928E1,6.035401E1,9.430127E1,5.3264404E1,6.034355E1,5.188719E0,3.451955E1,1.2986603E1,6.3741898E1,4.6487038E1,9.73877E0,3.6155396E1,1.0236877E1,4.9417725E0,5.4171944E0,1.6487399E0,1.22504E1,3.40605E1,9.154131E0,1.0926666E1,2.223632E1,2.226206E1,1.9042633E1,4.7051674E1,1.1394775E1,6.0298462E1,2.9368317E1,3.2460804E1,3.693344E0,8.018108E0,4.2034492E0,5.932128E0,1.9448622E1,3.4321594E0,4.2878918E1,2.636869E1,1.6789429E1,1.653276E1,8.052887E0,0E0,4.076889E0,5.038136E1,6.7924347E0,6.169861E0,0E0,3.5524902E0,0E0,0E0,0E0,0E0,0E0,0E0,0E0,0E0,0E0,0E0,0E0,0E0,0E0,0E0,0E0,0E0,0E0,0E0,0E0,0E0,0E0,0E0,0E0,0E0,0E0,0E0,0E0,0E0,0E0,0E0,0E0,0E0,0E0,0E0,0E0,0E0,0E0,0E0,0E0,0E0,0E0,0E0,0E0,0E0,0E0,0E0,0E0,0E0,0E0,0E0,0E0,0E0,0E0,0E0,0E0,0E0,0E0,0E0,0E0,0E0],"parents":[2147483647,0,0,1,1,2,2,3,3,4,4,5,5,6,6,7,7,8,8,9,9,10,10,11,11,12,12,13,13,14,14,15,15,16,16,17,17,18,18,19,19,20,20,21,21,22,22,23,23,24,24,25,25,26,26,27,27,28,28,29,29,30,30,31,31,32,32,33,33,34,34,35,35,36,36,37,37,38,38,39,39,40,40,41,41,42,42,43,43,44,44,45,45,46,46,47,47,48,48,49,49,50,50,51,51,52,52,53,53,54,54,55,55,57,57,58,58,59,59,60,60,62,62],"right_children":[2,4,6,8,10,12,14,16,18,20,22,24,26,28,30,32,34,36,38,40,42,44,46,48,50,52,54,56,58,60,62,64,66,68,70,72,74,76,78,80,82,84,86,88,90,92,94,96,98,100,102,104,106,108,110,112,-1,114,116,118,120,-1,122,-1,-1,-1,-1,-1,-1,-1,-1,-1,-1,-1,-1,-1,-1,-1,-1,-1,-1,-1,-1,-1,-1,-1,-1,-1,-1,-1,-1,-1,-1,-1,-1,-1,-1,-1,-1,-1,-1,-1,-1,-1,-1,-1,-1,-1,-1,-1,-1,-1,-1,-1,-1,-1,-1,-1,-1,-1,-1,-1,-1],"split_conditions":[1.1785E-1,5.03675E0,1.3655001E-1,3.255E-2,9.285E-2,3.6849998E-2,1.5425E-1,9.7749996E-1,2.165E0,2.815E-2,1.611435E1,9.7025E-1,7.4785E-1,7.487E-1,1.7414999E-1,8.71E-2,-5.2E-3,2.3249999E-2,9.9700004E-2,9.6705E-1,7.345E-2,1.0835E-1,-4.8E-2,2.58575E0,-1.2195E-1,9.695E-2,1.1525E-1,-7.65E-3,2.8949998E-2,1.1545E1,-3.15E-3,4.96485E0,9.8494995E-1,1.18328495E1,1.455E-2,9.46035E0,9.9175E-1,7.94E-2,9.8845E-1,1.633355E1,5.6649998E-2,1.8859451E1,1.62998E1,4.235E-2,4.925E-2,1.139E-1,7.852E-1,7.29E-2,2.681E-1,2.215E-2,1.125E-2,9.8284996E-1,9.5745003E-1,8.0995E-1,1.279E-1,1.49719E1,3.0792707E-1,9.7605E-1,1.3035E-1,5.8194995E-1,2.1155E-1,2.586583E-1,1.136775E1,2.7531558E-1,-1.5399843E-1,-2.010145E-1,1.0400001E-1,3.4503627E-1,-6.241694E-2,-1.6666017E-1,-5.3236004E-2,-1.6735664E-1,2.0371883E-1,2.81783E-1,1.597669E-1,2.119496E-1,5.36067E-2,1.1050742E-1,-7.624123E-2,2.809443E-1,-1.0640691E-1,2.0451394E-1,2.6662719E-2,2.9966086E-1,-1.7696928E-2,2.5019303E-1,6.9609895E-2,4.7281105E-2,1.7246383E-1,2.9121292E-1,-5.8487516E-2,-1.7714506E-1,3.418654E-3,-1.0604338E-1,9.710134E-2,-1.3337998E-1,2.9527694E-1,9.878658E-2,-1.4917105E-1,-1.4138658E-1,1.5746817E-1,-2.0051546E-1,-1.532166E-1,1.7109273E-1,-6.9560066E-2,1.087046E-1,-1.0979638E-1,1.5559286E-1,3.1707364E-1,5.517649E-2,-1.6011706E-1,-1.7852943E-1,3.087313E-1,-9.9633545E-2,-1.9339581E-1,-2.954391E-3,-1.4214715E-1,2.5247952E-1,-1.7055139E-1,-1.8142614E-1,-1.21331625E-1,1.5661836E-1,-1.9737439E-1],"split_indices":[33,5,33,20,23,20,33,9,6,20,12,9,32,32,33,28,25,25,33,9,23,30,21,6,21,28,28,21,20,12,19,5,4,12,20,2,9,28,9,12,23,12,12,25,18,19,0,23,27,20,25,9,4,0,30,5,0,9,28,27,18,0,12,0,0,0,0,0,0,0,0,0,0,0,0,0,0,0,0,0,0,0,0,0,0,0,0,0,0,0,0,0,0,0,0,0,0,0,0,0,0,0,0,0,0,0,0,0,0,0,0,0,0,0,0,0,0,0,0,0,0,0,0],"split_type":[0,0,0,0,0,0,0,0,0,0,0,0,0,0,0,0,0,0,0,0,0,0,0,0,0,0,0,0,0,0,0,0,0,0,0,0,0,0,0,0,0,0,0,0,0,0,0,0,0,0,0,0,0,0,0,0,0,0,0,0,0,0,0,0,0,0,0,0,0,0,0,0,0,0,0,0,0,0,0,0,0,0,0,0,0,0,0,0,0,0,0,0,0,0,0,0,0,0,0,0,0,0,0,0,0,0,0,0,0,0,0,0,0,0,0,0,0,0,0,0,0,0,0],"sum_hessian":[2.0792266E4,9.455478E3,1.1336787E4,2.390381E3,7.0650967E3,2.6074663E3,8.72932E3,1.1899662E3,1.2004149E3,5.767633E3,1.297464E3,7.979704E2,1.809496E3,2.2460112E3,6.483309E3,7.711126E1,1.112855E3,5.524694E2,6.479455E2,1.0555211E3,4.712112E3,1.1312854E3,1.661786E2,9.800064E1,6.999698E2,1.1701327E3,6.393633E2,8.9822253E2,1.3477887E3,2.1154792E3,4.36783E3,6.990625E1,7.2050076E0,2.649194E1,1.086363E3,2.3971E1,5.284984E2,3.658618E2,2.8208374E2,4.7716064E2,5.783605E2,2.7385803E3,1.9735314E3,8.647675E2,2.6651785E2,8.46174E1,8.156121E1,2.9811316E1,6.818932E1,9.35061E1,6.064637E2,2.7080124E2,8.993315E2,3.5198657E2,2.8737674E2,8.953482E2,2.8743443E0,4.1118002E2,9.366087E2,1.2439745E1,2.1030396E3,1.3283201E0,4.3665015E3,6.7761345E1,2.144905E0,5.80726E0,1.3977478E0,1.6052315E1,1.0439625E1,7.312783E2,3.550847E2,1.5593069E1,8.377932E0,4.455132E2,8.298522E1,2.4688411E2,1.1897767E2,7.898869E1,2.0309503E2,4.6593555E2,1.1225084E1,2.094602E2,3.6890027E2,2.7284683E3,1.0111951E1,1.789028E3,1.845034E2,2.30998E2,6.337695E2,2.5511997E1,2.4100584E2,7.283211E1,1.1785294E1,5.7521065E1,2.4040144E1,1.6594008E0,2.8151915E1,9.4462385E0,5.8743088E1,6.68867E1,2.6619398E1,2.9344577E2,3.1301788E2,1.5551866E2,1.1528256E2,5.2024185E1,8.473073E2,2.7759305E2,7.439352E1,2.5157925E2,3.5797485E1,8.931524E2,2.195788E0,5.1054073E1,3.6012595E2,4.5080402E2,4.858047E2,7.697776E0,4.741969E0,1.9267244E3,1.7631517E2,1.8635187E0,4.364638E3],"tree_param":{"num_deleted":"0","num_feature":"34","num_nodes":"123","size_leaf_vector":"0"}},{"base_weights":[3.8016129E-3,5.113763E-1,-2.5094894E-1,8.275179E-1,1.7911085E-1,-3.5693002E-1,3.433227E-1,-1.9670913E-1,8.458208E-1,2.8334284E-1,-2.73687E-1,4.212764E-2,-4.5137867E-1,6.570052E-1,-1.12578005E-1,1.0246315E0,-3.983496E-1,9.1164625E-1,6.5372574E-1,-1.3041757E-1,4.3335873E-1,-4.4010395E-1,1.2433427E-1,-3.307463E-1,1.8631032E-1,-4.7631603E-1,2.0380676E-1,8.826427E-1,3.9795724E-1,2.0142797E-1,-3.728909E-1,-5.711397E-1,4.485996E-1,7.769639E-1,9.6464723E-1,2.0384139E-1,7.581409E-1,-4.931894E-1,4.324758E-2,7.149091E-1,2.8695163E-1,1.8311657E-1,-4.9393982E-1,4.6240282E-1,-1.5542369E-1,-5.083169E-1,-8.5181676E-2,6.7676246E-1,6.5344185E-2,-3.3728537E-1,-5.44386E-1,-4.3312994E-1,4.0835714E-1,9.028001E-1,-3.5266254E-2,-1.3711356E-1,5.950183E-1,-2.040853E-2,5.6376386E-1,-4.262291E-1,4.7299773E-1,-6.960398E-2,-6.682822E-1,9.863447E-1,-3.9318165E-1,2.4232242E-1,8.563271E-1,9.8109293E-1,6.338689E-1,-1.6137015E-2,5.569362E-1,8.3167195E-1,9.1935664E-2,7.2960526E-1,-5.280274E-1,-1.8697119E-1,3.3810076E-1,2.6582417E-1,7.700118E-1,-3.7904497E-2,4.2408845E-1,3.8548034E-1,-4.942583E-1,-5.068854E-1,9.8239154E-1,-3.296144E-2,6.528316E-1,-3.63355E-1,1.7052926E-1,-5.7526577E-1,8.944181E-3,-3.5457787E-1,1.9287792E-1,8.8875705E-1,3.3944896E-1,-3.923375E-3,7.021116E-1,-4.9510512E-1,-1.9876793E-1,-3.559206E-1,-5.7051057E-1,-5.176847E-1,3.7170923E-1,6.1271644E-1,-3.5281137E-1,2.0387138E-1,9.3125945E-1,5.1623297E-1,-5.716364E-1,-5.4074997E-1,6.895863E-2,8.9124255E-3,7.0177186E-1,-2.318507E-1,2.1959099E-1,7.8511107E-1,1.3058132E-1,1.0877352E0,-4.3603218E-1,8.62395E-1,-3.5831085E-1],"categories":[],"categories_nodes":[],"categories_segments":[],"categories_sizes":[],"default_left":[true,true,true,true,true,true,true,true,true,true,true,true,true,true,true,false,true,true,true,true,true,true,true,true,true,true,true,true,true,true,true,true,true,true,true,true,true,true,true,true,true,true,true,true,true,true,true,true,true,true,true,true,true,true,true,true,true,true,true,true,true,false,false,false,false,false,false,false,false,false,false,false,false,false,false,false,false,false,false,false,false,false,false,false,false,false,false,false,false,false,false,false,false,false,false,false,false,false,false,false,false,false,false,false,false,false,false,false,false,false,false,false,false,false,false,false,false,false,false,false,false],"id":4,"left_children":[1,3,5,7,9,11,13,15,17,19,21,23,25,27,29,-1,31,33,35,37,39,41,43,45,47,49,51,53,55,57,59,61,63,65,67,69,71,73,75,77,79,81,83,85,87,89,91,93,95,97,99,101,103,105,107,109,111,113,115,117,119,-1,-1,-1,-1,-1,-1,-1,-1,-1,-1,-1,-1,-1,-1,-1,-1,-1,-1,-1,-1,-1,-1,-1,-1,-1,-1,-1,-1,-1,-1,-1,-1,-1,-1,-1,-1,-1,-1,-1,-1,-1,-1,-1,-1,-1,-1,-1,-1,-1,-1,-1,-1,-1,-1,-1,-1,-1,-1,-1,-1],"loss_changes":[2.7053694E3,7.3428625E2,8.7749677E2,6.732544E1,1.6102647E2,4.4562512E2,3.0165955E2,1.6097395E1,4.391162E1,1.7215285E2,4.2356155E1,1.2175678E2,1.5629712E2,7.267969E1,7.040654E1,0E0,8.363638E0,1.7945312E1,4.2209686E1,4.6549335E1,8.368198E1,1.5207504E1,1.7953796E1,2.7496323E1,9.683992E1,8.697778E1,4.59376E1,1.2372437E1,6.1604485E1,3.1411186E1,2.1442657E1,2.2166624E0,4.8905897E0,3.1391907E1,9.579346E0,1.3310706E1,3.5762146E1,1.0573879E1,3.4027958E1,1.7006897E1,5.9735985E1,5.2014427E0,8.429527E0,8.121323E0,7.1246605E0,1.2691078E1,2.001212E1,2.2794083E1,5.7829403E1,6.613461E1,3.0230469E1,6.0357227E0,4.1650517E1,1.2792419E1,4.8192554E0,1.3167978E1,2.6686615E1,1.2395584E1,1.4124702E1,7.0548325E0,9.502031E0,0E0,0E0,0E0,0E0,0E0,0E0,0E0,0E0,0E0,0E0,0E0,0E0,0E0,0E0,0E0,0E0,0E0,0E0,0E0,0E0,0E0,0E0,0E0,0E0,0E0,0E0,0E0,0E0,0E0,0E0,0E0,0E0,0E0,0E0,0E0,0E0,0E0,0E0,0E0,0E0,0E0,0E0,0E0,0E0,0E0,0E0,0E0,0E0,0E0,0E0,0E0,0E0,0E0,0E0,0E0,0E0,0E0,0E0,0E0,0E0],"parents":[2147483647,0,0,1,1,2,2,3,3,4,4,5,5,6,6,7,7,8,8,9,9,10,10,11,11,12,12,13,13,14,14,16,16,17,17,18,18,19,19,20,20,21,21,22,22,23,23,24,24,25,25,26,26,27,27,28,28,29,29,30,30,31,31,32,32,33,33,34,34,35,35,36,36,37,37,38,38,39,39,40,40,41,41,42,42,43,43,44,44,45,45,46,46,47,47,48,48,49,49,50,50,51,51,52,52,53,53,54,54,55,55,56,56,57,57,58,58,59,59,60,60],"right_children":[2,4,6,8,10,12,14,16,18,20,22,24,26,28,30,-1,32,34,36,38,40,42,44,46,48,50,52,54,56,58,60,62,64,66,68,70,72,74,76,78,80,82,84,86,88,90,92,94,96,98,100,102,104,106,108,110,112,114,116,118,120,-1,-1,-1,-1,-1,-1,-1,-1,-1,-1,-1,-1,-1,-1,-1,-1,-1,-1,-1,-1,-1,-1,-1,-1,-1,-1,-1,-1,-1,-1,-1,-1,-1,-1,-1,-1,-1,-1,-1,-1,-1,-1,-1,-1,-1,-1,-1,-1,-1,-1,-1,-1,-1,-1,-1,-1,-1,-1,-1,-1],"split_conditions":[1.474755E1,4.075E-2,1.5755E-1,1.4821999E0,1.14250004E-1,2.8749999E-2,1.13749996E-1,2.3367E0,3.1549998E-2,1.1555E-1,1.5705001E-1,8.185E-2,7.0063E0,2.725E-2,7.8400004E-1,3.0738947E-1,1.1444999E-1,9.715E-2,7.615E-2,1.8887501E0,3.38455E0,2.05055E0,1.4434999E-1,9.9815E-1,6.15E-3,7.0385003E-1,6.335E-2,1.702E-1,1.4405E-1,1.9615E-1,2.4215001E-1,6.8592E0,2.88E-2,7.903E-1,1.2415E-1,5.7400003E-2,7.67E-2,2.3249999E-2,2.7455002E-1,1.6996E0,1.1645E-1,1.789E-1,1.1758499E0,1.18750006E-1,7.9305E-1,8.2745004E-1,8.967E-1,7.1028E0,6.1527004E0,9.855E-2,1.48512E1,8.55545E0,1.489E-1,6.307E-1,-2.8900001E-2,1.204E-1,-1.455E-1,7.529E-1,1.074E-1,2.789E0,1.7405E-1,-2.0881195E-2,-2.0048468E-1,2.959034E-1,-1.179545E-1,7.269673E-2,2.5689813E-1,2.9432788E-1,1.9016068E-1,-4.8411046E-3,1.6708086E-1,2.495016E-1,2.75807E-2,2.1888159E-1,-1.5840822E-1,-5.6091357E-2,1.0143023E-1,7.974725E-2,2.3100354E-1,-1.137135E-2,1.2722655E-1,1.15644105E-1,-1.482775E-1,-1.5206563E-1,2.9471746E-1,-9.888432E-3,1.958495E-1,-1.0900651E-1,5.1158782E-2,-1.7257974E-1,2.6832544E-3,-1.0637336E-1,5.7863377E-2,2.6662713E-1,1.0183469E-1,-1.1770126E-3,2.1063349E-1,-1.4853154E-1,-5.9630383E-2,-1.06776185E-1,-1.7115317E-1,-1.5530542E-1,1.1151277E-1,1.8381494E-1,-1.0584342E-1,6.1161418E-2,2.7937785E-1,1.548699E-1,-1.7149092E-1,-1.62225E-1,2.0687591E-2,2.6737277E-3,2.1053156E-1,-6.9555216E-2,6.58773E-2,2.3553333E-1,3.9174397E-2,3.2632056E-1,-1.3080966E-1,2.5871852E-1,-1.0749326E-1],"split_indices":[11,20,18,6,25,25,24,5,30,33,18,33,6,20,0,0,33,33,29,6,5,6,25,4,20,0,28,29,33,18,18,2,20,3,29,24,13,25,15,6,18,25,27,25,27,3,3,5,6,33,2,6,29,3,26,33,31,27,25,6,24,0,0,0,0,0,0,0,0,0,0,0,0,0,0,0,0,0,0,0,0,0,0,0,0,0,0,0,0,0,0,0,0,0,0,0,0,0,0,0,0,0,0,0,0,0,0,0,0,0,0,0,0,0,0,0,0,0,0,0,0],"split_type":[0,0,0,0,0,0,0,0,0,0,0,0,0,0,0,0,0,0,0,0,0,0,0,0,0,0,0,0,0,0,0,0,0,0,0,0,0,0,0,0,0,0,0,0,0,0,0,0,0,0,0,0,0,0,0,0,0,0,0,0,0,0,0,0,0,0,0,0,0,0,0,0,0,0,0,0,0,0,0,0,0,0,0,0,0,0,0,0,0,0,0,0,0,0,0,0,0,0,0,0,0,0,0,0,0,0,0,0,0,0,0,0,0,0,0,0,0,0,0,0,0],"sum_hessian":[2.0920406E4,6.990754E3,1.3929652E4,3.5815322E3,3.409222E3,1.1821781E4,2.1078713E3,6.2707E1,3.5188252E3,2.771589E3,6.376329E2,2.2625923E3,9.559188E3,1.2484407E3,8.5943066E2,8.307404E0,5.4399597E1,2.6179746E3,9.0085065E2,7.375301E2,2.034059E3,4.495609E2,1.8807195E2,6.305694E2,1.632023E3,9.208955E3,3.5023386E2,6.659626E2,5.824781E2,3.8964377E2,4.6978693E2,4.545231E1,8.947289E0,7.437266E2,1.8742479E3,1.702523E2,7.305983E2,2.3817102E2,4.9935904E2,6.9453674E2,1.3395222E3,3.5555717E1,4.1400522E2,8.486521E1,1.0320673E2,3.6532712E2,2.6524228E2,3.219788E2,1.3100442E3,3.0287632E3,6.1801914E3,8.4863914E1,2.6536996E2,6.5166833E2,1.4294253E1,1.5686208E2,4.25616E2,2.4226384E2,1.4737993E2,4.423879E2,2.739902E1,7.653688E0,3.779862E1,5.354807E0,3.5924826E0,9.6654335E1,6.4707227E2,1.7836042E3,9.064367E1,1.0548768E2,6.4764626E1,6.57752E2,7.284633E1,6.045201E0,2.3212582E2,2.8061963E2,2.1873943E2,7.6542534E1,6.179942E2,3.978352E2,9.416871E2,2.7708733E1,7.846983E0,4.110574E2,2.9478009E0,2.3794712E1,6.10705E1,6.2940865E1,4.026587E1,3.2336234E2,4.196479E1,1.3458008E2,1.306622E2,1.9671356E2,1.25265236E2,1.1824149E3,1.2762926E2,1.4145372E3,1.6142261E3,7.541672E2,5.4260244E3,7.711876E1,7.745155E0,2.0935669E2,5.6013264E1,2.5816196E1,6.258521E2,7.0662413E0,7.2280116E0,5.246807E1,1.04394005E2,6.574448E1,3.5987152E2,1.2881255E2,1.13451294E2,9.700167E1,5.037826E1,2.1386695E0,4.4024924E2,1.8633444E1,8.765575E0],"tree_param":{"num_deleted":"0","num_feature":"34","num_nodes":"121","size_leaf_vector":"0"}},{"base_weights":[-1.4589124E-3,-4.1194347E-1,6.831511E-1,-5.409977E-1,6.1354344E-3,-3.4018352E-3,7.575823E-1,-6.1413735E-1,-3.7156126E-1,-3.4230196E-1,1.8071857E-1,-2.0799433E-1,4.9884805E-1,-9.035584E-2,8.0378294E-1,-6.4556015E-1,-5.2070856E-1,-5.73017E-1,-1.5972598E-1,-1.757451E-1,-5.0941056E-1,-3.758662E-1,3.2284087E-1,-5.885787E-1,-1.0743572E-1,-5.333571E-1,5.9027594E-1,-6.8075377E-1,4.0010113E-2,8.486961E-1,2.2016878E-1,-6.682635E-1,-6.1294657E-1,-6.4680314E-1,-4.4735044E-1,-4.3241364E-1,-6.353699E-1,-4.9130592E-1,8.334636E-2,-4.7585908E-1,1.6056411E-2,-5.916576E-1,-2.009888E-1,-4.9442637E-1,-1.0787115E-1,4.325385E-1,-1.18797876E-1,-6.053334E-1,5.274354E-1,-2.8603044E-1,1.7628549E-1,-6.289261E-1,3.747283E-1,8.4612006E-1,1.6234227E-1,2.857802E-1,-7.108511E-1,-2.2632952E-1,5.375994E-1,6.0622686E-1,9.307562E-1,-1.2376206E-1,4.787735E-1,-6.6115737E-1,-5.5797285E-1,-6.526736E-1,-2.5247854E-1,-5.7304853E-1,-2.1300554E-1,-5.773285E-1,-2.3829791E-1,-6.386986E-1,-1.7956096E-1,-2.2890967E-1,-5.496083E-1,3.2049018E-1,-1.17839664E-1,7.3147833E-1,-4.9741215E-1,-6.274252E-1,8.514881E-2,6.709733E-1,-6.030214E-1,-6.310902E-1,1.0262159E-1,-5.7576495E-1,-3.205892E-1,-4.4851765E-1,1.77583E-1,1.1819054E-1,6.2301534E-1,1.302745E0,-1.6803123E-1,5.382618E-1,-6.225182E-1,1.086523E0,-3.324526E-1,3.8253963E-1,-2.6583728E-1,-6.8231136E-1,-9.196628E-2,1.0192137E0,6.47071E-1,-4.1103622E-1,4.767022E-1,1.0151234E0,-2.760158E-1,-6.5001136E-1,6.369094E-1,6.7759067E-1,1.1036475E-1,9.356983E-1,-4.3577117E-1,-2.8428668E-1,2.6590887E-1,2.5258284E-2,6.049246E-1],"categories":[],"categories_nodes":[],"categories_segments":[],"categories_sizes":[],"default_left":[true,true,true,true,true,true,true,true,true,true,true,true,true,true,true,true,true,true,true,true,true,true,true,true,true,true,true,true,true,true,true,false,true,true,true,true,true,true,true,true,true,true,true,true,true,true,true,true,false,true,true,true,false,true,true,false,false,true,true,true,true,true,true,false,false,false,false,false,false,false,false,false,false,false,false,false,false,false,false,false,false,false,false,false,false,false,false,false,false,false,false,false,false,false,false,false,false,false,false,false,false,false,false,false,false,false,false,false,false,false,false,false,false,false,false,false,false],"id":5,"left_children":[1,3,5,7,9,11,13,15,17,19,21,23,25,27,29,31,33,35,37,39,41,43,45,47,49,51,53,55,57,59,61,-1,63,65,67,69,71,73,75,77,79,81,83,85,87,89,91,93,-1,95,97,99,-1,101,103,-1,-1,105,107,109,111,113,115,-1,-1,-1,-1,-1,-1,-1,-1,-1,-1,-1,-1,-1,-1,-1,-1,-1,-1,-1,-1,-1,-1,-1,-1,-1,-1,-1,-1,-1,-1,-1,-1,-1,-1,-1,-1,-1,-1,-1,-1,-1,-1,-1,-1,-1,-1,-1,-1,-1,-1,-1,-1,-1,-1],"loss_changes":[5.829885E3,6.997517E2,3.9737207E2,1.2258276E2,1.8620976E2,7.836059E1,2.749099E2,1.9980957E1,1.275311E2,2.8350021E1,1.6143457E2,2.0673782E1,2.1145527E1,2.7997156E1,1.7420605E2,3.421875E0,1.5869965E1,1.3160156E1,1.1764172E2,2.9552433E1,1.2806046E1,1.3141155E1,7.877788E1,2.432621E0,2.1830082E1,1.8399472E0,2.2114594E1,2.1168022E0,3.969628E1,1.22348145E2,4.246442E1,0E0,5.291809E0,1.3173828E0,3.2506073E1,1.3194229E1,1.4928589E0,9.318329E0,4.024646E1,5.5723534E0,1.4018536E1,6.1688995E0,1.4270111E1,3.882286E0,1.2588984E1,7.7879166E1,2.290235E1,2.5325317E0,0E0,1.7192816E1,1.529951E1,4.2739964E-1,0E0,3.7147827E0,1.4126075E1,0E0,0E0,1.23212E1,1.2727856E1,5.5301086E1,3.156543E1,1.292514E1,1.5566257E1,0E0,0E0,0E0,0E0,0E0,0E0,0E0,0E0,0E0,0E0,0E0,0E0,0E0,0E0,0E0,0E0,0E0,0E0,0E0,0E0,0E0,0E0,0E0,0E0,0E0,0E0,0E0,0E0,0E0,0E0,0E0,0E0,0E0,0E0,0E0,0E0,0E0,0E0,0E0,0E0,0E0,0E0,0E0,0E0,0E0,0E0,0E0,0E0,0E0,0E0,0E0,0E0,0E0,0E0],"parents":[2147483647,0,0,1,1,2,2,3,3,4,4,5,5,6,6,7,7,8,8,9,9,10,10,11,11,12,12,13,13,14,14,15,15,16,16,17,17,18,18,19,19,20,20,21,21,22,22,23,23,24,24,25,25,26,26,27,27,28,28,29,29,30,30,32,32,33,33,34,34,35,35,36,36,37,37,38,38,39,39,40,40,41,41,42,42,43,43,44,44,45,45,46,46,47,47,49,49,50,50,51,51,53,53,54,54,57,57,58,58,59,59,60,60,61,61,62,62],"right_children":[2,4,6,8,10,12,14,16,18,20,22,24,26,28,30,32,34,36,38,40,42,44,46,48,50,52,54,56,58,60,62,-1,64,66,68,70,72,74,76,78,80,82,84,86,88,90,92,94,-1,96,98,100,-1,102,104,-1,-1,106,108,110,112,114,116,-1,-1,-1,-1,-1,-1,-1,-1,-1,-1,-1,-1,-1,-1,-1,-1,-1,-1,-1,-1,-1,-1,-1,-1,-1,-1,-1,-1,-1,-1,-1,-1,-1,-1,-1,-1,-1,-1,-1,-1,-1,-1,-1,-1,-1,-1,-1,-1,-1,-1,-1,-1,-1,-1],"split_conditions":[1.1795E-1,1.1755E-1,2.44655E0,9.675E-2,1.5819395E2,1.1545E-1,1.0125E-1,7.955E-2,1.5630316E2,1.5085E-1,8.985E-2,4.6899997E-2,1.118E-1,5.35E-2,1.9235E-1,8.925E-2,1.2852949E1,1.0945E-1,2.0385E-1,1.231635E1,9.285E-2,1.13350004E-1,1.6865E-1,9.9380004E-1,1.5235001E-1,1.5830001E-1,9.528E-1,-6.56E-2,1.2275E-1,1.4815E-1,1.5575E-1,-2.0047906E-1,1.3259251E1,1.0645E-1,2.3445E-1,8.825E-2,1.17249995E-1,5.459E-1,7.0505E-1,-1.399E-1,8.08E-2,-2.3210001E-1,5.221E-1,8.2949996E-2,4.854205E1,2.902E-1,-2.5489998E-1,5.1465E-1,1.5823063E-1,-1.2375E-1,4.318E-1,1.2175E-1,1.12418495E-1,-4.5900002E-2,1.8455E-1,8.573406E-2,-2.1325533E-1,4.4600002E-2,4.0485E-1,9.716E-1,-9.35E-3,1.7466415E2,1.298285E1,-1.9834723E-1,-1.6739187E-1,-1.958021E-1,-7.574356E-2,-1.7191456E-1,-6.390166E-2,-1.7319855E-1,-7.148938E-2,-1.9160958E-1,-5.386829E-2,-6.86729E-2,-1.648825E-1,9.614706E-2,-3.5351902E-2,2.1944351E-1,-1.4922366E-1,-1.8822756E-1,2.5544645E-2,2.01292E-1,-1.8090641E-1,-1.8932708E-1,3.0786479E-2,-1.7272949E-1,-9.6176766E-2,-1.345553E-1,5.32749E-2,3.5457164E-2,1.8690461E-1,3.908235E-1,-5.0409373E-2,1.6147853E-1,-1.8675546E-1,3.2595694E-1,-9.973578E-2,1.147619E-1,-7.9751186E-2,-2.0469342E-1,-2.7589886E-2,3.057641E-1,1.9412132E-1,-1.2331087E-1,1.4301068E-1,3.0453703E-1,-8.280474E-2,-1.9500342E-1,1.9107284E-1,2.0327722E-1,3.3109426E-2,2.807095E-1,-1.3073136E-1,-8.528601E-2,7.9772666E-2,7.5774854E-3,1.814774E-1],"split_indices":[24,29,6,28,7,30,23,28,7,18,28,30,28,18,18,33,12,18,15,12,30,23,18,9,24,24,32,21,30,29,24,0,12,19,14,29,24,32,32,26,28,21,27,28,8,15,21,22,0,26,14,23,0,21,24,0,0,30,22,22,21,7,12,0,0,0,0,0,0,0,0,0,0,0,0,0,0,0,0,0,0,0,0,0,0,0,0,0,0,0,0,0,0,0,0,0,0,0,0,0,0,0,0,0,0,0,0,0,0,0,0,0,0,0,0,0,0],"split_type":[0,0,0,0,0,0,0,0,0,0,0,0,0,0,0,0,0,0,0,0,0,0,0,0,0,0,0,0,0,0,0,0,0,0,0,0,0,0,0,0,0,0,0,0,0,0,0,0,0,0,0,0,0,0,0,0,0,0,0,0,0,0,0,0,0,0,0,0,0,0,0,0,0,0,0,0,0,0,0,0,0,0,0,0,0,0,0,0,0,0,0,0,0,0,0,0,0,0,0,0,0,0,0,0,0,0,0,0,0,0,0,0,0,0,0,0,0],"sum_hessian":[2.0743307E4,1.2968148E4,7.775159E3,9.90908E3,3.0590679E3,7.6057513E2,7.014584E3,6.9195386E3,2.9895417E3,1.0207897E3,2.0382782E3,5.4084625E2,2.1972891E2,3.6239774E2,6.6521865E3,5.1735977E3,1.745941E3,1.5314371E3,1.4581046E3,5.122663E2,5.0852338E2,4.1426663E2,1.6240116E3,1.1202225E2,4.2882397E2,1.7485619E1,2.022433E2,6.478396E1,2.9761377E2,6.1764136E3,4.757725E2,3.0387424E3,2.134855E3,6.392771E2,1.106664E3,4.7293118E2,1.058506E3,6.1633215E2,8.4177246E2,1.9915898E2,3.1310727E2,4.0073956E2,1.0778384E2,2.8662134E2,1.27645294E2,1.3009037E3,3.2310794E2,1.1081616E2,1.2060865E0,2.6316235E2,1.6566162E2,1.6098763E1,1.3868556E0,1.2595981E2,7.6283485E1,1.6998645E0,6.3084095E1,1.9420743E2,1.0340633E2,1.5638809E3,4.612533E3,2.0442255E2,2.7134995E2,1.1315142E3,1.00334094E3,6.29254E2,1.0023117E1,7.193651E2,3.8729883E2,2.6965167E2,2.0327951E2,1.0504337E3,8.072296E0,1.1294353E2,5.033886E2,3.860872E2,4.5568524E2,2.9152846E0,1.962437E2,2.9575878E1,2.835314E2,3.0567753E0,3.9768277E2,4.4154682E1,6.362915E1,1.936842E2,9.293712E1,5.7936073E1,6.970921E1,4.91459E2,8.094447E2,9.963567E0,3.1314438E2,1.1916745E0,1.0962449E2,7.876428E0,2.5528593E2,1.1305517E2,5.2606457E1,1.4396727E1,1.7020361E0,6.51686E1,6.079121E1,2.6904089E1,4.9379395E1,6.725847E0,1.8748158E2,7.551814E0,9.5854515E1,1.3668055E3,1.9707524E2,4.596226E3,1.630716E1,1.4497192E2,5.9450626E1,5.9314297E1,2.1203564E2],"tree_param":{"num_deleted":"0","num_feature":"34","num_nodes":"117","size_leaf_vector":"0"}},{"base_weights":[-4.133234E-3,3.2973465E-1,-4.2559847E-1,5.469034E-1,-2.8386531E-2,-1.720243E-1,-5.2065045E-1,6.7565763E-1,2.961367E-1,-3.4581637E-1,2.0563065E-1,-1.1901474E-2,-4.9527627E-1,-2.349717E-1,-5.621446E-1,7.283787E-1,3.0556056E-1,-2.7638078E-1,4.5723614E-1,4.3826416E-1,-4.1176742E-1,3.541007E-1,-4.060548E-1,-5.15033E-1,5.546272E-2,-5.7448727E-1,-3.8274127E-1,-5.5926764E-1,-1.2813395E-1,-4.4265535E-1,-5.963389E-1,7.4971896E-1,4.3357587E-1,3.7823343E-1,-6.695676E-1,-4.0680173E-1,1.2057379E-1,3.0265743E-1,6.414878E-1,7.2709185E-1,-1.6063705E-2,-2.57815E-1,-5.22985E-1,6.873954E-1,2.202873E-1,-4.2953956E-1,1.542052E0,-1.6781782E-1,-5.849988E-1,1.5984742E-1,-3.38961E-1,-5.9192646E-1,-3.5385954E-1,-4.203207E-1,1.2319145E0,1.562762E0,-5.894332E-1,-1.6624269E-1,7.8696537E-1,-6.1110772E-2,-4.74269E-1,5.501051E-1,-5.983428E-1,7.8498256E-1,6.357376E-1,7.214383E-1,1.740693E-1,5.267373E-1,4.8709758E-2,-7.20461E-1,4.6707496E-1,2.2185487E-1,-4.7764537E-1,4.502988E-1,-4.870998E-1,5.35573E-1,8.1668094E-2,2.0266628E-1,7.017262E-1,7.7215517E-1,-1.9499412E-1,5.564123E-1,-4.4477624E-1,-4.8006806E-1,-1.5644357E-2,-4.434647E-1,-5.7480216E-1,8.326687E-1,5.2168643E-1,7.582982E-2,4.0860492E-1,1.191256E-1,-5.1878834E-1,1.0353178E0,-3.3912802E-1,5.3391874E-1,-5.9728426E-1,-5.164011E-2,3.2107848E-1,6.3064593E-1,-4.2848524E-1,1.9337624E-1,-5.962152E-1,-5.034563E-1,7.880379E-1,-1.6628066E-2,-5.04826E-1,3.7673377E-2,1.494738E0,8.189475E-2,-6.3323545E-1,-5.5744696E-2,-3.8141057E-1,9.565512E-1,-3.05675E-1,5.191172E-1,-4.9866408E-1,-4.81334E-1,1.0230038E0,1.320253E0,-5.090047E-1,5.523847E-1,-5.9949344E-1],"categories":[],"categories_nodes":[],"categories_segments":[],"categories_sizes":[],"default_left":[true,true,true,true,true,true,true,true,true,true,true,true,true,true,true,true,true,true,true,true,true,true,true,true,true,true,true,true,true,true,true,true,true,true,true,true,true,true,true,true,true,true,true,true,true,true,false,true,true,true,true,true,true,true,true,false,true,true,true,true,true,true,true,false,false,false,false,false,false,false,false,false,false,false,false,false,false,false,false,false,false,false,false,false,false,false,false,false,false,false,false,false,false,false,false,false,false,false,false,false,false,false,false,false,false,false,false,false,false,false,false,false,false,false,false,false,false,false,false,false,false,false,false],"id":6,"left_children":[1,3,5,7,9,11,13,15,17,19,21,23,25,27,29,31,33,35,37,39,41,43,45,47,49,51,53,55,57,59,61,63,65,67,69,71,73,75,77,79,81,83,85,87,89,91,-1,93,95,97,99,101,103,105,107,-1,109,111,113,115,117,119,121,-1,-1,-1,-1,-1,-1,-1,-1,-1,-1,-1,-1,-1,-1,-1,-1,-1,-1,-1,-1,-1,-1,-1,-1,-1,-1,-1,-1,-1,-1,-1,-1,-1,-1,-1,-1,-1,-1,-1,-1,-1,-1,-1,-1,-1,-1,-1,-1,-1,-1,-1,-1,-1,-1,-1,-1,-1,-1,-1,-1],"loss_changes":[2.7245037E3,8.4025256E2,2.0618848E2,2.1694629E2,3.0309848E2,1.2084789E2,7.36521E1,8.646936E1,2.1073117E2,8.9718185E1,2.134548E2,5.2984974E1,6.674469E0,2.7338886E1,2.1939697E1,2.4136963E1,3.963476E1,2.6040936E1,5.0570038E1,1.7703878E1,2.7220978E1,8.416702E1,2.1672195E1,4.3861656E0,5.6824505E1,1.5293579E0,2.0086578E1,1.3451637E1,2.092873E1,1.4602173E1,1.0029053E1,1.4069092E1,1.9658466E1,2.5314049E1,2.5870438E0,1.6946175E1,2.5250961E1,4.9941666E1,2.1328613E1,3.576439E0,1.334805E1,3.6165466E1,3.5631714E0,1.2592194E1,3.6706573E1,2.2319336E1,0E0,7.020889E0,2.4252892E0,3.7217598E1,2.5345337E1,1.520874E0,6.476638E0,1.0768726E1,2.3258696E0,0E0,5.748749E0,1.3610906E1,4.742755E0,2.4114182E1,1.2340363E1,7.1062627E0,5.9124756E0,0E0,0E0,0E0,0E0,0E0,0E0,0E0,0E0,0E0,0E0,0E0,0E0,0E0,0E0,0E0,0E0,0E0,0E0,0E0,0E0,0E0,0E0,0E0,0E0,0E0,0E0,0E0,0E0,0E0,0E0,0E0,0E0,0E0,0E0,0E0,0E0,0E0,0E0,0E0,0E0,0E0,0E0,0E0,0E0,0E0,0E0,0E0,0E0,0E0,0E0,0E0,0E0,0E0,0E0,0E0,0E0,0E0,0E0,0E0,0E0],"parents":[2147483647,0,0,1,1,2,2,3,3,4,4,5,5,6,6,7,7,8,8,9,9,10,10,11,11,12,12,13,13,14,14,15,15,16,16,17,17,18,18,19,19,20,20,21,21,22,22,23,23,24,24,25,25,26,26,27,27,28,28,29,29,30,30,31,31,32,32,33,33,34,34,35,35,36,36,37,37,38,38,39,39,40,40,41,41,42,42,43,43,44,44,45,45,47,47,48,48,49,49,50,50,51,51,52,52,53,53,54,54,56,56,57,57,58,58,59,59,60,60,61,61,62,62],"right_children":[2,4,6,8,10,12,14,16,18,20,22,24,26,28,30,32,34,36,38,40,42,44,46,48,50,52,54,56,58,60,62,64,66,68,70,72,74,76,78,80,82,84,86,88,90,92,-1,94,96,98,100,102,104,106,108,-1,110,112,114,116,118,120,122,-1,-1,-1,-1,-1,-1,-1,-1,-1,-1,-1,-1,-1,-1,-1,-1,-1,-1,-1,-1,-1,-1,-1,-1,-1,-1,-1,-1,-1,-1,-1,-1,-1,-1,-1,-1,-1,-1,-1,-1,-1,-1,-1,-1,-1,-1,-1,-1,-1,-1,-1,-1,-1,-1,-1,-1,-1,-1,-1,-1],"split_conditions":[1.08950004E-1,2.5405002E-1,2.8035E-1,9.8175E-1,3.6250003E-2,1.3635E-1,1.3645E-1,1.0345E-1,1.315E-2,6.71E-1,1.4355001E-1,1.9049998E-2,2.1242802E1,3.145E-2,1.3984999E-1,1.62696E1,1.66523E1,4.88267E1,7.3175E-1,1.18424E1,1.2135E-1,1.212045E1,1.5745E-1,5.8825004E-1,1.1155E-1,1.18135E0,8.5265005E-1,2.6999999E-2,9.5835E-1,1.19181E1,1.145635E1,9.7265E-1,6.075E-2,9.695E-2,6.338E-1,-8.88E-2,4.602E-1,8.335E-2,3.17E-2,7.695E-2,5.6605005E-1,1.525E-2,9.8605E-1,9.8605E-1,1.647955E1,1.1105E-1,4.6261564E-1,5.92E-2,-1.3635E-1,6.3615E-1,4.965E-2,3.6484998E-1,1.86745E1,2.382925E1,1.21800005E-1,4.6882862E-1,9.6949995E-1,1.3205001E-1,1.349E-1,9.8775E-1,4E-4,9.9979997E-1,4.5435E-1,2.3549478E-1,1.9072129E-1,2.164315E-1,5.222079E-2,1.5802118E-1,1.4612928E-2,-2.1613832E-1,1.4012249E-1,6.655646E-2,-1.4329362E-1,1.3508964E-1,-1.4612995E-1,1.606719E-1,2.450043E-2,6.0799886E-2,2.1051787E-1,2.3164655E-1,-5.8498237E-2,1.6692369E-1,-1.3343288E-1,-1.4402042E-1,-4.693307E-3,-1.3303941E-1,-1.7244065E-1,2.4980062E-1,1.5650594E-1,2.2748947E-2,1.2258148E-1,3.5737682E-2,-1.556365E-1,3.1059533E-1,-1.0173841E-1,1.6017562E-1,-1.7918529E-1,-1.5492033E-2,9.632355E-2,1.8919379E-1,-1.2854558E-1,5.8012877E-2,-1.7886457E-1,-1.5103689E-1,2.3641138E-1,-4.98842E-3,-1.514478E-1,1.1302013E-2,4.4842142E-1,2.4568425E-2,-1.8997064E-1,-1.672341E-2,-1.1442318E-1,2.8696537E-1,-9.1702506E-2,1.5573516E-1,-1.4959922E-1,-1.4440021E-1,3.0690116E-1,3.9607593E-1,-1.5270142E-1,1.6571541E-1,-1.7984805E-1],"split_indices":[28,14,14,9,20,33,33,33,25,3,33,20,1,20,28,12,12,8,0,12,33,12,20,32,25,22,0,24,32,12,12,9,28,28,27,26,22,33,20,19,22,20,9,9,11,29,0,18,16,22,18,3,1,1,18,0,4,28,33,9,26,10,27,0,0,0,0,0,0,0,0,0,0,0,0,0,0,0,0,0,0,0,0,0,0,0,0,0,0,0,0,0,0,0,0,0,0,0,0,0,0,0,0,0,0,0,0,0,0,0,0,0,0,0,0,0,0,0,0,0,0,0,0],"split_type":[0,0,0,0,0,0,0,0,0,0,0,0,0,0,0,0,0,0,0,0,0,0,0,0,0,0,0,0,0,0,0,0,0,0,0,0,0,0,0,0,0,0,0,0,0,0,0,0,0,0,0,0,0,0,0,0,0,0,0,0,0,0,0,0,0,0,0,0,0,0,0,0,0,0,0,0,0,0,0,0,0,0,0,0,0,0,0,0,0,0,0,0,0,0,0,0,0,0,0,0,0,0,0,0,0,0,0,0,0,0,0,0,0,0,0,0,0,0,0,0,0,0,0],"sum_hessian":[1.936004E4,1.080275E4,8.557288E3,6.724444E3,4.0783064E3,2.3338867E3,6.2234014E3,4.442026E3,2.2824182E3,1.7305052E3,2.3478013E3,1.5614563E3,7.724303E2,7.901368E2,5.4332646E3,3.887303E3,5.547227E2,5.0105304E2,1.7813652E3,1.3382597E2,1.5966792E3,1.8895784E3,4.582228E2,1.8359224E2,1.3778641E3,4.509273E2,3.2150302E2,1.9475168E2,5.9538513E2,1.2119949E3,4.2212695E3,3.623464E3,2.638389E2,5.168182E2,3.7904537E1,3.7712302E2,1.23930016E2,9.701208E2,8.1124445E2,8.1447426E1,5.2378555E1,6.710708E2,9.2560846E2,5.401262E2,1.3494521E3,4.5353488E2,4.687933E0,3.1360405E1,1.5223183E2,1.0899913E3,2.8787277E2,4.1633575E2,3.459154E1,3.1491342E2,6.589596E0,2.0175648E0,1.9273412E2,5.7236755E2,2.301755E1,9.2962715E1,1.1190322E3,6.8882856E0,4.2143813E3,2.7628157E3,8.6064825E2,1.24241615E2,1.395973E2,3.558511E2,1.609671E2,3.6630547E1,1.2739908E0,3.797819E1,3.3914484E2,8.050617E1,4.342384E1,4.7162244E2,4.9849832E2,9.8447105E1,7.1279736E2,7.7807495E1,3.6399333E0,2.2301138E1,3.0077417E1,3.4941315E2,3.2165765E2,3.6895547E2,5.5665295E2,2.8566513E2,2.544611E2,7.644495E2,5.8500256E2,6.3406E1,3.901289E2,3.280122E0,2.8080282E1,1.1921885E0,1.5103964E2,4.7180377E2,6.1818756E2,2.3821852E1,2.640509E2,2.0218792E0,4.1431387E2,3.1079065E1,3.5124755E0,5.471753E1,2.601959E2,1.3948576E0,5.1947384E0,1.1751852E1,1.8098227E2,3.7899588E2,1.9337167E2,2.0032854E1,2.984695E0,3.988537E1,5.307735E1,1.1144521E3,4.580097E0,3.845444E0,3.042842E0,3.73123E0,4.2106504E3],"tree_param":{"num_deleted":"0","num_feature":"34","num_nodes":"123","size_leaf_vector":"0"}},{"base_weights":[9.334025E-3,3.532372E-1,-2.4088234E-1,6.1954385E-1,6.842761E-2,1.4779374E-1,-3.4575543E-1,1.3222705E-1,6.537672E-1,1.3669965E-1,-4.6095172E-1,-1.9992474E-1,3.0253112E-1,-1.7459801E-1,-4.3064892E-1,-2.7049366E-1,4.7566158E-1,7.477933E-1,5.472489E-1,3.381795E-1,1.6827615E-2,1.3408285E-1,-4.939516E-1,-2.5941318E-1,6.8765515E-1,6.6222644E-1,1.9830637E-1,-2.9275963E-1,1.9812317E-1,-4.5012903E-1,4.3786183E-2,1.3474695E-1,-4.7541267E-1,8.938791E-1,2.589223E-1,3.1113592E-1,7.606587E-1,2.0687404E-1,6.0450107E-1,1.1597762E-1,4.962101E-1,-4.8006156E-1,6.6200495E-2,-4.6337798E-1,6.9638103E-1,-5.221536E-1,3.691193E-2,-4.8937625E-1,1.6119322E-2,1.198029E0,2.1446422E-1,-6.3316077E-1,6.847738E-1,3.5089687E-1,-8.3547145E-2,-3.9076242E-1,1.0045298E-1,2.7459857E-1,-5.3978866E-1,-4.5685706E-1,9.9857295E-1,6.881467E-1,-2.554617E-1,-5.783914E-1,5.488041E-1,-6.2464714E-1,-3.0435687E-1,-5.587699E-2,5.351754E-1,-1.6535114E-1,5.7564425E-1,7.699454E-1,4.068724E-1,7.0091206E-1,7.784588E-2,6.426807E-1,2.8553104E-1,-4.1847798E-1,2.5826806E-1,6.2320036E-1,2.4138921E-1,-5.558218E-1,3.934919E-1,1.2404166E-1,-3.2789367E-1,-3.6224358E-2,-5.9093106E-1,-3.810909E-1,8.3784384E-1,-5.287908E-1,5.025376E-1,7.0526725E-1,-3.7100253E-1,-5.3479475E-1,-1.0390854E-1,6.903515E-1,-9.959744E-2,-3.6045563E-1,9.0439856E-1,-1.384633E-1,-7.421038E-1,7.282729E-1,1.3352083E-1,-1.2831496E-1,4.6256515E-1,1.7989677E-1,-2.9277778E-1,-4.968852E-1,-2.5738648E-1,2.5675622E-1,-3.7896845E-1,-2.7418905E-1,4.694604E-1,-5.8093E-1,2.7235287E-1,-2.872983E-1,-4.9249253E-1,-4.452435E-1,1.1115639E0,-5.962137E-1,7.599359E-1,-3.788122E-1,1.7917623E-1],"categories":[],"categories_nodes":[],"categories_segments":[],"categories_sizes":[],"default_left":[true,true,true,true,true,true,true,true,true,true,true,true,true,true,true,true,true,true,true,true,true,true,true,true,true,true,true,true,true,true,true,true,true,false,true,true,true,true,true,true,true,true,true,true,true,true,true,true,true,false,true,true,true,true,true,true,true,true,true,true,true,true,true,false,false,false,false,false,false,false,false,false,false,false,false,false,false,false,false,false,false,false,false,false,false,false,false,false,false,false,false,false,false,false,false,false,false,false,false,false,false,false,false,false,false,false,false,false,false,false,false,false,false,false,false,false,false,false,false,false,false,false,false],"id":7,"left_children":[1,3,5,7,9,11,13,15,17,19,21,23,25,27,29,31,33,35,37,39,41,43,45,47,49,51,53,55,57,59,61,63,65,-1,67,69,71,73,75,77,79,81,83,85,87,89,91,93,95,-1,97,99,101,103,105,107,109,111,113,115,117,119,121,-1,-1,-1,-1,-1,-1,-1,-1,-1,-1,-1,-1,-1,-1,-1,-1,-1,-1,-1,-1,-1,-1,-1,-1,-1,-1,-1,-1,-1,-1,-1,-1,-1,-1,-1,-1,-1,-1,-1,-1,-1,-1,-1,-1,-1,-1,-1,-1,-1,-1,-1,-1,-1,-1,-1,-1,-1,-1,-1,-1],"loss_changes":[1.6853853E3,6.255985E2,4.6217926E2,7.1005615E1,1.4416156E2,1.2971674E2,1.2965845E2,3.89895E1,3.947998E1,8.53069E1,9.014053E0,3.93941E1,6.2401733E1,1.3050609E2,5.517285E1,1.0856253E1,1.3547493E1,1.1631958E1,3.633667E1,4.6209564E1,5.439044E1,8.630832E0,6.4862137E0,4.4157795E1,1.1075901E1,1.1366348E1,5.571268E1,8.672093E1,4.0416702E1,5.632898E1,4.5735332E1,1.3435547E1,2.0189095E0,0E0,8.859456E0,7.929188E0,6.427124E0,1.7215437E1,1.9315369E1,4.185232E1,2.475621E1,1.3480484E1,4.6003384E1,6.645932E-1,2.322054E0,3.0557327E0,6.4568825E0,6.5942764E0,2.4875496E1,0E0,1.0467746E1,2.703731E-1,8.736404E0,4.501882E1,2.5162994E1,2.5361053E1,3.378586E1,6.934186E1,2.408409E0,3.4339233E1,4.869131E0,7.386875E0,8.757149E0,0E0,0E0,0E0,0E0,0E0,0E0,0E0,0E0,0E0,0E0,0E0,0E0,0E0,0E0,0E0,0E0,0E0,0E0,0E0,0E0,0E0,0E0,0E0,0E0,0E0,0E0,0E0,0E0,0E0,0E0,0E0,0E0,0E0,0E0,0E0,0E0,0E0,0E0,0E0,0E0,0E0,0E0,0E0,0E0,0E0,0E0,0E0,0E0,0E0,0E0,0E0,0E0,0E0,0E0,0E0,0E0,0E0,0E0,0E0,0E0],"parents":[2147483647,0,0,1,1,2,2,3,3,4,4,5,5,6,6,7,7,8,8,9,9,10,10,11,11,12,12,13,13,14,14,15,15,16,16,17,17,18,18,19,19,20,20,21,21,22,22,23,23,24,24,25,25,26,26,27,27,28,28,29,29,30,30,31,31,32,32,34,34,35,35,36,36,37,37,38,38,39,39,40,40,41,41,42,42,43,43,44,44,45,45,46,46,47,47,48,48,50,50,51,51,52,52,53,53,54,54,55,55,56,56,57,57,58,58,59,59,60,60,61,61,62,62],"right_children":[2,4,6,8,10,12,14,16,18,20,22,24,26,28,30,32,34,36,38,40,42,44,46,48,50,52,54,56,58,60,62,64,66,-1,68,70,72,74,76,78,80,82,84,86,88,90,92,94,96,-1,98,100,102,104,106,108,110,112,114,116,118,120,122,-1,-1,-1,-1,-1,-1,-1,-1,-1,-1,-1,-1,-1,-1,-1,-1,-1,-1,-1,-1,-1,-1,-1,-1,-1,-1,-1,-1,-1,-1,-1,-1,-1,-1,-1,-1,-1,-1,-1,-1,-1,-1,-1,-1,-1,-1,-1,-1,-1,-1,-1,-1,-1,-1,-1,-1,-1,-1,-1,-1],"split_conditions":[1.5197849E1,3.895E-2,2.615E-2,7.1455E-1,1.4684999E-1,9.605E-2,7.0385003E-1,1.1515E-1,1.095E-2,3.66375E0,1.201115E1,1.6835499E1,1.75E-3,1.51351E1,5.466E-1,7.3999995E-3,5.6499997E-3,-1.5499999E-3,5.6535E-1,1.1485E-1,1.8684E0,5.8615E-1,2.6999998E-1,9.7045E-1,7.2585E-1,1.1842E1,7.9705E-1,8.3945E-1,1.5505E-1,8.6569E0,1.7155E-1,3.7605E-1,1.7079E0,2.6816374E-1,9.778E-1,3.9737E0,9.6265E-1,1.9E-2,-3.195E-2,1.16821995E1,-2.575E-2,1.5465E-1,1.3665E-1,1.6145E-1,-9.5750004E-2,1.32495E0,2.572E-1,-3.66E-2,2.3500002E-3,3.5940874E-1,6.335E-2,7.84305E0,-1.44E-2,7.0785E-1,1.720735E1,9.7045E-1,1.4095E-1,7.195E-2,9.5965004E-1,1.60653E1,5.435E-2,5.24765E0,6.556E-1,-1.7351742E-1,1.6464123E-1,-1.8739414E-1,-9.130707E-2,-1.6763097E-2,1.6055262E-1,-4.9605343E-2,1.7269328E-1,2.3098363E-1,1.2206172E-1,2.1027362E-1,2.3353765E-2,1.9280422E-1,8.565932E-2,-1.255434E-1,7.748042E-2,1.8696012E-1,7.241677E-2,-1.6674654E-1,1.1804757E-1,3.72125E-2,-9.836811E-2,-1.0867308E-2,-1.7727932E-1,-1.14327274E-1,2.5135317E-1,-1.5863724E-1,1.5076129E-1,2.1158019E-1,-1.1130076E-1,-1.6043843E-1,-3.1172562E-2,2.0710546E-1,-2.9879233E-2,-1.0813669E-1,2.7131957E-1,-4.153899E-2,-2.2263116E-1,2.1848188E-1,4.005625E-2,-3.849449E-2,1.3876955E-1,5.3969033E-2,-8.783334E-2,-1.4906557E-1,-7.721595E-2,7.702687E-2,-1.1369054E-1,-8.225672E-2,1.4083813E-1,-1.74279E-1,8.170587E-2,-8.618949E-2,-1.4774777E-1,-1.3357306E-1,3.3346918E-1,-1.7886412E-1,2.2798078E-1,-1.1364366E-1,5.375287E-2],"split_indices":[11,25,25,3,25,33,0,33,25,5,12,12,25,12,15,30,25,25,32,28,6,0,28,9,0,12,0,32,30,6,29,32,6,0,9,1,3,30,31,12,26,23,30,25,31,32,23,31,30,0,23,1,26,3,2,9,30,23,27,2,23,5,15,0,0,0,0,0,0,0,0,0,0,0,0,0,0,0,0,0,0,0,0,0,0,0,0,0,0,0,0,0,0,0,0,0,0,0,0,0,0,0,0,0,0,0,0,0,0,0,0,0,0,0,0,0,0,0,0,0,0,0,0],"split_type":[0,0,0,0,0,0,0,0,0,0,0,0,0,0,0,0,0,0,0,0,0,0,0,0,0,0,0,0,0,0,0,0,0,0,0,0,0,0,0,0,0,0,0,0,0,0,0,0,0,0,0,0,0,0,0,0,0,0,0,0,0,0,0,0,0,0,0,0,0,0,0,0,0,0,0,0,0,0,0,0,0,0,0,0,0,0,0,0,0,0,0,0,0,0,0,0,0,0,0,0,0,0,0,0,0,0,0,0,0,0,0,0,0,0,0,0,0,0,0,0,0,0,0],"sum_hessian":[1.9584078E4,8.247758E3,1.1336321E4,4.261725E3,3.9860325E3,2.4087412E3,8.92758E3,2.7997275E2,3.9817522E3,3.5313496E3,4.5468292E2,7.417112E2,1.66703E3,2.960946E3,5.9666343E3,1.2896143E2,1.5101132E2,2.1116934E3,1.8700587E3,1.3165995E3,2.21475E3,2.3730217E1,4.3095273E2,6.9578516E2,4.592603E1,3.733139E2,1.2937162E3,2.2483723E3,7.1257385E2,5.7313584E3,2.3527583E2,4.3426044E1,8.5535385E1,5.0480507E1,1.0053081E2,6.1157463E1,2.050536E3,2.69924E2,1.6001348E3,5.479201E2,7.686794E2,1.9938763E2,2.0153624E3,1.1590664E1,1.2139552E1,4.0922894E2,2.1723783E1,3.7883142E2,3.1695377E2,2.1357965E1,2.4568062E1,5.923374E0,3.6739053E2,8.3916315E2,4.54553E2,1.7998026E3,4.4856964E2,6.462282E2,6.634566E1,5.7055454E3,2.5812943E1,7.420122E1,1.6107462E2,1.5806069E1,2.7619974E1,4.4265255E1,4.1270134E1,4.7360138E1,5.317067E1,2.1964802E1,3.919266E1,1.9969409E3,5.3595097E1,5.4979572E1,2.1494443E2,1.4281726E3,1.7196213E2,1.1479581E2,4.3312433E2,5.1205206E2,2.5662732E2,1.8381013E2,1.5577487E1,1.7580228E3,2.573396E2,2.9604874E0,8.630177E0,1.212261E0,1.0927291E1,4.0707614E2,2.1527855E0,7.957199E0,1.3766585E1,3.3855328E2,4.0278133E1,4.570198E1,2.712518E2,1.3661518E1,1.0906544E1,1.478888E0,4.444486E0,3.4022263E2,2.716792E1,1.5856226E2,6.806009E2,2.0127115E2,2.5328186E2,1.0007855E3,7.99017E2,3.3863174E2,1.0993788E2,1.6922742E2,4.7700076E2,6.341775E1,2.9279091E0,9.9243884E2,4.713107E3,1.6600487E0,2.4152893E1,3.541218E0,7.0659996E1,1.2556705E2,3.550756E1],"tree_param":{"num_deleted":"0","num_feature":"34","num_nodes":"123","size_leaf_vector":"0"}},{"base_weights":[-2.6757128E-3,-3.6604849E-1,4.3498904E-1,-5.383606E-1,-1.0606134E-1,-1.6475654E-1,5.120439E-1,-5.889608E-1,-4.1548637E-1,-4.6079272E-1,1.00146644E-1,-2.7273574E-1,2.3307024E-1,2.478331E-2,6.004688E-1,-6.173195E-1,-5.537415E-1,-5.8334285E-1,-3.2041073E-1,-4.9656585E-1,-6.2492214E-2,-3.444988E-1,2.2667627E-1,-5.9516627E-1,-1.8843041E-1,-4.157106E-1,4.727669E-1,-1.7354313E-1,4.1585973E-1,4.1939408E-1,7.374912E-1,-6.0887337E-1,-4.389103E-1,-6.0458064E-1,-4.625597E-1,-4.9367577E-1,-7.850602E-2,-5.4903287E-1,-3.069866E-1,4.410265E-1,-3.340707E-1,-4.0924627E-1,2.3220411E-1,3.8577288E-1,-1.312456E-1,-6.456498E-1,-4.1876916E-2,-2.7788976E-2,-4.0869623E-1,3.3674857E-1,-6.540595E-1,6.174307E-1,-5.4089886E-1,2.2351696E-1,-2.7283448E-1,2.4996538E-1,6.084225E-1,4.8935118E-1,9.945495E-3,7.5607723E-1,3.2048678E-1,-2.5651255E-1,-6.110212E-1,-5.737102E-1,-3.3168876E-1,1.7268847E-1,-6.0974807E-1,4.838945E-1,-5.30754E-1,1.4116162E0,-4.9921206E-1,2.009391E-1,-2.675218E-1,-5.8710736E-1,-4.6693602E-1,4.0174147E-1,-3.4446788E-1,6.75201E-1,-5.212221E-1,6.408966E-1,-3.8080484E-1,-5.1509E-1,-1.7979251E-1,-6.4539105E-1,5.088637E-1,1.4184591E-1,5.688099E-1,-4.0682292E-1,7.642835E-2,-1.0392608E-1,-6.5869004E-1,-4.8916623E-1,5.808415E-1,-6.1546916E-1,4.8381947E-2,-4.4160488E-1,3.11331E-1,-3.7321392E-1,9.679921E-1,-2.2201534E-1,7.143216E-1,-6.3181645E-1,4.2100742E-1,-2.87685E-2,6.5860254E-1,2.1862458E-1,-3.414694E-1,5.682385E-1,1.0122758E-1,6.563671E-1,-7.917343E-2,2.1057062E-1,5.916667E-1,-1.8207783E-1,3.2224885E-1,7.604871E-1,-6.30585E-1,7.83135E-1,1.854118E-1],"categories":[],"categories_nodes":[],"categories_segments":[],"categories_sizes":[],"default_left":[true,true,true,true,true,true,true,true,true,true,true,true,true,true,true,false,true,true,true,true,true,true,true,true,true,true,true,true,true,true,true,true,true,true,true,true,true,true,true,true,true,true,true,true,true,true,true,true,true,true,false,true,true,true,true,true,true,true,true,true,true,false,false,false,false,false,false,false,false,false,false,false,false,false,false,false,false,false,false,false,false,false,false,false,false,false,false,false,false,false,false,false,false,false,false,false,false,false,false,false,false,false,false,false,false,false,false,false,false,false,false,false,false,false,false,false,false,false,false],"id":8,"left_children":[1,3,5,7,9,11,13,15,17,19,21,23,25,27,29,-1,31,33,35,37,39,41,43,45,47,49,51,53,55,57,59,61,63,65,67,69,71,73,75,77,79,81,83,85,87,89,91,93,95,97,-1,99,101,103,105,107,109,111,113,115,117,-1,-1,-1,-1,-1,-1,-1,-1,-1,-1,-1,-1,-1,-1,-1,-1,-1,-1,-1,-1,-1,-1,-1,-1,-1,-1,-1,-1,-1,-1,-1,-1,-1,-1,-1,-1,-1,-1,-1,-1,-1,-1,-1,-1,-1,-1,-1,-1,-1,-1,-1,-1,-1,-1,-1,-1,-1,-1],"loss_changes":[3.0849553E3,4.747434E2,4.0673523E2,3.938391E1,3.0915253E2,4.31317E1,3.3596265E2,4.164795E0,2.9537323E1,2.210553E1,1.5047058E2,2.1335361E1,3.3564575E1,9.305101E1,1.6344678E2,0E0,1.2536011E1,1.4448242E0,4.9891357E1,1.4009705E1,1.7812172E1,2.2221336E1,1.1858374E2,4.528061E0,2.2172081E1,1.0697721E1,2.3378712E1,3.1447561E1,1.2743202E1,8.149652E1,2.886621E1,8.753967E-1,9.34301E0,2.3885956E0,7.0201397E0,8.024307E0,2.6376104E1,3.2117004E0,8.406467E0,1.0648216E1,4.093668E0,1.2854668E1,1.5005562E1,6.4269226E1,3.673197E1,9.8674774E-1,4.3799596E0,1.6306454E1,6.400753E0,6.9553065E0,0E0,1.1382084E1,2.0290437E0,1.7560247E1,2.1571907E1,1.0288411E1,6.187752E0,6.9190796E1,2.5019514E1,2.2461426E1,9.977732E0,0E0,0E0,0E0,0E0,0E0,0E0,0E0,0E0,0E0,0E0,0E0,0E0,0E0,0E0,0E0,0E0,0E0,0E0,0E0,0E0,0E0,0E0,0E0,0E0,0E0,0E0,0E0,0E0,0E0,0E0,0E0,0E0,0E0,0E0,0E0,0E0,0E0,0E0,0E0,0E0,0E0,0E0,0E0,0E0,0E0,0E0,0E0,0E0,0E0,0E0,0E0,0E0,0E0,0E0,0E0,0E0,0E0,0E0],"parents":[2147483647,0,0,1,1,2,2,3,3,4,4,5,5,6,6,7,7,8,8,9,9,10,10,11,11,12,12,13,13,14,14,16,16,17,17,18,18,19,19,20,20,21,21,22,22,23,23,24,24,25,25,26,26,27,27,28,28,29,29,30,30,31,31,32,32,33,33,34,34,35,35,36,36,37,37,38,38,39,39,40,40,41,41,42,42,43,43,44,44,45,45,46,46,47,47,48,48,49,49,51,51,52,52,53,53,54,54,55,55,56,56,57,57,58,58,59,59,60,60],"right_children":[2,4,6,8,10,12,14,16,18,20,22,24,26,28,30,-1,32,34,36,38,40,42,44,46,48,50,52,54,56,58,60,62,64,66,68,70,72,74,76,78,80,82,84,86,88,90,92,94,96,98,-1,100,102,104,106,108,110,112,114,116,118,-1,-1,-1,-1,-1,-1,-1,-1,-1,-1,-1,-1,-1,-1,-1,-1,-1,-1,-1,-1,-1,-1,-1,-1,-1,-1,-1,-1,-1,-1,-1,-1,-1,-1,-1,-1,-1,-1,-1,-1,-1,-1,-1,-1,-1,-1,-1,-1,-1,-1,-1,-1,-1,-1,-1,-1,-1,-1],"split_conditions":[1.0655E-1,9.845E-2,1.05849996E-1,7.945E-2,3.11945E0,1.1305E-1,1.111385E1,2.078E-1,7.715E-2,1.3035E-1,2.0385E-1,9.0900004E-2,6.285E-2,1.042E-1,1.5355E-1,-1.8519586E-1,9.0900004E-2,1.2868549E1,2.3455E-1,6.4449996E-2,6.4814997E-1,9.395E-2,1.5024999E-1,6.10445E0,1.1755E-1,-3.2E-2,7.389E-1,1.075E-1,1.4684999E-1,1.6915E-1,2.005E-1,3.115E-1,7.365E-2,-9.49E-2,1.2880899E1,2.35985E0,1.1115E-1,9.365E-2,4.0600002E-1,1.701E-1,5.0960004E-1,-5.5E-4,8.94E-2,2.9325E-1,9.9649996E-2,-4.6E-2,1.0355E-1,-1.07E-2,1.3515E-1,1.333E-1,-1.9621786E-1,1.12900004E-1,2.373E-1,1.3964999E-1,7.884E-1,6.0245E-1,2.6185E-1,6.9745E-1,8.0645E-1,-7.15E-3,-1.422E-1,-7.695377E-2,-1.8330637E-1,-1.7211306E-1,-9.950663E-2,5.1806543E-2,-1.8292442E-1,1.4516835E-1,-1.5922621E-1,4.234849E-1,-1.4976363E-1,6.0281735E-2,-8.0256544E-2,-1.7613222E-1,-1.4008081E-1,1.2052245E-1,-1.03340365E-1,2.025603E-1,-1.5636665E-1,1.92269E-1,-1.1424146E-1,-1.5452701E-1,-5.3937756E-2,-1.9361733E-1,1.5265912E-1,4.2553775E-2,1.7064299E-1,-1.2204688E-1,2.2928504E-2,-3.1177824E-2,-1.9760703E-1,-1.4674987E-1,1.7425245E-1,-1.8464075E-1,1.4514585E-2,-1.3248147E-1,9.33993E-2,-1.1196418E-1,2.9039764E-1,-6.660461E-2,2.1429649E-1,-1.8954495E-1,1.2630223E-1,-8.6305505E-3,1.9758077E-1,6.558738E-2,-1.0244083E-1,1.7047155E-1,3.0368276E-2,1.9691014E-1,-2.375203E-2,6.3171186E-2,1.7750001E-1,-5.462335E-2,9.667466E-2,2.2814614E-1,-1.8917552E-1,2.3494051E-1,5.5623543E-2],"split_indices":[19,28,28,28,6,25,2,15,13,24,15,23,18,25,24,0,13,12,14,13,27,25,18,6,18,21,32,18,25,18,18,17,23,16,12,6,18,24,27,18,0,16,23,14,13,26,25,16,30,25,0,30,18,24,32,27,28,0,0,21,21,0,0,0,0,0,0,0,0,0,0,0,0,0,0,0,0,0,0,0,0,0,0,0,0,0,0,0,0,0,0,0,0,0,0,0,0,0,0,0,0,0,0,0,0,0,0,0,0,0,0,0,0,0,0,0,0,0,0],"split_type":[0,0,0,0,0,0,0,0,0,0,0,0,0,0,0,0,0,0,0,0,0,0,0,0,0,0,0,0,0,0,0,0,0,0,0,0,0,0,0,0,0,0,0,0,0,0,0,0,0,0,0,0,0,0,0,0,0,0,0,0,0,0,0,0,0,0,0,0,0,0,0,0,0,0,0,0,0,0,0,0,0,0,0,0,0,0,0,0,0,0,0,0,0,0,0,0,0,0,0,0,0,0,0,0,0,0,0,0,0,0,0,0,0,0,0,0,0,0,0],"sum_hessian":[1.9395908E4,1.0597478E4,8.798432E3,6.372737E3,4.224741E3,1.00158655E3,7.7968447E3,4.5112065E3,1.86153E3,1.5526112E3,2.67213E3,7.880156E2,2.1357088E2,1.1977866E3,6.599058E3,2.4898464E3,2.0213604E3,6.7126794E2,1.1902621E3,1.4244302E3,1.28181E2,5.915623E2,2.0805676E3,1.6207831E2,6.259373E2,5.741981E1,1.5615106E2,7.95116E2,4.0267062E2,2.8443362E3,3.7547217E3,1.3627739E3,6.585864E2,5.6748E2,1.0378798E2,6.929171E2,4.9734494E2,1.1141793E3,3.102509E2,4.469343E1,8.3487564E1,5.321116E2,5.9450745E1,1.4402827E3,6.4028485E2,1.4837341E2,1.3704895E1,3.6260968E2,2.6332764E2,1.3713605E1,4.3706207E1,1.3699142E2,1.915963E1,1.5880666E2,6.363093E2,2.1754874E2,1.8512189E2,2.4291108E3,4.1522537E2,3.5937346E3,1.6098715E2,8.986349E0,1.3537876E3,2.8984274E2,3.6874368E2,3.5337026E0,5.639462E2,6.565872E0,9.722211E1,1.2717572E0,6.916454E2,2.0064455E2,2.967004E2,7.569658E2,3.5721353E2,1.5095415E1,2.951555E2,3.6185562E1,8.507871E0,3.2373009E0,8.025027E1,3.6328745E2,1.6882411E2,1.3930102E1,4.552064E1,6.182019E2,8.220808E2,2.7474594E2,3.655389E2,3.6984873E0,1.4467493E2,8.100729E0,5.604166E0,4.079381E1,3.218159E2,2.5218814E2,1.11395E1,6.6467447E0,7.06686E0,1.4042065E1,1.2294936E2,1.7818611E1,1.3410196E0,1.0111105E2,5.769561E1,7.7706726E1,5.586026E2,6.838859E1,1.4916014E2,1.7309756E2,1.2024309E1,6.529814E2,1.7761295E3,2.5738577E2,1.5783961E2,3.5827922E3,1.0942432E1,3.5296062E1,1.2569109E2],"tree_param":{"num_deleted":"0","num_feature":"34","num_nodes":"119","size_leaf_vector":"0"}},{"base_weights":[-8.818728E-3,3.6558408E-1,-3.808864E-1,5.219943E-1,1.5191536E-1,-1.5606637E-1,-5.152386E-1,6.110116E-1,2.8315333E-1,-2.016967E-1,3.2330245E-1,4.0853688E-1,-2.013128E-1,-4.2920598E-1,-5.652072E-1,6.2872666E-1,3.4974003E-1,4.4915665E-2,4.0960667E-1,-2.9499918E-1,1.7632025E-1,4.697606E-1,1.6154449E-1,6.011502E-1,-8.382631E-2,-5.2436423E-1,-1.3039209E-1,-9.6500516E-2,-4.5066938E-1,8.910839E-1,-5.6600386E-1,3.0014473E-1,6.4324564E-1,1.18517645E-1,5.8704275E-1,4.9713606E-1,-8.7761894E-2,-1.5591295E-1,4.709754E-1,-4.2637748E-1,-1.1210028E-1,5.628951E-1,-1.0146954E-1,4.7880566E-1,-7.384566E-1,4.0698808E-2,4.66969E-1,6.8421113E-1,-4.678183E-1,-2.7575883E-1,8.770995E-1,-3.143746E-1,-5.736934E-1,-3.009248E-1,9.513008E-2,2.0340505E-1,-5.2444786E-1,-4.5441598E-1,9.677998E-1,-5.691163E-1,-2.5973827E-1,6.0695374E-1,-1.8523756E-1,6.819839E-1,5.7564056E-1,3.6859512E-1,-2.4414562E-1,-4.817119E-1,6.224758E-1,7.186055E-1,1.9264577E-1,-1.2550904E-1,8.359073E-1,3.9741972E-1,-5.013074E-1,5.1376414E-1,-2.0244855E-1,1.7078936E-1,-4.8785844E-1,2.5532764E-1,-3.6287692E-1,-7.683864E-1,6.514103E-1,1.4878249E-2,-7.4195606E-1,6.7777115E-1,4.280793E-1,-7.569536E-2,3.1399855E-1,-2.2878365E-1,5.293079E-1,7.52346E-1,-5.0299156E-1,-6.530943E-1,6.99655E-1,-4.1101903E-1,5.429227E-1,-3.354699E-1,1.488517E0,1.1926983E-1,-4.2432022E-1,-5.8682674E-1,-1.133155E-1,-1.7132646E-1,-4.357864E-1,1.4080954E-1,-4.144924E-1,-4.8387477E-1,3.6134744E-1,2.792551E-1,-5.78189E-1,-5.010666E-1,-3.5931513E-1,1.7365516E0,-3.755118E-1,2.2427116E-1,-5.7045364E-1,-5.044698E-1,3.62522E-1],"categories":[],"categories_nodes":[],"categories_segments":[],"categories_sizes":[],"default_left":[true,true,true,true,true,true,true,true,true,true,true,true,true,true,true,true,true,true,true,true,true,true,true,true,true,true,true,true,true,false,true,true,true,true,true,true,true,true,true,true,true,true,true,true,false,true,true,true,true,true,true,true,true,true,true,true,true,true,true,true,true,false,false,false,false,false,false,false,false,false,false,false,false,false,false,false,false,false,false,false,false,false,false,false,false,false,false,false,false,false,false,false,false,false,false,false,false,false,false,false,false,false,false,false,false,false,false,false,false,false,false,false,false,false,false,false,false,false,false],"id":9,"left_children":[1,3,5,7,9,11,13,15,17,19,21,23,25,27,29,31,33,35,37,39,41,43,45,47,49,51,53,55,57,-1,59,61,63,65,67,69,71,73,75,77,79,81,83,85,-1,87,89,91,93,95,97,99,101,103,105,107,109,111,113,115,117,-1,-1,-1,-1,-1,-1,-1,-1,-1,-1,-1,-1,-1,-1,-1,-1,-1,-1,-1,-1,-1,-1,-1,-1,-1,-1,-1,-1,-1,-1,-1,-1,-1,-1,-1,-1,-1,-1,-1,-1,-1,-1,-1,-1,-1,-1,-1,-1,-1,-1,-1,-1,-1,-1,-1,-1,-1,-1],"loss_changes":[2.4537976E3,2.9334326E2,2.6677942E2,1.0759314E2,2.2503723E2,8.4544304E1,2.3529175E1,1.6866577E1,4.149762E1,4.2814995E1,5.9167175E1,2.3344784E1,7.007624E1,1.4494415E1,4.55896E0,1.6294312E1,1.2916155E1,2.878103E1,3.1312332E1,2.332772E1,2.5898891E1,1.4690338E1,4.3895554E1,1.6007515E1,1.3142533E1,5.5251923E0,9.662992E1,1.6104576E1,1.0601959E1,0E0,3.182373E0,2.2170643E1,8.272949E0,1.1074933E1,4.7132797E0,7.1983147E0,1.3045865E1,1.7183493E1,2.3509079E1,2.0855743E1,3.768876E1,1.2375391E1,1.0508581E1,1.2858185E1,0E0,2.7176939E1,1.4746597E1,1.3672569E1,3.340838E0,6.7635355E0,9.310265E0,5.1515694E0,2.6229858E0,2.4927673E1,2.525328E1,8.208555E0,2.3918896E0,8.284088E0,6.183972E0,3.7965088E0,5.8153677E0,0E0,0E0,0E0,0E0,0E0,0E0,0E0,0E0,0E0,0E0,0E0,0E0,0E0,0E0,0E0,0E0,0E0,0E0,0E0,0E0,0E0,0E0,0E0,0E0,0E0,0E0,0E0,0E0,0E0,0E0,0E0,0E0,0E0,0E0,0E0,0E0,0E0,0E0,0E0,0E0,0E0,0E0,0E0,0E0,0E0,0E0,0E0,0E0,0E0,0E0,0E0,0E0,0E0,0E0,0E0,0E0,0E0,0E0],"parents":[2147483647,0,0,1,1,2,2,3,3,4,4,5,5,6,6,7,7,8,8,9,9,10,10,11,11,12,12,13,13,14,14,15,15,16,16,17,17,18,18,19,19,20,20,21,21,22,22,23,23,24,24,25,25,26,26,27,27,28,28,30,30,31,31,32,32,33,33,34,34,35,35,36,36,37,37,38,38,39,39,40,40,41,41,42,42,43,43,45,45,46,46,47,47,48,48,49,49,50,50,51,51,52,52,53,53,54,54,55,55,56,56,57,57,58,58,59,59,60,60],"right_children":[2,4,6,8,10,12,14,16,18,20,22,24,26,28,30,32,34,36,38,40,42,44,46,48,50,52,54,56,58,-1,60,62,64,66,68,70,72,74,76,78,80,82,84,86,-1,88,90,92,94,96,98,100,102,104,106,108,110,112,114,116,118,-1,-1,-1,-1,-1,-1,-1,-1,-1,-1,-1,-1,-1,-1,-1,-1,-1,-1,-1,-1,-1,-1,-1,-1,-1,-1,-1,-1,-1,-1,-1,-1,-1,-1,-1,-1,-1,-1,-1,-1,-1,-1,-1,-1,-1,-1,-1,-1,-1,-1,-1,-1,-1,-1,-1,-1,-1,-1],"split_conditions":[1.1785E-1,9.8175E-1,1.4574999E-1,9.865E-2,3.175E-2,6.6285E-1,1.6894999E-1,6.3093E0,5.8204997E-1,1.63339E1,9.595E-2,2.8716002E0,3.4050003E-2,7.002E-1,-1.9650001E-2,3.7500001E-3,7.1895003E-1,1.2712E1,1.7549999E-2,1.215E-2,3.8305E-1,1.1751551E1,7.0355E-1,9.8135E-1,-2.54E-2,-1.11499995E-1,7.4615E-1,1.2807449E1,2.8645E-1,2.673252E-1,1.2476001E0,4.1015E-1,7.952E-1,7.705E-2,6.35905E0,6.409E-1,1.3765001E-1,-5.765E-2,1.239E-1,7.25E-3,4.825E-2,5.995E-2,9.43785E0,6.665E-2,-2.21537E-1,7.9095E-1,4.547E-1,1.2545E-1,8.1299996E-1,9.7665E-1,4.8725004E0,1.1824699E1,1.5995E-1,1.2924999E-1,1.2744999E-1,3.178E-1,3.4535E-1,9.0075E-1,2.7560002E-1,1.49125E0,-3.07E-2,1.8208613E-1,-5.557127E-2,2.0459518E-1,1.7269218E-1,1.10578544E-1,-7.3243685E-2,-1.4451358E-1,1.8674275E-1,2.1558167E-1,5.7793733E-2,-3.7652712E-2,2.507722E-1,1.1922592E-1,-1.5039223E-1,1.5412925E-1,-6.0734566E-2,5.1236812E-2,-1.4635754E-1,7.6598294E-2,-1.0886308E-1,-2.3051594E-1,1.954231E-1,4.4634747E-3,-2.2258683E-1,2.0333135E-1,1.284238E-1,-2.2708608E-2,9.419957E-2,-6.86351E-2,1.5879238E-1,2.257038E-1,-1.5089747E-1,-1.9592829E-1,2.098965E-1,-1.23305716E-1,1.6287681E-1,-1.00640975E-1,4.4655514E-1,3.578095E-2,-1.2729608E-1,-1.7604803E-1,-3.3994652E-2,-5.139794E-2,-1.3073592E-1,4.2242862E-2,-1.24347724E-1,-1.4516243E-1,1.08404234E-1,8.377653E-2,-1.7345671E-1,-1.5032E-1,-1.07794546E-1,5.209655E-1,-1.12653546E-1,6.728135E-2,-1.711361E-1,-1.5134095E-1,1.0875661E-1],"split_indices":[33,9,33,33,20,3,33,6,32,11,33,6,30,3,25,30,0,12,20,20,22,5,32,9,21,21,32,12,29,0,27,32,3,33,6,3,16,26,30,24,19,15,5,33,0,0,22,24,17,4,6,12,16,33,30,15,3,32,19,6,26,0,0,0,0,0,0,0,0,0,0,0,0,0,0,0,0,0,0,0,0,0,0,0,0,0,0,0,0,0,0,0,0,0,0,0,0,0,0,0,0,0,0,0,0,0,0,0,0,0,0,0,0,0,0,0,0,0,0],"split_type":[0,0,0,0,0,0,0,0,0,0,0,0,0,0,0,0,0,0,0,0,0,0,0,0,0,0,0,0,0,0,0,0,0,0,0,0,0,0,0,0,0,0,0,0,0,0,0,0,0,0,0,0,0,0,0,0,0,0,0,0,0,0,0,0,0,0,0,0,0,0,0,0,0,0,0,0,0,0,0,0,0,0,0,0,0,0,0,0,0,0,0,0,0,0,0,0,0,0,0,0,0,0,0,0,0,0,0,0,0,0,0,0,0,0,0,0,0,0,0],"sum_hessian":[1.7612797E4,8.778859E3,8.833938E3,5.0677275E3,3.7111316E3,3.3052373E3,5.528701E3,3.690646E3,1.3770818E3,1.211449E3,2.4996826E3,2.4462892E2,3.0606084E3,2.0348391E3,3.4938623E3,3.454981E3,2.3566487E2,4.779607E2,8.991211E2,9.7180646E2,2.3964255E2,1.3108838E3,1.1887987E3,1.7568118E2,6.894774E1,5.4980304E2,2.5108054E3,1.2364881E2,1.9111903E3,1.2992163E0,3.492563E3,1.4712158E2,3.3078594E3,1.20121056E2,1.15543816E2,1.0779693E2,3.7016376E2,8.786791E1,8.112532E2,5.6478436E2,4.0702206E2,9.977224E1,1.3987032E2,1.3017423E3,9.141504E0,8.525916E2,3.362071E2,1.6334862E2,1.2332564E1,5.8063362E1,1.08843775E1,1.059893E2,4.4381372E2,1.4295161E3,1.0812892E3,7.300887E1,5.063994E1,1.9068334E3,4.35685E0,3.456577E3,3.5986065E1,8.998918E1,5.7132404E1,2.097111E3,1.2107484E3,7.108645E1,4.9034607E1,3.3035994E0,1.1224022E2,6.1618786E1,4.617814E1,3.5646057E2,1.3703186E1,3.3711086E1,5.415683E1,7.6300934E2,4.8243866E1,5.25534E1,5.12231E2,1.6510243E2,2.4191963E2,5.7413015E0,9.403094E1,1.19194725E2,2.0675587E1,2.6194513E2,1.0397971E3,5.9844574E2,2.5414584E2,2.7427208E1,3.087799E2,1.5482909E2,8.5195265E0,1.1023712E1,1.3088524E0,5.0257854E1,7.8055086E0,3.7998335E0,7.084544E0,2.1420065E1,8.456924E1,4.3123703E2,1.25767E1,7.301409E2,6.9937524E2,9.9300586E2,8.828332E1,1.3257179E1,5.9751698E1,2.9109004E0,4.772904E1,1.2764275E3,6.304059E2,2.5848503E0,1.7720001E0,5.53599E0,3.451041E3,2.5963902E1,1.0022164E1],"tree_param":{"num_deleted":"0","num_feature":"34","num_nodes":"119","size_leaf_vector":"0"}},{"base_weights":[1.240033E-2,3.4302443E-1,-1.6423814E-1,-1.0768431E-1,4.5123214E-1,1.2939364E-1,-2.8778183E-1,-2.7335063E-1,1.3503455E-1,5.4848576E-1,2.3157886E-1,-3.5428557E-1,1.8090744E-1,-1.6384453E-1,-3.8599882E-1,-3.155455E-1,4.8127443E-1,2.4741936E-1,-2.6956877E-1,6.2720436E-1,4.3857604E-1,4.413194E-1,3.620476E-2,-4.791042E-1,1.1792302E-1,3.947342E-1,5.4739222E-2,-2.493862E-1,2.0682631E-1,-4.378934E-1,3.272575E-2,-4.2694625E-1,-1.4432926E-1,-1.0348112E-1,8.2329655E-1,5.7384455E-1,8.8712566E-2,-4.0268523E-1,3.93837E-1,1.6165765E-1,6.434277E-1,-1.7493594E-1,4.7595674E-1,-4.054916E-2,4.998716E-1,-9.452304E-2,4.6993223E-1,-5.023768E-1,9.057754E-1,-3.9800656E-1,3.6653826E-1,-1.1100579E-1,4.737054E-1,-8.1606306E-2,2.238281E-1,-3.6323178E-1,-4.731181E-2,3.0145276E-1,-2.53679E-1,-3.6406153E-1,-5.3121275E-1,2.7234837E-1,-2.0144553E-1,-4.7479433E-1,-3.5538707E-2,-3.3098102E-1,4.3042716E-2,6.2304866E-1,-6.111911E-1,1.3180614E-1,1.0699037E0,-1.9842286E-1,6.569589E-1,1.7148857E-1,-3.7183118E-1,-4.388837E-1,8.8826454E-1,-8.009463E-1,5.721462E-1,-2.5991997E-1,4.4348148E-1,6.473866E-1,-5.626272E-1,-5.881439E-1,2.3041032E-1,5.6075424E-1,3.245462E-1,1.0942054E-1,-4.461817E-1,-4.1480267E-1,5.2076167E-1,1.9629328E-1,-2.088875E-1,6.9186205E-1,7.3933244E-2,1.6462064E-1,-5.1565915E-1,2.866764E-1,-6.440454E-1,6.4452016E-1,-3.826456E-1,-3.161999E-1,2.2446269E-1,5.128588E-1,1.0323923E-1,-4.282749E-4,-3.4268856E-1,-1.0506589E-1,3.2136956E-1,-4.7789225E-1,-2.889714E-1,9.662328E-2,-4.1704965E-1,1.9656654E-1,7.646861E-1,-4.8928115E-1,-1.4727244E-2,-3.7178967E-2,-4.449961E-1,-5.345831E-1,8.298437E-1,2.7537074E-2,5.7038295E-1,1.8504618E-1,-3.4127235E-1],"categories":[],"categories_nodes":[],"categories_segments":[],"categories_sizes":[],"default_left":[true,true,true,true,true,true,true,true,true,true,true,true,true,true,true,true,true,true,true,true,true,true,true,true,true,true,true,true,true,true,true,true,true,true,true,true,true,true,true,true,true,true,true,true,true,true,true,true,false,true,true,true,true,true,true,true,true,true,true,true,true,true,true,false,false,false,false,false,false,false,false,false,false,false,false,false,false,false,false,false,false,false,false,false,false,false,false,false,false,false,false,false,false,false,false,false,false,false,false,false,false,false,false,false,false,false,false,false,false,false,false,false,false,false,false,false,false,false,false,false,false,false,false,false,false],"id":10,"left_children":[1,3,5,7,9,11,13,15,17,19,21,23,25,27,29,31,33,35,37,39,41,43,45,47,49,51,53,55,57,59,61,63,65,67,69,71,73,75,77,79,81,83,85,87,89,91,93,95,-1,97,99,101,103,105,107,109,111,113,115,117,119,121,123,-1,-1,-1,-1,-1,-1,-1,-1,-1,-1,-1,-1,-1,-1,-1,-1,-1,-1,-1,-1,-1,-1,-1,-1,-1,-1,-1,-1,-1,-1,-1,-1,-1,-1,-1,-1,-1,-1,-1,-1,-1,-1,-1,-1,-1,-1,-1,-1,-1,-1,-1,-1,-1,-1,-1,-1,-1,-1,-1,-1,-1,-1],"loss_changes":[1.0642433E3,3.095246E2,4.3090912E2,4.9468803E1,1.0918848E2,8.772228E1,1.0170532E2,2.3426891E1,2.277336E1,3.0405762E1,6.440687E1,2.0035385E1,8.577318E1,1.17305435E2,1.0134802E2,1.3153839E1,7.905939E0,2.0222342E1,9.787226E0,1.5484314E1,3.4098267E1,2.1409744E1,4.6257065E1,9.102215E0,9.338766E0,4.717885E1,4.6154953E1,6.911417E1,3.0315016E1,2.8394714E1,2.8961842E1,7.834778E0,9.618673E0,6.0316133E0,4.0853825E0,8.335808E0,1.0146768E1,4.656554E0,4.447915E0,8.531511E0,9.885315E0,1.4524997E1,1.7770966E1,5.1017056E0,1.313353E1,2.0897923E1,1.6552711E1,2.428238E0,0E0,4.1914053E0,1.0427275E1,1.1096853E1,1.475354E1,2.3495672E1,2.8701176E1,1.6227036E1,5.773131E1,2.784048E1,6.6825285E0,6.1352997E1,8.840881E0,1.8592653E1,1.4174459E1,0E0,0E0,0E0,0E0,0E0,0E0,0E0,0E0,0E0,0E0,0E0,0E0,0E0,0E0,0E0,0E0,0E0,0E0,0E0,0E0,0E0,0E0,0E0,0E0,0E0,0E0,0E0,0E0,0E0,0E0,0E0,0E0,0E0,0E0,0E0,0E0,0E0,0E0,0E0,0E0,0E0,0E0,0E0,0E0,0E0,0E0,0E0,0E0,0E0,0E0,0E0,0E0,0E0,0E0,0E0,0E0,0E0,0E0,0E0,0E0,0E0,0E0],"parents":[2147483647,0,0,1,1,2,2,3,3,4,4,5,5,6,6,7,7,8,8,9,9,10,10,11,11,12,12,13,13,14,14,15,15,16,16,17,17,18,18,19,19,20,20,21,21,22,22,23,23,24,24,25,25,26,26,27,27,28,28,29,29,30,30,31,31,32,32,33,33,34,34,35,35,36,36,37,37,38,38,39,39,40,40,41,41,42,42,43,43,44,44,45,45,46,46,47,47,49,49,50,50,51,51,52,52,53,53,54,54,55,55,56,56,57,57,58,58,59,59,60,60,61,61,62,62],"right_children":[2,4,6,8,10,12,14,16,18,20,22,24,26,28,30,32,34,36,38,40,42,44,46,48,50,52,54,56,58,60,62,64,66,68,70,72,74,76,78,80,82,84,86,88,90,92,94,96,-1,98,100,102,104,106,108,110,112,114,116,118,120,122,124,-1,-1,-1,-1,-1,-1,-1,-1,-1,-1,-1,-1,-1,-1,-1,-1,-1,-1,-1,-1,-1,-1,-1,-1,-1,-1,-1,-1,-1,-1,-1,-1,-1,-1,-1,-1,-1,-1,-1,-1,-1,-1,-1,-1,-1,-1,-1,-1,-1,-1,-1,-1,-1,-1,-1,-1,-1,-1,-1,-1,-1,-1],"split_conditions":[3.215E-2,9.7475E-1,4.405905E1,6.853E-1,1.44125E1,7.0379996E-1,7.4435E-1,1.613565E1,7.9275E-1,1.095E-2,7.7595E-1,9.0629995E-1,6.285E-2,1.3185E-1,1.6905001E-1,1.919E-1,9.5750004E-2,5.05E-3,1.6945E-1,-1.5499999E-3,3.455E-2,3.5995E-1,1.83E-1,9.8835003E-1,9.835E-2,6.755E-2,1.3925001E-1,8.7355E-1,1.3374999E-1,1.2875E-1,1.3464999E-1,5.215E-2,7.019E-1,6.5680003E-1,2.90691E1,4.8100002E-2,1.574E-1,8.7625E-1,6.954E-1,3.355E-2,2.0835E-1,-4.97E-2,4.16685E0,2.1049999E-2,1.3172649E1,5.95E-3,7.59E-2,3.1542E0,2.7173263E-1,9.1000006E-2,1.9525E-1,3.0795002E-1,-3.04E-2,1.6685E-1,1.4475E-1,8.905E-2,1.3345E-1,1.0705E0,9.4365E-1,6.1571503E0,1.799665E1,4.8635E-1,7.964E-1,-1.424383E-1,-1.0661612E-2,-9.929431E-2,1.2912815E-2,1.8691461E-1,-1.8335733E-1,3.954184E-2,3.2097113E-1,-5.952686E-2,1.9708768E-1,5.1446572E-2,-1.11549355E-1,-1.3166511E-1,2.6647937E-1,-2.4028389E-1,1.7164385E-1,-7.7975996E-2,1.3304445E-1,1.94216E-1,-1.6878816E-1,-1.7644317E-1,6.91231E-2,1.6822627E-1,9.736386E-2,3.2826163E-2,-1.3385452E-1,-1.24440804E-1,1.5622851E-1,5.8887985E-2,-6.266625E-2,2.0755862E-1,2.2179974E-2,4.9386192E-2,-1.5469775E-1,8.600292E-2,-1.9321363E-1,1.9335605E-1,-1.1479369E-1,-9.485997E-2,6.733881E-2,1.5385765E-1,3.0971771E-2,-1.2848248E-4,-1.02806576E-1,-3.1519767E-2,9.641087E-2,-1.4336768E-1,-8.6691424E-2,2.8986985E-2,-1.251149E-1,5.8969963E-2,2.2940584E-1,-1.4678435E-1,-4.4181733E-3,-1.11536905E-2,-1.3349883E-1,-1.6037494E-1,2.4895312E-1,8.261123E-3,1.7111489E-1,5.5513855E-2,-1.0238171E-1],"split_indices":[25,9,8,32,1,3,0,12,0,25,0,32,30,18,18,15,15,25,18,25,24,22,18,9,19,28,18,3,30,24,24,24,3,0,2,29,29,3,3,13,19,26,5,25,12,25,24,5,0,19,24,15,21,24,33,33,24,32,32,5,12,15,0,0,0,0,0,0,0,0,0,0,0,0,0,0,0,0,0,0,0,0,0,0,0,0,0,0,0,0,0,0,0,0,0,0,0,0,0,0,0,0,0,0,0,0,0,0,0,0,0,0,0,0,0,0,0,0,0,0,0,0,0,0,0],"split_type":[0,0,0,0,0,0,0,0,0,0,0,0,0,0,0,0,0,0,0,0,0,0,0,0,0,0,0,0,0,0,0,0,0,0,0,0,0,0,0,0,0,0,0,0,0,0,0,0,0,0,0,0,0,0,0,0,0,0,0,0,0,0,0,0,0,0,0,0,0,0,0,0,0,0,0,0,0,0,0,0,0,0,0,0,0,0,0,0,0,0,0,0,0,0,0,0,0,0,0,0,0,0,0,0,0,0,0,0,0,0,0,0,0,0,0,0,0,0,0,0,0,0,0,0,0],"sum_hessian":[1.8221088E4,6.344601E3,1.1876486E4,1.2283328E3,5.1162686E3,3.5171267E3,8.359359E3,7.2996985E2,4.9836285E2,3.5451306E3,1.5711378E3,3.379674E2,3.1791594E3,3.6969492E3,4.66241E3,6.91866E2,3.8103844E1,3.903309E2,1.0803194E2,2.06293E3,1.4822006E3,7.5710345E2,8.140344E2,2.6729807E2,7.066935E1,1.1789595E3,2.0001998E3,3.0040222E3,6.9292694E2,4.1482515E3,5.141589E2,4.182444E2,2.7362164E2,1.4319398E1,2.3784445E1,1.2683771E2,2.634932E2,9.030474E1,1.7727196E1,6.983745E1,1.9930925E3,8.49113E1,1.3972893E3,8.206212E1,6.750413E2,6.2610504E2,1.8792937E2,2.6350714E2,3.7909377E0,2.278491E1,4.7884438E1,1.5917567E2,1.0197838E3,1.1075997E3,8.926002E2,1.9209764E3,1.0830458E3,5.7509875E2,1.17828156E2,2.3186758E3,1.8295756E3,2.54041E2,2.6011792E2,3.7249524E2,4.5749157E1,1.366903E2,1.3693132E2,5.7968984E0,8.522499E0,6.65584E0,1.7128605E1,1.2189552E1,1.14648155E2,2.2388142E2,3.961178E1,8.8483665E1,1.8210692E0,1.8485893E0,1.5878606E1,2.8012114E1,4.1825336E1,1.9870333E3,6.0592117E0,4.1824574E1,4.308673E1,8.939366E2,5.0335266E2,6.0444824E1,2.1617296E1,1.465183E1,6.603895E2,1.7651932E2,4.495857E2,1.19955536E2,6.797384E1,4.922476E0,2.5858466E2,5.9795904E0,1.6805319E1,3.5027367E1,1.2857071E1,9.880042E1,6.0375256E1,9.2196027E2,9.7823494E1,8.456609E2,2.619388E2,2.0415282E2,6.884474E2,7.529546E2,1.1680219E3,7.8009973E2,3.02946E2,4.7008542E2,1.0501333E2,5.8802418E1,5.902574E1,4.604492E2,1.8582264E3,1.825662E3,3.9136267E0,1.4007396E2,1.1396704E2,6.901949E1,1.9109842E2],"tree_param":{"num_deleted":"0","num_feature":"34","num_nodes":"125","size_leaf_vector":"0"}},{"base_weights":[-8.270745E-3,-3.222513E-1,4.359405E-1,-5.1683444E-1,-1.7410378E-1,1.16543375E-1,5.0603294E-1,-5.6003076E-1,-3.9837232E-1,-4.3589735E-1,2.0413243E-3,-1.7761403E-1,3.1193802E-1,3.907007E-2,5.517419E-1,-5.8108383E-1,-5.136829E-1,-5.5359244E-1,-3.3379078E-1,-5.01854E-1,-1.8519877E-1,-3.3991194E-1,1.02885015E-1,7.052851E-2,-3.4145194E-1,4.524362E-1,-4.063069E-2,1.4352432E-1,-4.990412E-1,5.746367E-1,7.803505E-2,-5.867555E-1,-5.481532E-1,-5.8769494E-1,-4.666591E-1,1.2831216E-1,-5.617731E-1,-7.264104E-2,-4.5760804E-1,-5.497909E-1,-3.9237684E-1,-3.295571E-1,1.6987678E-2,-8.3335534E-2,-4.5252988E-1,2.5261366E-1,-1.764014E-1,-1.3227515E-1,3.082903E-1,-3.7273845E-1,5.5780804E-1,4.775119E-1,-7.74203E-1,4.884165E-1,-2.2273037E-1,2.7394763E-1,-2.1665171E-1,4.0126774E-1,-5.836239E-1,4.4398096E-1,6.471318E-1,-1.7288627E-1,3.6298007E-1,1.0549651E0,-5.5666333E-1,-4.0034878E-1,-5.924448E-1,1.5754851E0,-4.7415996E-1,-4.4297305E-1,1.1557996E0,-3.9112988E-1,-5.809636E-1,-4.3053275E-1,1.9110568E-1,8.233966E-1,-4.683802E-1,5.8561623E-1,-5.519711E-1,-1.3098077E-1,-4.6089718E-1,-3.560543E-1,9.403346E-1,1.0487334E0,-3.000044E-2,-2.6968107E-1,2.899579E-1,-5.2337676E-1,-2.7960858E-1,-2.7053094E-1,2.9604906E-1,-2.5855348E-1,2.2991098E-1,1.4678214E-1,-4.1477215E-1,-6.8030936E-1,3.644049E-1,-4.475741E-1,-4.7107767E-2,1.1053517E0,-5.069414E-1,3.3258873E-1,6.245609E-1,1.4721783E0,3.5446098E-1,-3.775857E-1,2.6289433E-1,-3.9271578E-1,3.7092352E-1,-4.2949104E-1,3.2892518E-2,-5.0120366E-1,8.063869E-1,8.8054794E-1,-6.289834E-1,5.009392E-1,7.8377366E-2,6.681275E-1,4.5425844E-1,6.154854E-1,-2.6384676E-1,-3.2815185E-1,5.059536E-1],"categories":[],"categories_nodes":[],"categories_segments":[],"categories_sizes":[],"default_left":[true,true,true,true,true,true,true,true,true,true,true,true,true,true,true,true,true,true,true,true,true,true,true,true,true,true,true,true,true,true,true,false,true,true,true,true,true,true,true,true,true,true,true,true,true,true,true,true,true,true,true,true,false,true,true,true,true,true,true,true,true,true,true,false,false,false,false,false,false,false,false,false,false,false,false,false,false,false,false,false,false,false,false,false,false,false,false,false,false,false,false,false,false,false,false,false,false,false,false,false,false,false,false,false,false,false,false,false,false,false,false,false,false,false,false,false,false,false,false,false,false,false,false],"id":11,"left_children":[1,3,5,7,9,11,13,15,17,19,21,23,25,27,29,31,33,35,37,39,41,43,45,47,49,51,53,55,57,59,61,-1,63,65,67,69,71,73,75,77,79,81,83,85,87,89,91,93,95,97,99,101,-1,103,105,107,109,111,113,115,117,119,121,-1,-1,-1,-1,-1,-1,-1,-1,-1,-1,-1,-1,-1,-1,-1,-1,-1,-1,-1,-1,-1,-1,-1,-1,-1,-1,-1,-1,-1,-1,-1,-1,-1,-1,-1,-1,-1,-1,-1,-1,-1,-1,-1,-1,-1,-1,-1,-1,-1,-1,-1,-1,-1,-1,-1,-1,-1,-1,-1,-1],"loss_changes":[2.4659385E3,2.985166E2,1.638551E2,2.2686401E1,2.7126544E2,7.5862495E1,1.2812622E2,2.9003906E0,1.1842087E1,3.903006E1,1.21331276E2,2.145162E1,3.929297E1,3.0219723E1,5.9262817E1,9.802246E-2,3.31958E0,2.0300827E0,2.7444E1,9.611786E0,1.4436115E1,2.3116302E1,1.1366897E2,1.018751E1,9.144207E0,1.7810555E1,2.1962534E1,2.1196028E1,6.8908215E0,4.9119873E1,1.8171167E1,0E0,5.298012E0,1.1639404E-1,1.0493561E1,3.432226E0,9.091568E-1,2.5993233E1,8.33773E0,3.5408325E0,1.0216194E1,1.00426235E1,1.0062179E1,1.7166395E1,6.6732254E0,4.028327E1,3.1733034E1,9.068603E0,5.638219E0,7.4734344E0,7.019745E0,1.1647034E1,0E0,7.1740475E0,1.2841579E1,2.1530466E1,6.3970127E0,3.3654895E0,5.8878613E0,3.878943E1,1.3272827E1,9.868589E0,1.1916609E1,0E0,0E0,0E0,0E0,0E0,0E0,0E0,0E0,0E0,0E0,0E0,0E0,0E0,0E0,0E0,0E0,0E0,0E0,0E0,0E0,0E0,0E0,0E0,0E0,0E0,0E0,0E0,0E0,0E0,0E0,0E0,0E0,0E0,0E0,0E0,0E0,0E0,0E0,0E0,0E0,0E0,0E0,0E0,0E0,0E0,0E0,0E0,0E0,0E0,0E0,0E0,0E0,0E0,0E0,0E0,0E0,0E0,0E0,0E0,0E0],"parents":[2147483647,0,0,1,1,2,2,3,3,4,4,5,5,6,6,7,7,8,8,9,9,10,10,11,11,12,12,13,13,14,14,15,15,16,16,17,17,18,18,19,19,20,20,21,21,22,22,23,23,24,24,25,25,26,26,27,27,28,28,29,29,30,30,32,32,33,33,34,34,35,35,36,36,37,37,38,38,39,39,40,40,41,41,42,42,43,43,44,44,45,45,46,46,47,47,48,48,49,49,50,50,51,51,53,53,54,54,55,55,56,56,57,57,58,58,59,59,60,60,61,61,62,62],"right_children":[2,4,6,8,10,12,14,16,18,20,22,24,26,28,30,32,34,36,38,40,42,44,46,48,50,52,54,56,58,60,62,-1,64,66,68,70,72,74,76,78,80,82,84,86,88,90,92,94,96,98,100,102,-1,104,106,108,110,112,114,116,118,120,122,-1,-1,-1,-1,-1,-1,-1,-1,-1,-1,-1,-1,-1,-1,-1,-1,-1,-1,-1,-1,-1,-1,-1,-1,-1,-1,-1,-1,-1,-1,-1,-1,-1,-1,-1,-1,-1,-1,-1,-1,-1,-1,-1,-1,-1,-1,-1,-1,-1,-1,-1,-1,-1,-1,-1,-1,-1,-1,-1,-1],"split_conditions":[1.1795E-1,9.005E-2,9.8132E0,8.175E-2,7.525E-2,1.5044999E-1,1.0855E-1,7.2850004E-2,7.475E-2,7.605E-2,2.1094999E-1,8.0410004E-1,1.725E-1,-1.8350001E-2,2.0355001E-1,6.2495E-1,1.31315E1,2.2264999E-1,3.775E-2,8.7349996E-2,1.003E-1,6.1144996E-1,1.4455E-1,9.1145E-1,6.1504996E-1,1.1608E0,8.8475E-1,6.2310004E-1,1.3025049E1,1.5904999E-1,8.1135E-1,-1.7602666E-1,6.2535E-1,3.5729998E-1,1.3135099E1,2.191E-1,4.5854998E-1,2.098E-1,5.41E-2,4.232E-1,1.01449996E-1,1.6395E-1,1.0075E-1,1.076E-1,2.0155E-1,7.935E-2,1.2145E-1,7.495E-2,6.1300002E-2,1.013E-1,6.505E-1,1.803E-1,-2.3226091E-1,4.23E-2,2.0635E-1,8.5E-2,2.436E-1,5.2639997E-1,5.695E-2,9.738E-1,1.6905001E-1,-1.7465E-1,1.338E-1,3.1648955E-1,-1.6699901E-1,-1.2010464E-1,-1.7773344E-1,4.7264555E-1,-1.4224799E-1,-1.3289192E-1,3.467399E-1,-1.1733897E-1,-1.7428909E-1,-1.2915984E-1,5.7331707E-2,2.47019E-1,-1.4051408E-1,1.7568487E-1,-1.6559133E-1,-3.9294235E-2,-1.3826916E-1,-1.068163E-1,2.821004E-1,3.1462002E-1,-9.000133E-3,-8.090432E-2,8.6987376E-2,-1.5701303E-1,-8.388258E-2,-8.1159286E-2,8.881472E-2,-7.756604E-2,6.8973295E-2,4.4034645E-2,-1.2443165E-1,-2.0409282E-1,1.0932147E-1,-1.3427223E-1,-1.4132331E-2,3.3160552E-1,-1.5208241E-1,9.9776626E-2,1.8736827E-1,4.4165352E-1,1.063383E-1,-1.13275714E-1,7.88683E-2,-1.1781474E-1,1.1127706E-1,-1.2884732E-1,9.867756E-3,-1.503611E-1,2.4191608E-1,2.641644E-1,-1.8869503E-1,1.5028176E-1,2.3513211E-2,2.0043825E-1,1.3627754E-1,1.8464564E-1,-7.915403E-2,-9.844556E-2,1.5178609E-1],"split_indices":[24,23,1,28,13,29,23,23,13,30,15,32,18,21,18,17,12,17,20,24,24,32,18,3,15,27,22,22,2,29,0,0,17,22,12,17,32,14,24,32,18,30,24,28,14,28,19,20,18,25,14,24,0,25,19,23,14,17,20,22,18,31,24,0,0,0,0,0,0,0,0,0,0,0,0,0,0,0,0,0,0,0,