{"learner":{"attributes":{"best_iteration":"10","best_ntree_limit":"11","best_score":"0.513891","scikit_learn":"{\"use_label_encoder\": false, \"n_estimators\": 250, \"objective\": \"multi:softprob\", \"max_depth\": 6, \"learning_rate\": 0.3, \"verbosity\": null, \"booster\": \"gbtree\", \"tree_method\": null, \"gamma\": null, \"min_child_weight\": null, \"max_delta_step\": null, \"subsample\": 0.9, \"colsample_bytree\": 0.9, \"colsample_bylevel\": 0.9, \"colsample_bynode\": 0.9, \"reg_alpha\": null, \"reg_lambda\": null, \"scale_pos_weight\": null, \"base_score\": null, \"missing\": NaN, \"num_parallel_tree\": null, \"random_state\": null, \"n_jobs\": null, \"monotone_constraints\": null, \"interaction_constraints\": null, \"importance_type\": null, \"gpu_id\": null, \"validate_parameters\": null, \"predictor\": null, \"enable_categorical\": false, \"kwargs\": {\"num_class\": 3, \"eval_metric\": [\"merror\", \"mlogloss\"]}, \"classes_\": [0, 1, 2], \"n_classes_\": 3, \"evals_result_\": {\"validation_0\": {\"merror\": [0.211779, 0.201519, 0.196388, 0.192694, 0.186333, 0.185307, 0.18346, 0.179561, 0.180792, 0.178124, 0.177919, 0.177304, 0.177919, 0.176688, 0.175662, 0.173404, 0.172378, 0.173404, 0.171147, 0.171763, 0.171763, 0.172584, 0.171558, 0.171763, 0.171147, 0.170737, 0.170121, 0.170737, 0.170121, 0.169711, 0.170326, 0.170326, 0.169916, 0.169916, 0.170326, 0.170531, 0.169711, 0.171147, 0.170121, 0.171968, 0.170531, 0.170326, 0.170531, 0.170942, 0.170942, 0.171558, 0.170942, 0.171763, 0.170737, 0.171147, 0.171558, 0.170942, 0.169711, 0.169711, 0.169095, 0.169095, 0.169505, 0.170326, 0.170326, 0.170531, 0.171558], \"mlogloss\": [0.87746, 0.750304, 0.668247, 0.613176, 0.577465, 0.554772, 0.539239, 0.529565, 0.522979, 0.518004, 0.513891, 0.514157, 0.513974, 0.514866, 0.51712, 0.518602, 0.520357, 0.522063, 0.524295, 0.525043, 0.528565, 0.532729, 0.535948, 0.539149, 0.53945, 0.541529, 0.542088, 0.543271, 0.545247, 0.545853, 0.548065, 0.552083, 0.554992, 0.555772, 0.558651, 0.559967, 0.563197, 0.565005, 0.565048, 0.567007, 0.568331, 0.569039, 0.572633, 0.573881, 0.574929, 0.576108, 0.577184, 0.578265, 0.578477, 0.581204, 0.582512, 0.584535, 0.586083, 0.587895, 0.591137, 0.59188, 0.592946, 0.595672, 0.595973, 0.596425, 0.598017]}}, \"_estimator_type\": \"classifier\"}"},"feature_names":["Detection probability","Nucleus: Area µm^2","Nucleus: Length µm","Nucleus: Circularity","Nucleus: Solidity","Nucleus: Max diameter µm","Nucleus: Min diameter µm","Cell: Area µm^2","Cell: Length µm","Cell: Circularity","Cell: Solidity","Cell: Max diameter µm","Cell: Min diameter µm","Nucleus/Cell area ratio","Hematoxylin: Nucleus: Mean","Hematoxylin: Nucleus: Median","Hematoxylin: Nucleus: Min","Hematoxylin: Nucleus: Max","Hematoxylin: Nucleus: Std.Dev.","Hematoxylin: Cytoplasm: Mean","Hematoxylin: Cytoplasm: Median","Hematoxylin: Cytoplasm: Min","Hematoxylin: Cytoplasm: Max","Hematoxylin: Cytoplasm: Std.Dev.","Hematoxylin: Membrane: Mean","Hematoxylin: Membrane: Median","Hematoxylin: Membrane: Min","Hematoxylin: Membrane: Max","Hematoxylin: Membrane: Std.Dev.","Hematoxylin: Cell: Mean","Hematoxylin: Cell: Median","Hematoxylin: Cell: Min","Hematoxylin: Cell: Max","Hematoxylin: Cell: Std.Dev."],"feature_types":["float","float","float","float","float","float","float","float","float","float","float","float","float","float","float","float","float","float","float","float","float","float","float","float","float","float","float","float","float","float","float","float","float","float"],"gradient_booster":{"model":{"gbtree_model_param":{"num_trees":"183","size_leaf_vector":"0"},"tree_info":[0,1,2,0,1,2,0,1,2,0,1,2,0,1,2,0,1,2,0,1,2,0,1,2,0,1,2,0,1,2,0,1,2,0,1,2,0,1,2,0,1,2,0,1,2,0,1,2,0,1,2,0,1,2,0,1,2,0,1,2,0,1,2,0,1,2,0,1,2,0,1,2,0,1,2,0,1,2,0,1,2,0,1,2,0,1,2,0,1,2,0,1,2,0,1,2,0,1,2,0,1,2,0,1,2,0,1,2,0,1,2,0,1,2,0,1,2,0,1,2,0,1,2,0,1,2,0,1,2,0,1,2,0,1,2,0,1,2,0,1,2,0,1,2,0,1,2,0,1,2,0,1,2,0,1,2,0,1,2,0,1,2,0,1,2,0,1,2,0,1,2,0,1,2,0,1,2,0,1,2,0,1,2],"trees":[{"base_weights":[-3.5328995E-3,7.277997E-1,-4.6143958E-1,1.1905795E0,9.254745E-2,5.531915E-1,-5.9299797E-1,1.3033882E0,7.6938814E-1,-3.153545E-1,5.1784724E-1,8.812401E-1,-2.5032097E-1,-6.5803325E-1,1.2868002E-1,7.4914867E-1,1.328327E0,4.4581002E-1,1.0884857E0,7.4541E-1,-4.1545954E-1,7.800799E-1,-2.5423735E-1,4.8577678E-1,1.1421497E0,-5.225049E-1,2.656826E-1,6.5175675E-2,-6.784016E-1,8.793999E-1,-2.5374454E-1,-1.7030573E-1,1.0574887E0,2.033898E-1,1.3382081E0,7.619377E-1,7.686145E-2,1.1916704E0,5.849056E-1,1.3628808E0,2.5161287E-1,-1.151242E-1,-5.8298725E-1,1.1361141E0,5.3706914E-1,-4.4646105E-1,2.3287667E-1,9.177532E-1,1.5034692E-1,1.297732E0,7.610619E-1,1.2452826E-1,-6.530933E-1,5.5576557E-1,-2.6621166E-1,5.2264804E-1,-4.880786E-1,-5.152811E-1,-7.177063E-1,1.0275162E0,2.908587E-1,-3.4440508E-1,6.517572E-1,-4.0298513E-1,1.1351352E0,-3.764504E-8,1.1402936E0,-3.223141E-1,1.1538461E0,1.3857899E0,1.1583271E0,1.2654028E0,3.65408E-1,-1.8528257E-1,4.7686115E-1,1.2340623E0,9.677415E-2,1.6738194E-1,9.4861656E-1,1.4076246E0,4.137931E-1,5.367412E-1,-3.1677023E-1,-3.8432127E-1,1.5963656E-1,-2.8395066E-1,-6.271539E-1,1.230504E0,5.914489E-1,2.1882349E-1,8.873239E-1,-2.4177076E-1,-6.7221516E-1,6.486486E-1,-1.8918924E-1,1.1370038E0,1.1999996E-1,-7.524541E-2,6.786632E-1,1.3244191E0,8.2352936E-1,1.4018688E-1,1.0340426E0,-4.9704146E-1,1.1142857E0,-6.9820976E-1,-1.327434E-1,3.6690643E-1,1.1652893E0,1.0344827E0,-3.9560446E-1,-4.353731E-8,8.5714287E-1,8.571428E-1,-5.2211136E-1,-4.387573E-2,-5.994745E-1,-7.196706E-1,2.9032254E-1,1.1312649E0,-2.2556433E-2,8.181818E-1,-1.4634152E-1,9.251097E-2,-4.6562377E-1,1.1652893E0,3.134328E-1],"categories":[],"categories_nodes":[],"categories_segments":[],"categories_sizes":[],"default_left":[true,true,true,true,true,true,true,true,true,true,true,true,true,true,true,true,true,true,true,true,true,true,true,true,true,true,true,true,true,true,true,true,true,true,true,true,true,true,true,true,true,true,true,true,true,true,true,true,true,true,true,true,true,true,true,true,true,true,true,true,true,true,true,false,false,false,false,false,false,false,false,false,false,false,false,false,false,false,false,false,false,false,false,false,false,false,false,false,false,false,false,false,false,false,false,false,false,false,false,false,false,false,false,false,false,false,false,false,false,false,false,false,false,false,false,false,false,false,false,false,false,false,false,false,false,false,false],"id":0,"left_children":[1,3,5,7,9,11,13,15,17,19,21,23,25,27,29,31,33,35,37,39,41,43,45,47,49,51,53,55,57,59,61,63,65,67,69,71,73,75,77,79,81,83,85,87,89,91,93,95,97,99,101,103,105,107,109,111,113,115,117,119,121,123,125,-1,-1,-1,-1,-1,-1,-1,-1,-1,-1,-1,-1,-1,-1,-1,-1,-1,-1,-1,-1,-1,-1,-1,-1,-1,-1,-1,-1,-1,-1,-1,-1,-1,-1,-1,-1,-1,-1,-1,-1,-1,-1,-1,-1,-1,-1,-1,-1,-1,-1,-1,-1,-1,-1,-1,-1,-1,-1,-1,-1,-1,-1,-1,-1],"loss_changes":[4.234324E3,1.431157E3,1.0382491E3,1.3282324E2,3.56319E2,2.3560751E2,3.2316626E2,2.9691162E1,6.1202667E1,1.1165358E2,2.0376642E2,6.489578E1,3.660846E1,9.306445E1,1.6383466E2,2.7932041E1,2.3328857E1,3.4737503E1,1.4897278E1,2.7335709E1,4.817328E1,6.434723E1,2.4043282E1,3.6649963E1,2.1628387E1,1.4473637E1,1.4085792E1,4.4266117E1,3.90083E1,1.648671E1,3.128309E1,8.1861725E0,6.431183E0,1.019852E1,1.6407715E1,3.1590736E1,1.4640247E1,1.1396606E1,7.8896885E0,1.1208878E0,8.543233E0,2.5546331E1,7.9474335E0,1.4884033E1,4.9755463E1,8.324657E0,1.2932989E1,1.9239464E1,1.7226818E1,2.3191528E0,1.9007057E1,1.8668163E1,3.2383537E0,6.3386E0,5.888362E0,1.672474E1,4.07444E0,4.744644E1,1.0003906E1,1.674231E1,9.367181E0,1.8291557E1,5.677065E0,0E0,0E0,0E0,0E0,0E0,0E0,0E0,0E0,0E0,0E0,0E0,0E0,0E0,0E0,0E0,0E0,0E0,0E0,0E0,0E0,0E0,0E0,0E0,0E0,0E0,0E0,0E0,0E0,0E0,0E0,0E0,0E0,0E0,0E0,0E0,0E0,0E0,0E0,0E0,0E0,0E0,0E0,0E0,0E0,0E0,0E0,0E0,0E0,0E0,0E0,0E0,0E0,0E0,0E0,0E0,0E0,0E0,0E0,0E0,0E0,0E0,0E0,0E0,0E0],"parents":[2147483647,0,0,1,1,2,2,3,3,4,4,5,5,6,6,7,7,8,8,9,9,10,10,11,11,12,12,13,13,14,14,15,15,16,16,17,17,18,18,19,19,20,20,21,21,22,22,23,23,24,24,25,25,26,26,27,27,28,28,29,29,30,30,31,31,32,32,33,33,34,34,35,35,36,36,37,37,38,38,39,39,40,40,41,41,42,42,43,43,44,44,45,45,46,46,47,47,48,48,49,49,50,50,51,51,52,52,53,53,54,54,55,55,56,56,57,57,58,58,59,59,60,60,61,61,62,62],"right_children":[2,4,6,8,10,12,14,16,18,20,22,24,26,28,30,32,34,36,38,40,42,44,46,48,50,52,54,56,58,60,62,64,66,68,70,72,74,76,78,80,82,84,86,88,90,92,94,96,98,100,102,104,106,108,110,112,114,116,118,120,122,124,126,-1,-1,-1,-1,-1,-1,-1,-1,-1,-1,-1,-1,-1,-1,-1,-1,-1,-1,-1,-1,-1,-1,-1,-1,-1,-1,-1,-1,-1,-1,-1,-1,-1,-1,-1,-1,-1,-1,-1,-1,-1,-1,-1,-1,-1,-1,-1,-1,-1,-1,-1,-1,-1,-1,-1,-1,-1,-1,-1,-1,-1,-1,-1,-1],"split_conditions":[4.46722E1,5.925E-2,3.7550002E-2,3.695E-2,8.7685E-1,1.7632599E1,9.591E-1,-6.48E-2,7.2875E-1,3.365E-2,1.2765E-1,7.8915E-1,6.926E-1,1.535E-2,4.875E-2,5.37E-2,9.6865E-1,4.1050002E-2,2.95575E0,4.114595E1,7.79E-2,5.395E-2,1.10375E0,1.6049252E1,8.535E-2,3.4500002E-3,1.27E-2,1.197E-1,1.754514E2,5.117215E1,6.8325E-1,9.0174997E-1,6.8375E-1,7.075E-2,3.725E-2,3.59835E0,9.1350004E-2,1.0505E-1,9.826E-1,1.5465E-1,8.91E-2,6.4320004E-1,6.425E-2,1.0875E-1,9.9105E-1,6.4950004E-2,1.7975E-1,2.4050001E-2,-2.9649999E-2,2.686075E1,7.3214996E-1,-5.085E-2,9.394E-1,1.15575E0,4.9205E-1,7.9195E-1,5.252E-1,6.11E-2,6.0609996E-1,1.0695E-1,7.736E-1,8.115E-2,7.007E-1,-1.2089554E-1,3.4054056E-1,-1.1293513E-8,3.420881E-1,-9.669424E-2,3.4615386E-1,4.1573697E-1,3.4749815E-1,3.7962085E-1,1.09622404E-1,-5.5584773E-2,1.4305834E-1,3.702187E-1,2.9032247E-2,5.0214585E-2,2.8458497E-1,4.222874E-1,1.2413793E-1,1.6102237E-1,-9.5031075E-2,-1.15296386E-1,4.789097E-2,-8.51852E-2,-1.8814617E-1,3.6915123E-1,1.7743468E-1,6.564705E-2,2.6619717E-1,-7.253123E-2,-2.0166455E-1,1.9459459E-1,-5.6756776E-2,3.4110114E-1,3.599999E-2,-2.2573624E-2,2.0359896E-1,3.9732575E-1,2.4705882E-1,4.2056065E-2,3.102128E-1,-1.4911245E-1,3.3428574E-1,-2.0946294E-1,-3.982302E-2,1.10071935E-1,3.4958678E-1,3.1034482E-1,-1.1868134E-1,-1.3061193E-8,2.5714287E-1,2.5714284E-1,-1.566334E-1,-1.316272E-2,-1.7984235E-1,-2.1590118E-1,8.7096766E-2,3.393795E-1,-6.76693E-3,2.4545455E-1,-4.3902457E-2,2.7753292E-2,-1.3968714E-1,3.4958678E-1,9.402985E-2],"split_indices":[8,30,30,25,32,11,17,26,22,25,25,32,32,25,25,29,9,20,6,8,20,25,22,11,24,20,25,13,7,8,15,3,3,19,30,5,28,25,32,29,24,22,25,30,22,13,30,25,21,1,27,21,3,32,17,32,0,30,15,30,0,30,14,0,0,0,0,0,0,0,0,0,0,0,0,0,0,0,0,0,0,0,0,0,0,0,0,0,0,0,0,0,0,0,0,0,0,0,0,0,0,0,0,0,0,0,0,0,0,0,0,0,0,0,0,0,0,0,0,0,0,0,0,0,0,0,0],"split_type":[0,0,0,0,0,0,0,0,0,0,0,0,0,0,0,0,0,0,0,0,0,0,0,0,0,0,0,0,0,0,0,0,0,0,0,0,0,0,0,0,0,0,0,0,0,0,0,0,0,0,0,0,0,0,0,0,0,0,0,0,0,0,0,0,0,0,0,0,0,0,0,0,0,0,0,0,0,0,0,0,0,0,0,0,0,0,0,0,0,0,0,0,0,0,0,0,0,0,0,0,0,0,0,0,0,0,0,0,0,0,0,0,0,0,0,0,0,0,0,0,0,0,0,0,0,0,0],"sum_hessian":[1.2642222E4,4.867555E3,7.774666E3,2.8155554E3,2.0519998E3,8.9199994E2,6.882666E3,2.219111E3,5.964444E2,1.0475555E3,1.0044444E3,6.333333E2,2.5866666E2,6.3137773E3,5.6888885E2,9.6888885E1,2.1222222E3,2.973333E2,2.9911108E2,8.977777E1,9.577777E2,7.497777E2,2.5466666E2,2.5288887E2,3.8044443E2,1.6933333E2,8.933333E1,1.7288889E2,6.1408887E3,1.9155554E2,3.773333E2,2.4444443E1,7.244444E1,1.8666666E1,2.1035554E3,1.5955554E2,1.3777777E2,2.471111E2,5.1999996E1,3.9111107E1,5.0666664E1,3.4355554E2,6.1422217E2,3.0266666E2,4.4711108E2,1.8266666E2,7.199999E1,1.0977777E2,1.431111E2,2.6844443E2,1.1199999E2,2.8444443E1,1.4088889E2,5.7777775E1,3.1555553E1,9.4666664E1,7.822221E1,1.1951111E3,4.9457773E3,1.5244444E2,3.9111107E1,3.4355554E2,3.3777775E1,2.1333332E1,3.111111E0,5.333333E0,6.711111E1,1.2444444E1,6.222222E0,1.6582222E3,4.453333E2,6.933333E1,9.022221E1,8.355555E1,5.4222218E1,2.3777777E2,9.333333E0,2.4888887E1,2.7111109E1,3.6888885E1,2.222222E0,3.3777775E1,1.6888887E1,1.7333333E2,1.7022221E2,7.999999E1,5.3422217E2,2.568889E2,4.5777775E1,2.351111E2,2.1199998E2,9.6888885E1,8.577777E1,3.5999996E1,3.5999996E1,8.577777E1,2.3999998E1,1.00888885E2,4.222222E1,2.5244443E2,1.5999999E1,3.4666664E1,7.733333E1,1.7777777E1,1.0666666E1,1.2933333E2,1.1555555E1,4.5333332E1,1.2444444E1,2.222222E0,2.9333332E1,3.7333332E1,5.733333E1,1.3333333E0,7.6888885E1,1.8133333E2,1.0137777E3,4.9364443E3,9.333333E0,1.3866666E2,1.3777777E1,1.7333332E1,2.1777777E1,7.4666664E1,2.688889E2,1.2444444E1,2.1333332E1],"tree_param":{"num_deleted":"0","num_feature":"34","num_nodes":"127","size_leaf_vector":"0"}},{"base_weights":[-2.6316013E-5,-4.3294567E-1,8.0811805E-1,-6.2007314E-1,-1.1503723E-1,4.5808423E-1,1.2075157E0,-6.9292134E-1,-4.628595E-1,-3.826429E-1,1.4146718E-1,-7.3708154E-2,7.471122E-1,3.973037E-1,1.265779E0,-6.942871E-1,8.181818E-1,-6.2147045E-1,-2.9234636E-1,-4.319832E-1,5.399129E-1,-3.6445728E-1,4.0880978E-1,2.6955846E-1,-4.402759E-1,9.213997E-1,5.705547E-3,1.2641312E-1,1.2727273E0,8.975786E-1,1.3610606E0,-7.387308E-1,-6.505779E-1,-6.496014E-1,-2.4220188E-1,-4.9309918E-1,-4.1288752E-2,-6.5943605E-1,-3.2272574E-1,9.0297025E-1,-4.352332E-1,1.058574E-1,-5.558442E-1,5.453841E-1,-3.0790013E-1,5.0872207E-1,-1.4820047E-1,-4.9329764E-1,2.1660647E-1,3.2255352E-1,1.0829818E0,-2.4169847E-1,5.730337E-1,-1.1907815E-1,1.0746268E0,1.3578948E0,-4.2857146E-1,1.167625E0,4.3624157E-1,1.2366235E0,1.4345702E0,-7.4240327E-1,-6.46972E-1,-6.589986E-1,7.7720165E-2,-6.652387E-1,-3.624679E-1,3.4883717E-1,-4.1647065E-1,-5.1078415E-1,9.0566033E-1,-2.682164E-1,4.8297212E-1,9.6E-1,-6.6779584E-1,-1.0104255E-1,-4.8998183E-1,4.3190658E-1,1.3424125E0,5.454545E-1,-6.035504E-1,-1.4593083E-1,8.5714287E-1,-6.3242096E-1,-2.2239037E-1,-2.0105825E-1,7.5433666E-1,-4.0213257E-1,4.0677962E-1,-1.00418456E-1,7.546955E-1,-3.2361522E-1,3.0982363E-1,-6.0117596E-1,-3.2377365E-1,-1.6751274E-1,1.0449438E0,4.267425E-1,-4.6975094E-1,5.8265376E-1,1.1724741E0,3.934426E-1,-3.6599615E-1,8.032787E-1,6.896547E-2,5.121951E-1,-3.3846158E-1,-3.764504E-8,1.4117647E0,2.3999998E-1,1.4163569E0,7.484909E-1,1.2791878E0,-1.5367489E-1,7.258601E-1,1.2690201E0,5.719844E-1,1.4403799E0,6.233766E-1],"categories":[],"categories_nodes":[],"categories_segments":[],"categories_sizes":[],"default_left":[true,true,true,true,true,true,true,true,true,true,true,true,true,true,true,true,false,true,true,true,true,true,true,true,true,true,true,true,true,true,true,true,true,true,true,true,true,true,true,true,true,true,true,true,true,true,true,true,true,true,true,true,true,true,true,true,false,true,true,true,true,false,false,false,false,false,false,false,false,false,false,false,false,false,false,false,false,false,false,false,false,false,false,false,false,false,false,false,false,false,false,false,false,false,false,false,false,false,false,false,false,false,false,false,false,false,false,false,false,false,false,false,false,false,false,false,false,false,false],"id":1,"left_children":[1,3,5,7,9,11,13,15,17,19,21,23,25,27,29,31,-1,33,35,37,39,41,43,45,47,49,51,53,55,57,59,61,63,65,67,69,71,73,75,77,79,81,83,85,87,89,91,93,95,97,99,101,103,105,107,109,-1,111,113,115,117,-1,-1,-1,-1,-1,-1,-1,-1,-1,-1,-1,-1,-1,-1,-1,-1,-1,-1,-1,-1,-1,-1,-1,-1,-1,-1,-1,-1,-1,-1,-1,-1,-1,-1,-1,-1,-1,-1,-1,-1,-1,-1,-1,-1,-1,-1,-1,-1,-1,-1,-1,-1,-1,-1,-1,-1,-1,-1],"loss_changes":[4.4394287E3,4.9147644E2,6.182605E2,5.924475E1,2.1028943E2,3.628792E2,9.70603E1,7.89917E0,4.4439972E1,6.847658E1,2.1176318E2,1.0482361E2,1.976264E2,3.3065617E1,6.640625E1,6.4144287E0,0E0,8.952972E0,4.0148857E1,3.5166626E1,2.7496271E1,4.8795387E1,1.0041217E2,4.3071175E1,1.4135216E1,1.1947534E2,4.1138996E1,2.529387E1,5.3634987E0,4.9226715E1,1.2216309E1,1.1029053E-1,1.1077332E1,3.325409E0,6.3824806E0,1.1415581E1,4.2390076E1,6.8821716E0,3.56812E1,1.1035496E1,3.8689694E0,2.9908033E1,9.690262E0,1.3437343E2,1.1245741E1,4.1113197E1,1.2750008E1,6.62677E0,9.967924E0,2.2039364E1,4.2963013E1,1.625787E1,1.027387E1,1.219129E1,8.091309E0,1.7296333E0,0E0,1.0789642E1,2.5568304E1,1.165979E1,3.6038818E0,0E0,0E0,0E0,0E0,0E0,0E0,0E0,0E0,0E0,0E0,0E0,0E0,0E0,0E0,0E0,0E0,0E0,0E0,0E0,0E0,0E0,0E0,0E0,0E0,0E0,0E0,0E0,0E0,0E0,0E0,0E0,0E0,0E0,0E0,0E0,0E0,0E0,0E0,0E0,0E0,0E0,0E0,0E0,0E0,0E0,0E0,0E0,0E0,0E0,0E0,0E0,0E0,0E0,0E0,0E0,0E0,0E0,0E0],"parents":[2147483647,0,0,1,1,2,2,3,3,4,4,5,5,6,6,7,7,8,8,9,9,10,10,11,11,12,12,13,13,14,14,15,15,17,17,18,18,19,19,20,20,21,21,22,22,23,23,24,24,25,25,26,26,27,27,28,28,29,29,30,30,31,31,32,32,33,33,34,34,35,35,36,36,37,37,38,38,39,39,40,40,41,41,42,42,43,43,44,44,45,45,46,46,47,47,48,48,49,49,50,50,51,51,52,52,53,53,54,54,55,55,57,57,58,58,59,59,60,60],"right_children":[2,4,6,8,10,12,14,16,18,20,22,24,26,28,30,32,-1,34,36,38,40,42,44,46,48,50,52,54,56,58,60,62,64,66,68,70,72,74,76,78,80,82,84,86,88,90,92,94,96,98,100,102,104,106,108,110,-1,112,114,116,118,-1,-1,-1,-1,-1,-1,-1,-1,-1,-1,-1,-1,-1,-1,-1,-1,-1,-1,-1,-1,-1,-1,-1,-1,-1,-1,-1,-1,-1,-1,-1,-1,-1,-1,-1,-1,-1,-1,-1,-1,-1,-1,-1,-1,-1,-1,-1,-1,-1,-1,-1,-1,-1,-1,-1,-1,-1,-1],"split_conditions":[1.3815E-1,1.0675E-1,1.0865E-1,8.935E-2,1.05849996E-1,7.605E-2,1.07E-1,1.046529E2,8.93405E0,1.6752949E1,6.765E-2,9.7800004E-1,1.8384999E-1,1.4504999E-1,1.06364E1,6.555E-2,2.4545455E-1,6.435E-2,2.3455E-1,8.275E-2,-2.1000002E-3,7.6655E-1,1.7275E-1,1.5904999E-1,1.3190001E-1,1.2185E-1,7.0250005E-2,9.8969996E-1,1.0685E-1,9.57E-1,1.4475E-1,1.195E-1,7.19965E0,1.6170001E-1,5.9000003E-1,2.5035E-1,1.038E-1,2.935E0,6.1565E-1,9.2099994E-2,7.9349995E-2,1.3205001E-1,1.422E-1,1.1515E-1,8.23E-2,1.22206E1,1.347E-1,7.6134E0,1.4788174E2,-6.15E-3,1.01950005E-1,2.053E-1,2.4045E-1,6.9715E-1,7.6743E0,9.9895E-1,-1.2857145E-1,1.0705E-1,1.3815E-1,1.9485E-1,2.7319998E-1,-2.22721E-1,-1.940916E-1,-1.9769959E-1,2.331605E-2,-1.9957161E-1,-1.0874038E-1,1.0465115E-1,-1.249412E-1,-1.5323526E-1,2.7169812E-1,-8.046492E-2,1.4489163E-1,2.8800002E-1,-2.0033877E-1,-3.0312765E-2,-1.4699456E-1,1.2957197E-1,4.0272376E-1,1.6363636E-1,-1.8106511E-1,-4.377925E-2,2.5714287E-1,-1.897263E-1,-6.671711E-2,-6.031748E-2,2.26301E-1,-1.2063978E-1,1.2203389E-1,-3.0125538E-2,2.2640865E-1,-9.7084574E-2,9.2947096E-2,-1.8035279E-1,-9.71321E-2,-5.0253827E-2,3.1348315E-1,1.2802276E-1,-1.4092529E-1,1.7479613E-1,3.5174227E-1,1.1803278E-1,-1.0979885E-1,2.4098362E-1,2.0689642E-2,1.5365854E-1,-1.0153848E-1,-1.1293513E-8,4.2352945E-1,7.2E-2,4.249071E-1,2.2454728E-1,3.8375637E-1,-4.6102468E-2,2.1775804E-1,3.8070604E-1,1.7159534E-1,4.3211398E-1,1.8701299E-1],"split_indices":[29,29,25,28,28,13,23,1,1,12,13,22,18,25,1,23,0,25,14,23,26,22,18,18,20,23,25,9,23,22,25,16,6,16,22,13,13,1,22,23,18,24,24,33,25,12,24,1,7,21,24,33,33,0,1,10,0,20,25,18,33,0,0,0,0,0,0,0,0,0,0,0,0,0,0,0,0,0,0,0,0,0,0,0,0,0,0,0,0,0,0,0,0,0,0,0,0,0,0,0,0,0,0,0,0,0,0,0,0,0,0,0,0,0,0,0,0,0,0],"split_type":[0,0,0,0,0,0,0,0,0,0,0,0,0,0,0,0,0,0,0,0,0,0,0,0,0,0,0,0,0,0,0,0,0,0,0,0,0,0,0,0,0,0,0,0,0,0,0,0,0,0,0,0,0,0,0,0,0,0,0,0,0,0,0,0,0,0,0,0,0,0,0,0,0,0,0,0,0,0,0,0,0,0,0,0,0,0,0,0,0,0,0,0,0,0,0,0,0,0,0,0,0,0,0,0,0,0,0,0,0,0,0,0,0,0,0,0,0,0,0],"sum_hessian":[1.268711E4,8.261777E3,4.425333E3,5.1999995E3,3.0617776E3,2.3595554E3,2.0657776E3,3.5511108E3,1.6488888E3,1.4982222E3,1.5635554E3,8.311111E2,1.5284443E3,1.391111E2,1.9266665E3,3.5484443E3,2.6666665E0,8.5288885E2,7.9599994E2,1.4226666E3,7.555555E1,5.404444E2,1.023111E3,4.293333E2,4.0177774E2,1.2373333E3,2.9111108E2,1.0711111E2,3.1999998E1,3.982222E2,1.5284443E3,1.7515554E3,1.7968888E3,7.933333E2,5.9555553E1,4.4177774E2,3.542222E2,4.5999997E2,9.626666E2,5.5111107E1,2.0444443E1,1.5644443E2,3.8399997E2,8.595555E2,1.6355554E2,2.728889E2,1.5644443E2,3.7199997E2,2.9777777E1,2.6355554E2,9.737777E2,2.031111E2,8.799999E1,8.577777E1,2.1333332E1,3.0666664E1,1.3333333E0,2.5022221E2,1.4799998E2,5.7422217E2,9.5422217E2,1.6773333E3,7.422222E1,1.7764443E3,2.0444443E1,7.511111E2,4.222222E1,1.3333332E1,4.622222E1,4.3688885E2,4.8888884E0,2.4755554E2,1.0666666E2,1.7777777E0,4.582222E2,4.1466666E2,5.4799994E2,2.7555553E1,2.7555553E1,2.6666665E0,1.7777777E1,1.1777777E2,3.8666664E1,3.1155554E2,7.244444E1,1.8799998E2,6.7155554E2,1.4488889E2,1.8666666E1,7.8666664E1,1.9422221E2,1.1333333E2,4.3111107E1,2.2577777E2,1.4622221E2,2.0888887E1,8.888888E0,2.3333331E2,3.0222221E1,1.4888889E2,8.2488885E2,3.2888885E1,1.7022221E2,5.9999996E1,2.7999998E1,2.1777777E1,6.3999996E1,5.333333E0,1.5999999E1,1.7777777E0,2.8888887E1,5.4222218E1,1.9599998E2,4.8888885E1,9.911111E1,5.466666E2,2.7555553E1,9.466666E2,7.5555553E0],"tree_param":{"num_deleted":"0","num_feature":"34","num_nodes":"119","size_leaf_vector":"0"}},{"base_weights":[-2.56047E-3,7.832898E-1,-4.9974868E-1,-1.9404921E-1,1.1985248E0,-3.1341684E-1,-6.7214346E-1,-5.7217324E-1,7.546012E-1,4.4273904E-1,1.2658117E0,-6.759413E-1,-5.4511998E-2,-4.269436E-1,-7.020148E-1,-5.0279375E-2,-6.0317826E-1,1.1156304E0,4.4624445E-1,1.1978798E0,6.349202E-2,1.3107376E0,2.902458E-1,-4.843555E-1,-7.151511E-1,2.5834647E-1,-4.3705225E-1,-6.353291E-1,-2.0753747E-1,-6.306741E-1,-7.3865944E-1,-4.8328274E-1,6.082949E-1,6.420233E-1,-6.3965225E-1,1.3127229E0,9.1788524E-1,9.5791E-1,1.8349296E-1,1.2448733E0,-5.172414E-1,6.4214045E-1,-5.756458E-1,1.4220624E0,1.0598352E0,6.2257695E-1,-4.5801532E-1,-1.2644894E-1,-7.144819E-1,1.2244894E-1,-7.1815586E-1,5.766948E-1,-8.2484186E-2,-3.2564244E-1,-6.426486E-1,-6.561087E-1,5.121951E-1,-2.8829852E-1,6.101695E-1,-6.3660485E-1,3.913043E-1,-7.3990846E-1,-1.5789478E-1,8.181818E-1,-6.098361E-1,9.408284E-1,-4.7368425E-1,1.0103626E0,-4.1095895E-1,-6.921861E-1,-2.5263163E-1,-3.2511625E-8,1.3512852E0,-3.2673272E-1,1.0652447E0,1.1465968E0,2.399996E-2,5.3708397E-2,9.637306E-1,1.328515E0,2.7272725E-1,1.0837697E0,-1.3513519E-1,-6.675713E-1,2.823529E-1,1.4302045E0,2.5531912E-1,7.5323653E-1,1.1921824E0,8.736E-1,-4.3161986E-8,5.753424E-1,-6.747721E-1,1.2382735E-1,-4.376471E-1,-7.450405E-1,-2.571429E-1,9.6E-1,-5.4545456E-1,-7.218184E-1,-2.752294E-1,-5.6317693E-1,6.3536745E-1,5.7564534E-2,-5.7903934E-1,1.1361306E-1,-4.153167E-1,2.459016E-1,-6.586333E-1,-7.0497435E-1,-2.8915668E-1,-4.2857146E-1,1.0344827E0,-1.3798578E-1,-6.4990336E-1,8.657718E-1,-5.675676E-1,-5.4382986E-1,-6.7992455E-1,-5.675676E-1,1.1707317E0,-6.8726087E-1,-7.4453807E-1,-5.853659E-1,5.9999996E-1],"categories":[],"categories_nodes":[],"categories_segments":[],"categories_sizes":[],"default_left":[true,true,true,true,true,true,true,true,true,true,true,true,true,true,true,true,true,true,true,true,true,true,true,true,true,true,true,true,true,true,true,true,true,true,true,true,true,true,true,true,false,true,true,true,true,true,true,true,true,true,true,true,true,true,true,true,true,true,true,true,true,true,true,false,false,false,false,false,false,false,false,false,false,false,false,false,false,false,false,false,false,false,false,false,false,false,false,false,false,false,false,false,false,false,false,false,false,false,false,false,false,false,false,false,false,false,false,false,false,false,false,false,false,false,false,false,false,false,false,false,false,false,false,false,false],"id":2,"left_children":[1,3,5,7,9,11,13,15,17,19,21,23,25,27,29,31,33,35,37,39,41,43,45,47,49,51,53,55,57,59,61,63,65,67,69,71,73,75,77,79,-1,81,83,85,87,89,91,93,95,97,99,101,103,105,107,109,111,113,115,117,119,121,123,-1,-1,-1,-1,-1,-1,-1,-1,-1,-1,-1,-1,-1,-1,-1,-1,-1,-1,-1,-1,-1,-1,-1,-1,-1,-1,-1,-1,-1,-1,-1,-1,-1,-1,-1,-1,-1,-1,-1,-1,-1,-1,-1,-1,-1,-1,-1,-1,-1,-1,-1,-1,-1,-1,-1,-1,-1,-1,-1,-1,-1,-1],"loss_changes":[4.9343896E3,1.9862971E3,2.4826501E2,5.241846E2,1.741128E2,3.490468E2,2.9122559E1,1.6871979E1,4.587555E1,8.077994E1,1.378291E2,1.1293091E1,2.5991367E2,1.9929527E1,8.891113E0,1.7308813E1,4.5187256E1,6.2477875E0,3.0252682E1,8.247131E0,7.026867E1,8.268848E1,3.5126644E1,2.1845863E1,3.3197632E0,1.2968439E2,2.2169357E1,5.69059E0,1.4388942E1,7.6523743E0,1.5942383E0,6.5198298E0,9.120695E0,1.1490626E1,1.9309662E1,4.730301E0,1.8464508E1,1.3462837E1,1.5216419E1,7.127426E0,0E0,3.4358788E1,7.313257E0,1.9441895E1,3.685254E1,1.5228729E1,1.0169003E1,8.266788E0,2.0709229E0,3.5692763E0,1.8772583E0,4.1681778E1,4.0220833E1,2.5086044E1,5.0242004E0,3.7589874E0,2.6817253E0,1.0593868E1,6.411686E0,4.51239E0,6.394314E0,6.188965E-2,2.4030807E0,0E0,0E0,0E0,0E0,0E0,0E0,0E0,0E0,0E0,0E0,0E0,0E0,0E0,0E0,0E0,0E0,0E0,0E0,0E0,0E0,0E0,0E0,0E0,0E0,0E0,0E0,0E0,0E0,0E0,0E0,0E0,0E0,0E0,0E0,0E0,0E0,0E0,0E0,0E0,0E0,0E0,0E0,0E0,0E0,0E0,0E0,0E0,0E0,0E0,0E0,0E0,0E0,0E0,0E0,0E0,0E0,0E0,0E0,0E0,0E0,0E0,0E0],"parents":[2147483647,0,0,1,1,2,2,3,3,4,4,5,5,6,6,7,7,8,8,9,9,10,10,11,11,12,12,13,13,14,14,15,15,16,16,17,17,18,18,19,19,20,20,21,21,22,22,23,23,24,24,25,25,26,26,27,27,28,28,29,29,30,30,31,31,32,32,33,33,34,34,35,35,36,36,37,37,38,38,39,39,41,41,42,42,43,43,44,44,45,45,46,46,47,47,48,48,49,49,50,50,51,51,52,52,53,53,54,54,55,55,56,56,57,57,58,58,59,59,60,60,61,61,62,62],"right_children":[2,4,6,8,10,12,14,16,18,20,22,24,26,28,30,32,34,36,38,40,42,44,46,48,50,52,54,56,58,60,62,64,66,68,70,72,74,76,78,80,-1,82,84,86,88,90,92,94,96,98,100,102,104,106,108,110,112,114,116,118,120,122,124,-1,-1,-1,-1,-1,-1,-1,-1,-1,-1,-1,-1,-1,-1,-1,-1,-1,-1,-1,-1,-1,-1,-1,-1,-1,-1,-1,-1,-1,-1,-1,-1,-1,-1,-1,-1,-1,-1,-1,-1,-1,-1,-1,-1,-1,-1,-1,-1,-1,-1,-1,-1,-1,-1,-1,-1,-1,-1,-1,-1,-1,-1],"split_conditions":[1.1675E-1,1.50762005E1,1.4125E-1,4.4749998E-2,2.09E-2,3.435E-2,1.4205E-1,9.8125E-1,9.6650004E-2,9.6655E-1,1.3984999E-1,9.7855E-1,1.4215E-1,1.47794E1,1.7335E-1,1.915E-2,-9.215E-2,6.775001E-2,8.621E-1,8.85E-2,-3.8850002E-2,9.775E-2,1.3315001E-1,1.435E-1,4.8E-3,1.1105E-1,1.7285001E-1,4.8165E-1,1.0029E0,1.7324999E-1,9.827E-1,-1.03949994E-1,4.68E-1,-6.51E-2,3.285E-2,3.915E-2,8.1949994E-2,7.5803003E0,-7.2999997E-3,-1.6600002E-2,-1.5517244E-1,-3.385E-2,5.905E-2,8.6585E0,5.0409997E-1,5.3776503E0,7.83E-2,3.91E-1,2.98E-2,6.5E-1,-1E-4,3.1149998E-2,1.1735E-1,9.42E-2,4.857E-1,-1.9500001E-3,1.1325E-1,1.3159999E-1,9.485E-2,9.8105E-1,-5.4E-3,9.726E-1,1.0874E0,2.4545455E-1,-1.8295084E-1,2.8224853E-1,-1.4210528E-1,3.031088E-1,-1.23287685E-1,-2.0765585E-1,-7.57895E-2,-9.753488E-9,4.0538558E-1,-9.801982E-2,3.195734E-1,3.4397906E-1,7.1999882E-3,1.611252E-2,2.8911918E-1,3.9855453E-1,8.181818E-2,3.251309E-1,-4.0540557E-2,-2.002714E-1,8.4705874E-2,4.2906138E-1,7.659574E-2,2.2597097E-1,3.5765475E-1,2.6208E-1,-1.2948596E-8,1.7260273E-1,-2.0243163E-1,3.7148207E-2,-1.3129413E-1,-2.2351216E-1,-7.714287E-2,2.8800002E-1,-1.6363637E-1,-2.1654552E-1,-8.2568824E-2,-1.6895309E-1,1.9061024E-1,1.7269362E-2,-1.737118E-1,3.408392E-2,-1.24595016E-1,7.3770486E-2,-1.9759E-1,-2.1149231E-1,-8.6747006E-2,-1.2857145E-1,3.1034482E-1,-4.1395735E-2,-1.9497101E-1,2.5973153E-1,-1.7027028E-1,-1.6314897E-1,-2.0397738E-1,-1.7027028E-1,3.512195E-1,-2.0617826E-1,-2.2336143E-1,-1.7560977E-1,1.7999999E-1],"split_indices":[33,11,28,20,20,25,33,9,33,9,29,9,33,2,33,20,31,28,3,24,31,33,20,33,24,28,33,15,22,33,3,21,22,26,20,24,29,1,21,26,0,26,19,6,17,6,28,27,25,0,26,20,20,28,22,26,19,25,20,9,26,4,22,0,0,0,0,0,0,0,0,0,0,0,0,0,0,0,0,0,0,0,0,0,0,0,0,0,0,0,0,0,0,0,0,0,0,0,0,0,0,0,0,0,0,0,0,0,0,0,0,0,0,0,0,0,0,0,0,0,0,0,0,0,0],"split_type":[0,0,0,0,0,0,0,0,0,0,0,0,0,0,0,0,0,0,0,0,0,0,0,0,0,0,0,0,0,0,0,0,0,0,0,0,0,0,0,0,0,0,0,0,0,0,0,0,0,0,0,0,0,0,0,0,0,0,0,0,0,0,0,0,0,0,0,0,0,0,0,0,0,0,0,0,0,0,0,0,0,0,0,0,0,0,0,0,0,0,0,0,0,0,0,0,0,0,0,0,0,0,0,0,0,0,0,0,0,0,0,0,0,0,0,0,0,0,0,0,0,0,0,0,0],"sum_hessian":[1.262711E4,4.8928887E3,7.7342217E3,1.4591111E3,3.4337776E3,3.718222E3,4.0159998E3,1.0435555E3,4.1555554E2,2.813333E2,3.1524443E3,1.5484443E3,2.1697776E3,4.3777774E2,3.578222E3,5.8666664E1,9.8488885E2,1.9022221E2,2.2533331E2,9.333333E1,1.8799998E2,3.0133333E3,1.391111E2,2.653333E2,1.2831111E3,1.1937777E3,9.7599994E2,2.2355554E2,2.1422221E2,1.2204443E3,2.3577776E3,3.5555553E1,2.311111E1,2.7555553E1,9.5733325E2,9.244444E1,9.777777E1,7.555555E1,1.4977777E2,9.111111E1,2.222222E0,9.8666664E1,8.933333E1,2.0839998E3,9.2933325E2,9.6444435E1,4.2666664E1,1.04444435E2,1.6088889E2,4.444444E0,1.2786666E3,6.1688885E2,5.7688885E2,6.346666E2,3.413333E2,2.1999998E2,3.5555553E0,1.9555554E2,1.8666666E1,1.2137777E3,6.666666E0,2.3524443E3,5.333333E0,2.6666665E0,3.2888885E1,1.7777777E1,5.333333E0,2.0444443E1,7.1111107E0,8.4222217E2,1.1511111E2,2.6666665E0,8.977777E1,1.0222221E1,8.755555E1,6.2666664E1,1.2888888E1,1.2933333E2,2.0444443E1,8.355555E1,7.5555553E0,6.2666664E1,3.5999996E1,8.0888885E1,8.444444E0,2.0693333E3,1.4666666E1,2.822222E2,6.471111E2,6.844444E1,2.7999998E1,7.1111107E0,3.5555553E1,5.8222218E1,4.622222E1,1.5022221E2,1.0666666E1,1.7777777E0,2.6666665E0,1.2675554E3,1.1111111E1,2.9777777E1,5.871111E2,4.5066663E2,1.2622221E2,1.0755555E2,5.271111E2,5.7777777E0,3.3555554E2,1.9333333E2,2.6666664E1,1.3333333E0,2.222222E0,1.391111E2,5.6444443E1,1.5555554E1,3.111111E0,3.9066666E2,8.231111E2,3.111111E0,3.5555553E0,2.0222221E2,2.1502222E3,3.5555553E0,1.7777777E0],"tree_param":{"num_deleted":"0","num_feature":"34","num_nodes":"125","size_leaf_vector":"0"}},{"base_weights":[-4.812879E-4,6.142932E-1,-3.4971997E-1,8.050929E-1,-2.052301E-1,2.1001145E-1,-5.331479E-1,8.8018274E-1,5.698232E-1,-3.8208064E-1,6.742206E-1,-7.787084E-2,5.772572E-1,-6.108626E-1,7.186515E-2,-6.9089544E-1,8.8649046E-1,-6.3844085E-1,6.132457E-1,1.5884371E-1,-4.9833435E-1,7.680152E-1,-4.3438914E-1,5.1291585E-1,-2.7655843E-1,7.3612845E-1,-2.0081876E-1,-2.4589285E-1,-6.261199E-1,3.86621E-1,-3.7176767E-1,9.197263E-1,6.6819537E-1,-7.245539E-1,-1.5921277E-1,9.334532E-1,4.487433E-1,-2.9360938E-1,7.777035E-1,-5.9082055E-1,-1.736146E-1,-5.4699403E-1,8.31755E-1,1.7414992E-1,-6.7058706E-1,1.1237247E-1,6.418095E-1,-5.447806E-3,-4.7392723E-1,8.2785815E-1,3.9134765E-1,-3.1395242E-1,5.9367114E-1,1.4717203E-1,-5.1017743E-1,-5.2608484E-1,-6.562105E-1,-5.1918846E-1,5.21032E-1,-4.4655627E-1,5.7354206E-1,5.9281427E-1,9.3840027E-1,8.2938385E-1,3.558321E-1,-7.574633E-1,-2.0640364E-1,6.485895E-1,-5.7296395E-1,-2.0926745E-1,9.4915074E-1,3.0091625E-1,8.103785E-1,-5.475707E-1,3.1900784E-1,1.0110532E0,-2.6898772E-1,-2.828146E-1,-6.2534565E-1,2.098743E-1,-3.535985E-1,-1.4532712E-1,-6.351594E-1,-3.7721616E-1,8.9393955E-1,-4.5381224E-1,8.121118E-1,-5.6110036E-1,2.5358048E-1,7.476327E-1,8.499946E-2,-3.5786763E-1,3.968097E-1,-6.679869E-1,-3.9900914E-1,-9.266927E-2,8.616793E-1,-1.1103535E-2,6.929536E-1,1.1617526E-1,-4.3129507E-1,-4.6282446E-1,7.3152405E-1,1.3080229E-3,8.7763184E-1,-5.723965E-1,-1.8699588E-1,-3.2652718E-1,-5.8780706E-1,-6.639952E-1,-5.45626E-1,3.5678148E-1,-5.6761897E-1,6.754686E-1,9.807793E-2,-5.528681E-1,-9.884816E-2,9.47409E-1,-2.3065457E-1],"categories":[],"categories_nodes":[],"categories_segments":[],"categories_sizes":[],"default_left":[true,true,true,true,true,true,true,true,true,true,true,true,true,true,true,false,true,true,true,true,true,true,true,true,true,true,true,true,true,true,true,true,true,true,true,true,true,true,true,true,true,true,true,true,false,true,true,true,true,true,true,true,true,true,true,true,true,true,true,true,true,false,false,false,false,false,false,false,false,false,false,false,false,false,false,false,false,false,false,false,false,false,false,false,false,false,false,false,false,false,false,false,false,false,false,false,false,false,false,false,false,false,false,false,false,false,false,false,false,false,false,false,false,false,false,false,false,false,false],"id":3,"left_children":[1,3,5,7,9,11,13,15,17,19,21,23,25,27,29,-1,31,33,35,37,39,41,43,45,47,49,51,53,55,57,59,61,63,65,67,69,71,73,75,77,79,81,83,85,-1,87,89,91,93,95,97,99,101,103,105,107,109,111,113,115,117,-1,-1,-1,-1,-1,-1,-1,-1,-1,-1,-1,-1,-1,-1,-1,-1,-1,-1,-1,-1,-1,-1,-1,-1,-1,-1,-1,-1,-1,-1,-1,-1,-1,-1,-1,-1,-1,-1,-1,-1,-1,-1,-1,-1,-1,-1,-1,-1,-1,-1,-1,-1,-1,-1,-1,-1,-1,-1],"loss_changes":[2.625495E3,6.928751E2,8.007772E2,6.2985596E1,1.3050264E2,2.0361923E2,2.7622424E2,2.759082E1,4.6157776E1,4.3963326E1,1.4949921E1,1.26947205E2,1.0475665E2,2.8831787E1,9.3632324E1,0E0,1.9061035E1,1.1536789E0,4.3962585E1,3.500706E1,1.7155258E1,1.1348213E1,1.7846515E0,1.3982178E1,4.328894E1,2.1908783E1,1.3154676E1,2.1944218E1,1.4692749E1,4.8013313E1,1.9937183E1,1.379541E1,1.7931015E1,2.8335285E-1,2.3655193E0,5.311325E0,2.9614922E1,1.145061E1,1.315131E1,4.574829E0,8.96448E0,1.4182627E-1,9.685829E0,1.9863825E0,0E0,6.5602417E0,1.2059265E1,4.860579E1,6.5402985E0,1.7338684E1,1.816907E1,6.457508E0,3.0081677E0,9.099655E0,2.428711E0,1.4099548E1,2.9404297E0,2.3733473E0,2.2270782E1,9.502163E0,6.4865146E0,0E0,0E0,0E0,0E0,0E0,0E0,0E0,0E0,0E0,0E0,0E0,0E0,0E0,0E0,0E0,0E0,0E0,0E0,0E0,0E0,0E0,0E0,0E0,0E0,0E0,0E0,0E0,0E0,0E0,0E0,0E0,0E0,0E0,0E0,0E0,0E0,0E0,0E0,0E0,0E0,0E0,0E0,0E0,0E0,0E0,0E0,0E0,0E0,0E0,0E0,0E0,0E0,0E0,0E0,0E0,0E0,0E0,0E0],"parents":[2147483647,0,0,1,1,2,2,3,3,4,4,5,5,6,6,7,7,8,8,9,9,10,10,11,11,12,12,13,13,14,14,16,16,17,17,18,18,19,19,20,20,21,21,22,22,23,23,24,24,25,25,26,26,27,27,28,28,29,29,30,30,31,31,32,32,33,33,34,34,35,35,36,36,37,37,38,38,39,39,40,40,41,41,42,42,43,43,45,45,46,46,47,47,48,48,49,49,50,50,51,51,52,52,53,53,54,54,55,55,56,56,57,57,58,58,59,59,60,60],"right_children":[2,4,6,8,10,12,14,16,18,20,22,24,26,28,30,-1,32,34,36,38,40,42,44,46,48,50,52,54,56,58,60,62,64,66,68,70,72,74,76,78,80,82,84,86,-1,88,90,92,94,96,98,100,102,104,106,108,110,112,114,116,118,-1,-1,-1,-1,-1,-1,-1,-1,-1,-1,-1,-1,-1,-1,-1,-1,-1,-1,-1,-1,-1,-1,-1,-1,-1,-1,-1,-1,-1,-1,-1,-1,-1,-1,-1,-1,-1,-1,-1,-1,-1,-1,-1,-1,-1,-1,-1,-1,-1,-1,-1,-1,-1,-1,-1,-1,-1,-1],"split_conditions":[5.235E-2,1.649665E1,1.248505E1,2.995E-2,1.671E-1,8.65E-1,1.6455E-1,-5E-5,4.3300003E-2,3.95E-3,4.95E-2,4.625E-2,1.364E-1,2.67E-2,8.655E-2,-2.0726864E-1,5.4696503E0,4.16E-2,8.910151E0,-2.4050001E-2,6.595E-1,2.62835E0,6.45E-3,9.555E-2,8.54E-2,1.1615E-1,2.6035E-1,1.8299374E2,1.7545026E2,1.491E-1,2.6604998E-1,-6.0099997E-2,2.975E-2,7.535E-2,1.00404E1,1.4277E0,9.0075E-1,3.2750003E-2,1.078E-1,2.065E-2,1.88947E1,9.98E-1,2.4325E-1,8.625E-2,-2.0117612E-1,7.968E-1,1.0625E-1,1.09400004E-1,1.0825E-1,1.318E-1,2.0245E-1,8.93515E0,1.9035E-1,1.0351E0,9.072E-1,6.155E-2,9.8325E-1,7.2799996E-2,1.1975E-1,2.0934999E-1,9.903E-1,1.7784429E-1,2.815201E-1,2.4881516E-1,1.0674963E-1,-2.27239E-1,-6.1921094E-2,1.9457686E-1,-1.7188919E-1,-6.278024E-2,2.8474525E-1,9.027488E-2,2.4311356E-1,-1.6427122E-1,9.570236E-2,3.0331597E-1,-8.0696315E-2,-8.484438E-2,-1.876037E-1,6.296229E-2,-1.06079556E-1,-4.3598138E-2,-1.9054782E-1,-1.1316485E-1,2.681819E-1,-1.3614368E-1,2.4363355E-1,-1.6833012E-1,7.6074146E-2,2.2428982E-1,2.5499837E-2,-1.07360296E-1,1.1904291E-1,-2.0039609E-1,-1.1970275E-1,-2.7800782E-2,2.585038E-1,-3.3310608E-3,2.0788608E-1,3.485258E-2,-1.2938853E-1,-1.3884735E-1,2.1945722E-1,3.924069E-4,2.6328957E-1,-1.7171896E-1,-5.6098767E-2,-9.7958155E-2,-1.7634213E-1,-1.9919857E-1,-1.636878E-1,1.0703445E-1,-1.702857E-1,2.026406E-1,2.942338E-2,-1.6586044E-1,-2.9654449E-2,2.842227E-1,-6.919637E-2],"split_indices":[30,11,2,25,18,22,18,25,28,25,25,25,25,25,25,0,5,28,2,26,22,6,16,23,30,30,33,7,7,33,33,26,30,19,2,6,22,24,29,30,2,10,14,19,0,3,24,23,23,33,23,2,28,22,22,25,22,13,13,18,9,0,0,0,0,0,0,0,0,0,0,0,0,0,0,0,0,0,0,0,0,0,0,0,0,0,0,0,0,0,0,0,0,0,0,0,0,0,0,0,0,0,0,0,0,0,0,0,0,0,0,0,0,0,0,0,0,0,0],"split_type":[0,0,0,0,0,0,0,0,0,0,0,0,0,0,0,0,0,0,0,0,0,0,0,0,0,0,0,0,0,0,0,0,0,0,0,0,0,0,0,0,0,0,0,0,0,0,0,0,0,0,0,0,0,0,0,0,0,0,0,0,0,0,0,0,0,0,0,0,0,0,0,0,0,0,0,0,0,0,0,0,0,0,0,0,0,0,0,0,0,0,0,0,0,0,0,0,0,0,0,0,0,0,0,0,0,0,0,0,0,0,0,0,0,0,0,0,0,0,0],"sum_hessian":[1.2226495E4,4.429089E3,7.7974062E3,3.592669E3,8.3642E2,1.924534E3,5.8728726E3,2.7213635E3,8.713054E2,6.9685376E2,1.3956621E2,1.0792797E3,8.4525446E2,5.204356E3,6.6851624E2,1.0448272E1,2.7109153E3,2.9751255E1,8.4155414E2,1.2320747E2,5.736463E2,1.2896248E2,1.0603723E1,2.712251E2,8.080545E2,7.0197565E2,1.4327881E2,2.0952107E2,4.994835E3,3.9113553E2,2.773807E2,2.3499219E3,3.6099344E2,2.4785583E1,4.96567E0,2.8402295E2,5.5753125E2,7.147623E1,5.1731247E1,4.4584256E2,1.27803734E2,5.6114526E0,1.2335103E2,3.038372E0,7.5653505E0,6.648659E1,2.0473851E2,3.408636E2,4.6719095E2,5.533536E2,1.4862207E2,1.2594881E2,1.7330004E1,8.4415215E1,1.2510586E2,1.1592908E3,3.8355442E3,5.0170265E1,3.4096527E2,2.5753345E2,1.9847263E1,1.2874911E2,2.2211726E3,2.3702599E2,1.2396745E2,2.2871107E1,1.9144777E0,1.4896718E0,3.4759984E0,3.6816435E0,2.8034128E2,3.9705682E2,1.604744E2,5.0604313E1,2.0871912E1,4.2328552E1,9.402696E0,4.5864708E1,3.9997787E2,4.076989E1,8.7033844E1,1.4866893E0,4.124763E0,5.7864633E0,1.1756456E2,1.6766529E0,1.3617191E0,1.1008661E1,5.5477924E1,1.7175359E2,3.2984924E1,1.8174567E2,1.5911794E2,1.27921295E2,3.3926965E2,1.954863E1,5.3380493E2,6.407974E1,8.454233E1,2.6997507E1,9.89513E1,1.7281555E0,1.5601848E1,7.1199356E1,1.3215861E1,1.0426212E2,2.0843733E1,2.7534543E2,8.839454E2,3.5786191E3,2.569252E2,2.2949154E0,4.787535E1,2.4932881E2,9.163647E1,1.9677838E2,6.0755066E1,1.3427026E1,6.420237E0],"tree_param":{"num_deleted":"0","num_feature":"34","num_nodes":"119","size_leaf_vector":"0"}},{"base_weights":[1.5565685E-3,-4.1514087E-1,5.1365024E-1,-5.5788946E-1,-2.0109606E-1,2.7424577E-1,8.26559E-1,-6.3673955E-1,-4.4850788E-1,-4.3127167E-1,-1.2236041E-2,-1.4262348E-1,4.3811053E-1,1.9821271E-1,8.6991704E-1,-6.382628E-1,6.1674386E-1,-5.695649E-1,-3.5730875E-1,-4.558711E-1,7.917949E-1,-3.86866E-1,1.6887955E-1,2.573255E-1,-3.1423068E-1,5.684521E-1,-2.4187565E-2,1.793832E-2,1.0140347E0,5.026731E-1,9.1395456E-1,-6.534954E-1,-5.758701E-1,-5.990587E-1,-3.0571413E-1,-5.608177E-1,-2.2686212E-1,-5.8275884E-1,-3.3263373E-1,9.793638E-1,-5.416254E-1,6.0517645E-1,-4.6529815E-1,-2.6021534E-1,3.1330407E-1,4.6398584E-3,6.5388465E-1,-3.9376178E-1,1.1198217E-1,1.4035323E-1,7.3745364E-1,-3.240416E-1,2.1481791E-1,-1.6668716E-1,7.4625975E-1,2.611501E-1,1.0462896E0,7.0018196E-1,-7.386733E-3,9.243091E-1,2.28936E-1,-6.698907E-1,-6.295644E-1,-6.511899E-2,-5.999509E-1,-6.178147E-1,-4.3280166E-1,-3.5851058E-1,7.5320876E-1,-5.9674054E-1,-1.9498233E-1,-3.0947882E-1,2.7864295E-1,-5.9139127E-1,-1.6345011E-2,-2.652839E-2,-4.2576522E-1,-2.5554776E-1,1.1385707E0,7.6838523E-1,-9.818761E-2,-2.4019574E-1,-5.712846E-1,1.3848844E-1,-3.9973697E-1,5.034642E-1,-2.635185E-1,3.3167383E-1,-2.0652413E-1,-2.655026E-1,7.604799E-1,-5.1473486E-1,-2.5694266E-1,4.390363E-1,-2.3531866E-1,2.980173E-1,-4.297669E-1,8.2309985E-1,4.4285953E-1,-5.6060857E-1,-1.19631104E-1,9.0177156E-2,6.3724333E-1,1.0099634E0,-2.7351153E-1,9.5936465E-1,-5.978152E-1,3.0378917E-1,1.0773264E0,2.4183647E-1,8.692498E-1,3.586207E-1,-3.569103E-1,8.6305124E-1,1.006205E0,-2.0493661E-1,6.1550057E-1],"categories":[],"categories_nodes":[],"categories_segments":[],"categories_sizes":[],"default_left":[true,true,true,true,true,true,true,true,true,true,true,true,true,true,true,true,false,true,true,true,true,true,true,true,true,true,true,true,true,true,true,true,true,true,true,true,true,true,true,true,false,true,true,true,true,true,true,true,true,true,true,true,true,true,true,false,true,true,true,true,true,false,false,false,false,false,false,false,false,false,false,false,false,false,false,false,false,false,false,false,false,false,false,false,false,false,false,false,false,false,false,false,false,false,false,false,false,false,false,false,false,false,false,false,false,false,false,false,false,false,false,false,false,false,false,false,false],"id":4,"left_children":[1,3,5,7,9,11,13,15,17,19,21,23,25,27,29,31,-1,33,35,37,39,41,43,45,47,49,51,53,55,57,59,61,63,65,67,69,71,73,75,77,-1,79,81,83,85,87,89,91,93,95,97,99,101,103,105,-1,107,109,111,113,115,-1,-1,-1,-1,-1,-1,-1,-1,-1,-1,-1,-1,-1,-1,-1,-1,-1,-1,-1,-1,-1,-1,-1,-1,-1,-1,-1,-1,-1,-1,-1,-1,-1,-1,-1,-1,-1,-1,-1,-1,-1,-1,-1,-1,-1,-1,-1,-1,-1,-1,-1,-1,-1,-1,-1,-1],"loss_changes":[2.6137224E3,2.0623438E2,4.114364E2,3.465222E1,1.1751867E2,2.128364E2,6.4708496E1,4.883667E0,1.8568207E1,3.702002E1,1.00896454E2,6.045542E1,1.3475745E2,2.2780622E1,3.556421E1,1.8563843E0,0E0,5.488907E0,2.5687584E1,1.8493607E1,6.6302595E0,3.798781E1,6.220543E1,2.6517487E1,2.0924576E1,1.26102356E2,3.538464E1,1.733356E1,4.076252E-1,2.4256237E1,1.3887573E1,3.1622314E-1,5.7343597E0,1.7736969E0,4.481277E0,4.8664703E0,2.4904404E1,2.8628235E0,1.7338081E1,4.564625E0,0E0,4.2013054E0,1.059079E1,1.4128401E1,8.245055E1,1.1301689E1,1.0296112E1,8.463692E0,1.1194689E1,4.4619076E1,3.1184937E1,1.05211525E1,1.4411506E1,1.3212345E1,8.0390625E0,0E0,2.846279E-1,1.3237709E1,8.850805E0,8.953491E0,5.313366E0,0E0,0E0,0E0,0E0,0E0,0E0,0E0,0E0,0E0,0E0,0E0,0E0,0E0,0E0,0E0,0E0,0E0,0E0,0E0,0E0,0E0,0E0,0E0,0E0,0E0,0E0,0E0,0E0,0E0,0E0,0E0,0E0,0E0,0E0,0E0,0E0,0E0,0E0,0E0,0E0,0E0,0E0,0E0,0E0,0E0,0E0,0E0,0E0,0E0,0E0,0E0,0E0,0E0,0E0,0E0,0E0],"parents":[2147483647,0,0,1,1,2,2,3,3,4,4,5,5,6,6,7,7,8,8,9,9,10,10,11,11,12,12,13,13,14,14,15,15,17,17,18,18,19,19,20,20,21,21,22,22,23,23,24,24,25,25,26,26,27,27,28,28,29,29,30,30,31,31,32,32,33,33,34,34,35,35,36,36,37,37,38,38,39,39,41,41,42,42,43,43,44,44,45,45,46,46,47,47,48,48,49,49,50,50,51,51,52,52,53,53,54,54,56,56,57,57,58,58,59,59,60,60],"right_children":[2,4,6,8,10,12,14,16,18,20,22,24,26,28,30,32,-1,34,36,38,40,42,44,46,48,50,52,54,56,58,60,62,64,66,68,70,72,74,76,78,-1,80,82,84,86,88,90,92,94,96,98,100,102,104,106,-1,108,110,112,114,116,-1,-1,-1,-1,-1,-1,-1,-1,-1,-1,-1,-1,-1,-1,-1,-1,-1,-1,-1,-1,-1,-1,-1,-1,-1,-1,-1,-1,-1,-1,-1,-1,-1,-1,-1,-1,-1,-1,-1,-1,-1,-1,-1,-1,-1,-1,-1,-1,-1,-1,-1,-1,-1,-1,-1,-1],"split_conditions":[1.2935E-1,1.0165E-1,1.0865E-1,7.655E-2,9.555E-2,7.015E-2,1.051E-1,3.8756798E1,5.4250002E-2,1.79244E1,1.275765E1,8.7979996E-1,1.7135E-1,1.4504999E-1,7.9511E0,3.2695E-1,1.8502316E-1,5.6E-2,1.8924999E-1,7.505E-2,1.1125E-1,6.3555E-1,1.1305E-1,1.5305E-1,1.0755E-1,1.3915E-1,4.06E-2,9.8965E-1,1.8335E-1,1.06325E0,2.6515E-1,8.065E-2,1.06649995E-1,1.4215E-1,1.2246499E0,1.0805E-1,1.0265E-1,9.9325E-1,4.1100003E-2,-2.7399998E-2,-1.6248763E-1,9.05E-2,8.2299995E-1,-1.8E-2,9.5449996E-1,6.9834995E-1,4.4500504E0,1.1955E-1,1.03965E0,-6.5E-4,9.715E-1,7.74E-2,9.4050005E-2,2.0355E-1,1.5475E-1,7.834503E-2,9.656E-1,1.0875E-1,2.1925E-1,1.4105001E-1,1.3530001E-1,-2.0096722E-1,-1.8886933E-1,-1.9535698E-2,-1.7998528E-1,-1.8534443E-1,-1.2984051E-1,-1.0755318E-1,2.2596264E-1,-1.7902216E-1,-5.8494702E-2,-9.284365E-2,8.359289E-2,-1.7741738E-1,-4.9035037E-3,-7.958517E-3,-1.2772956E-1,-7.666433E-2,3.415712E-1,2.3051558E-1,-2.9456284E-2,-7.205872E-2,-1.7138538E-1,4.1546535E-2,-1.19921096E-1,1.5103927E-1,-7.9055555E-2,9.950215E-2,-6.1957244E-2,-7.965078E-2,2.2814399E-1,-1.5442047E-1,-7.70828E-2,1.317109E-1,-7.05956E-2,8.9405194E-2,-1.2893008E-1,2.4692996E-1,1.3285786E-1,-1.6818258E-1,-3.588933E-2,2.7053148E-2,1.91173E-1,3.0298904E-1,-8.205346E-2,2.878094E-1,-1.7934456E-1,9.113675E-2,3.2319793E-1,7.2550945E-2,2.6077497E-1,1.0758621E-1,-1.0707309E-1,2.589154E-1,3.018615E-1,-6.1480984E-2,1.8465018E-1],"split_indices":[29,29,25,28,28,13,23,2,13,12,12,32,18,25,1,14,0,25,14,28,19,32,33,29,20,33,25,9,14,32,33,33,18,16,32,24,24,9,25,16,0,20,32,26,32,22,1,24,32,26,22,24,20,14,24,0,9,20,28,20,20,0,0,0,0,0,0,0,0,0,0,0,0,0,0,0,0,0,0,0,0,0,0,0,0,0,0,0,0,0,0,0,0,0,0,0,0,0,0,0,0,0,0,0,0,0,0,0,0,0,0,0,0,0,0,0,0],"split_type":[0,0,0,0,0,0,0,0,0,0,0,0,0,0,0,0,0,0,0,0,0,0,0,0,0,0,0,0,0,0,0,0,0,0,0,0,0,0,0,0,0,0,0,0,0,0,0,0,0,0,0,0,0,0,0,0,0,0,0,0,0,0,0,0,0,0,0,0,0,0,0,0,0,0,0,0,0,0,0,0,0,0,0,0,0,0,0,0,0,0,0,0,0,0,0,0,0,0,0,0,0,0,0,0,0,0,0,0,0,0,0,0,0,0,0,0,0],"sum_hessian":[1.224668E4,6.7523735E3,5.4943066E3,4.0498691E3,2.7025042E3,3.11382E3,2.3804866E3,2.3505803E3,1.699289E3,1.2174445E3,1.4850598E3,8.78658E2,2.235162E3,1.5401822E2,2.2264685E3,2.3482175E3,2.362749E0,7.27872E2,9.7141693E2,1.1940558E3,2.3388687E1,4.836057E2,1.00145404E3,2.636632E2,6.149948E2,1.7433949E3,4.917672E2,1.26980896E2,2.7037321E1,2.39726E2,1.9867424E3,1.8798069E3,4.6841058E2,6.5354663E2,7.4325386E1,3.7815714E2,5.9325977E2,5.864777E2,6.07578E2,2.0737167E1,2.651521E0,3.494104E1,4.4866467E2,2.5198575E2,7.4946826E2,1.616636E2,1.01999596E2,5.183476E2,9.664723E1,4.9396335E2,1.2494315E3,2.1796037E2,2.7380685E2,1.019167E2,2.506419E1,1.4844356E0,2.5552887E1,1.725408E2,6.718519E1,1.9568145E3,2.9927942E1,1.0995209E3,7.80286E2,2.1256989E1,4.471536E2,5.848515E2,6.869514E1,7.142564E1,2.8997457E0,3.4376984E2,3.4387302E1,5.102546E2,8.3005165E1,5.776302E2,8.847492E0,1.4203175E2,4.6554626E2,2.299057E0,1.843811E1,2.8285273E1,6.6557665E0,1.4466978E2,3.039949E2,6.5323E1,1.8666275E2,5.6374615E2,1.857221E2,6.320541E1,9.845819E1,1.0442447E1,9.1557144E1,2.7363873E2,2.4470885E2,4.963844E1,4.7008793E1,3.8732712E2,1.0663623E2,9.6661676E2,2.828147E2,1.0022551E2,1.1773486E2,2.123611E2,6.144575E1,7.7789197E0,9.413779E1,2.1881134E1,3.183057E0,1.4581141E0,2.4094772E1,4.714915E1,1.25391655E2,3.2806E1,3.4379192E1,1.1260627E3,8.307518E2,1.4322497E1,1.5605444E1],"tree_param":{"num_deleted":"0","num_feature":"34","num_nodes":"117","size_leaf_vector":"0"}},{"base_weights":[-3.4017174E-3,5.3202736E-1,-4.6394318E-1,-1.559247E-1,8.029292E-1,-1.0655218E-1,-5.853416E-1,-5.230554E-1,4.5371637E-1,9.1349554E-1,4.948696E-1,-5.443592E-1,5.2407946E-2,-4.9379954E-1,-6.547103E-1,1.7393814E-1,-5.763789E-1,7.2867846E-1,2.1510164E-1,3.0377665E-1,9.5975524E-1,5.6838626E-1,-3.745445E-1,-6.245211E-1,-1.4218198E-1,1.512292E-1,-5.089748E-1,-6.5001017E-1,-4.3975255E-1,-1.9705866E-1,-6.5606344E-1,6.678828E-1,-2.0963834E-1,-6.435438E-1,-3.7478703E-1,-6.16954E-1,7.582852E-1,-2.4218256E-2,5.5078435E-1,7.3848295E-1,-3.0048186E-1,9.6321267E-1,-3.860922E-1,8.1128085E-1,3.8539225E-1,3.1679586E-1,-5.1267916E-1,2.9999297E-2,-6.362668E-1,3.7517875E-1,-4.275034E-1,6.707229E-1,4.8432186E-2,8.7215155E-1,-5.465438E-1,-4.0594262E-1,-6.668407E-1,-5.209519E-1,-2.7026165E-1,-5.9145594E-1,1.0447202E0,-6.570549E-1,2.8915172E-3,-5.882931E-1,8.979162E-1,6.528121E-1,-4.469949E-1,9.445617E-1,-6.490294E-1,7.238493E-1,-5.0762135E-1,8.048416E-1,-4.5631476E-2,-1.2577873E-1,8.0191505E-1,1.1302718E-1,7.9262686E-1,8.8309336E-1,7.039E-2,3.4888652E-1,-4.9366096E-1,-3.4823367E-1,9.6668434E-1,3.8494092E-1,-6.1168253E-1,8.3317393E-1,-6.927184E-1,-3.6191553E-1,4.735457E-1,7.9929316E-1,-5.985879E-1,-5.5027443E-1,7.774254E-1,9.548382E-1,-5.735469E-1,-2.504138E-1,-6.4133096E-1,-4.744427E-1,8.344594E-1,-5.023533E-1,1.048575E0,2.0554027E-1,9.290386E-1,-7.541011E-2,6.4184576E-1,-6.4040166E-1,-2.0734406E-1,5.7107425E-1,-5.6886506E-1,1.3753368E-1,-6.7469376E-1,3.7550172E-1,-5.310824E-1,6.280303E-3,-3.6465746E-1,-3.3798656E-1,-6.586153E-1,-4.9107662E-1,6.1172205E-1],"categories":[],"categories_nodes":[],"categories_segments":[],"categories_sizes":[],"default_left":[true,true,true,true,true,true,true,true,true,true,true,true,true,true,true,true,true,true,true,true,true,true,true,true,true,true,true,true,true,true,true,true,true,true,true,false,true,true,true,true,true,true,true,true,true,true,true,true,true,true,true,true,true,false,true,true,true,true,true,false,false,true,true,false,false,false,false,false,false,false,false,false,false,false,false,false,false,false,false,false,false,false,false,false,false,false,false,false,false,false,false,false,false,false,false,false,false,false,false,false,false,false,false,false,false,false,false,false,false,false,false,false,false,false,false,false,false,false,false],"id":5,"left_children":[1,3,5,7,9,11,13,15,17,19,21,23,25,27,29,31,33,35,37,39,41,43,45,47,49,51,53,55,57,59,61,63,65,67,69,-1,71,73,75,77,79,81,83,85,87,89,91,93,95,97,99,101,103,-1,105,107,109,111,113,-1,-1,115,117,-1,-1,-1,-1,-1,-1,-1,-1,-1,-1,-1,-1,-1,-1,-1,-1,-1,-1,-1,-1,-1,-1,-1,-1,-1,-1,-1,-1,-1,-1,-1,-1,-1,-1,-1,-1,-1,-1,-1,-1,-1,-1,-1,-1,-1,-1,-1,-1,-1,-1,-1,-1,-1,-1,-1,-1],"loss_changes":[3.0040413E3,1.0499763E3,2.8408704E2,3.566396E2,1.3721777E2,1.15679504E2,3.0718994E1,3.7055573E1,3.9146797E1,8.356714E1,6.8584656E1,1.4184784E1,6.776165E1,1.7540771E1,1.5910645E0,1.3674122E1,1.226828E1,1.1539597E1,2.5892714E1,5.5680435E1,1.322876E1,4.3544525E1,8.184598E0,2.8548431E0,1.1213043E1,5.541033E1,9.964355E0,1.9502411E0,2.1491333E1,5.3287225E0,1.8110352E0,9.619939E0,8.678661E0,6.6381226E0,3.4412235E1,0E0,1.0230942E1,1.5960252E1,1.4109398E1,1.1829163E1,1.1342833E1,1.2885742E1,1.5910898E0,1.4507202E1,3.736895E1,6.930109E0,3.8421402E0,4.710439E0,5.475464E-1,1.0989366E1,5.910386E0,2.0408165E1,6.3821518E1,0E0,5.553982E0,6.283572E0,3.2779388E0,9.840515E0,1.3346653E1,0E0,0E0,1.1541748E0,1.8510396E0,0E0,0E0,0E0,0E0,0E0,0E0,0E0,0E0,0E0,0E0,0E0,0E0,0E0,0E0,0E0,0E0,0E0,0E0,0E0,0E0,0E0,0E0,0E0,0E0,0E0,0E0,0E0,0E0,0E0,0E0,0E0,0E0,0E0,0E0,0E0,0E0,0E0,0E0,0E0,0E0,0E0,0E0,0E0,0E0,0E0,0E0,0E0,0E0,0E0,0E0,0E0,0E0,0E0,0E0,0E0,0E0],"parents":[2147483647,0,0,1,1,2,2,3,3,4,4,5,5,6,6,7,7,8,8,9,9,10,10,11,11,12,12,13,13,14,14,15,15,16,16,17,17,18,18,19,19,20,20,21,21,22,22,23,23,24,24,25,25,26,26,27,27,28,28,29,29,30,30,31,31,32,32,33,33,34,34,36,36,37,37,38,38,39,39,40,40,41,41,42,42,43,43,44,44,45,45,46,46,47,47,48,48,49,49,50,50,51,51,52,52,54,54,55,55,56,56,57,57,58,58,61,61,62,62],"right_children":[2,4,6,8,10,12,14,16,18,20,22,24,26,28,30,32,34,36,38,40,42,44,46,48,50,52,54,56,58,60,62,64,66,68,70,-1,72,74,76,78,80,82,84,86,88,90,92,94,96,98,100,102,104,-1,106,108,110,112,114,-1,-1,116,118,-1,-1,-1,-1,-1,-1,-1,-1,-1,-1,-1,-1,-1,-1,-1,-1,-1,-1,-1,-1,-1,-1,-1,-1,-1,-1,-1,-1,-1,-1,-1,-1,-1,-1,-1,-1,-1,-1,-1,-1,-1,-1,-1,-1,-1,-1,-1,-1,-1,-1,-1,-1,-1,-1,-1,-1],"split_conditions":[1.2195E-1,5.1829004E0,1.4225E-1,4.1050002E-2,8.865E-2,3.415E-2,1.7335E-1,-5.2249998E-2,1.003E-1,1.565E-2,1.184E-1,6.667E0,1.3295001E-1,2.7449999E-2,1.453E-1,1.7853501E0,2.3049999E-2,1.92E-2,1.243E-1,-4.4749998E-2,1.3055E-1,9.7015E-1,3.1939E0,9.9715E-1,3.4600002E-1,7.5444996E-1,4.0235E-1,7.2335005E-1,8.8895E-1,-1.0199999E-2,9.827E-1,6.3722E0,2.2975E-1,-1E-4,5.3400002E-2,-1.8508622E-1,1.0915E-1,5E-5,8.26E-2,3.8900003E-2,-2.7449999E-2,2.6500002E-3,6.895E-2,6.8522E0,2.99E-2,1.1425E-1,4.25E-3,4.8550002E-2,2.1838E0,9.75E-3,-1.055E-2,6.9395E-1,-1.45E-3,2.6164547E-1,7.582E-1,1.436E-1,-9.81E-2,1.16094E1,4.9809998E-1,-1.7743678E-1,3.1341606E-1,7.085E-2,8.04E-1,-1.7648792E-1,2.6937488E-1,1.9584365E-1,-1.3409847E-1,2.8336853E-1,-1.9470882E-1,2.171548E-1,-1.5228641E-1,2.4145249E-1,-1.36894435E-2,-3.7733622E-2,2.4057452E-1,3.3908155E-2,2.3778807E-1,2.64928E-1,2.1117002E-2,1.0466596E-1,-1.4809829E-1,-1.04470104E-1,2.9000533E-1,1.1548228E-1,-1.8350476E-1,2.4995218E-1,-2.0781553E-1,-1.08574666E-1,1.4206372E-1,2.3978795E-1,-1.7957637E-1,-1.6508234E-1,2.3322763E-1,2.864515E-1,-1.7206407E-1,-7.5124145E-2,-1.923993E-1,-1.423328E-1,2.5033784E-1,-1.50706E-1,3.145725E-1,6.166208E-2,2.787116E-1,-2.2623034E-2,1.9255374E-1,-1.921205E-1,-6.2203217E-2,1.7132229E-1,-1.7065953E-1,4.1260105E-2,-2.0240813E-1,1.1265052E-1,-1.5932472E-1,1.884091E-3,-1.0939724E-1,-1.0139597E-1,-1.975846E-1,-1.47323E-1,1.8351662E-1],"split_indices":[33,5,33,20,23,25,33,26,33,20,20,5,25,25,27,6,20,25,18,21,20,9,6,10,27,3,27,3,32,21,3,2,27,25,23,0,20,26,19,19,26,25,23,6,25,23,21,19,5,25,21,32,26,0,32,33,26,12,27,0,0,23,27,0,0,0,0,0,0,0,0,0,0,0,0,0,0,0,0,0,0,0,0,0,0,0,0,0,0,0,0,0,0,0,0,0,0,0,0,0,0,0,0,0,0,0,0,0,0,0,0,0,0,0,0,0,0,0,0],"split_type":[0,0,0,0,0,0,0,0,0,0,0,0,0,0,0,0,0,0,0,0,0,0,0,0,0,0,0,0,0,0,0,0,0,0,0,0,0,0,0,0,0,0,0,0,0,0,0,0,0,0,0,0,0,0,0,0,0,0,0,0,0,0,0,0,0,0,0,0,0,0,0,0,0,0,0,0,0,0,0,0,0,0,0,0,0,0,0,0,0,0,0,0,0,0,0,0,0,0,0,0,0,0,0,0,0,0,0,0,0,0,0,0,0,0,0,0,0,0,0],"sum_hessian":[1.2180464E4,5.632232E3,6.548232E3,1.5913759E3,4.0408562E3,1.6607982E3,4.8874336E3,9.9332794E2,5.980479E2,2.97215E3,1.068706E3,4.4173895E2,1.2190592E3,2.1104763E3,2.7769573E3,7.0433075E1,9.228949E2,2.7690692E2,3.21141E2,2.101299E2,2.76202E3,9.857025E2,8.300361E1,3.6786362E2,7.387532E1,1.0372081E3,1.8185109E2,5.396662E2,1.5708099E3,8.618735E0,2.7683386E3,3.046327E1,3.9969803E1,6.906101E2,2.3228476E2,5.5342894E0,2.7137262E2,1.8802165E2,1.3311934E2,1.2208167E2,8.8048225E1,2.7552263E3,6.7937613E0,4.2205716E2,5.636453E2,1.3607419E1,6.939619E1,6.45776E0,3.6140585E2,2.6147778E1,4.7727543E1,1.7042514E2,8.66783E2,4.227389E0,1.776237E2,3.6434246E1,5.0323196E2,1.0606178E3,5.1019217E2,6.9386697E0,1.6800653E0,2.7641826E3,4.1560235E0,4.474006E0,2.5989264E1,8.248392E0,3.172141E1,1.7879878E0,6.8882214E2,2.45758E1,2.0770897E2,2.5651614E2,1.4856488E1,1.6819269E2,1.9828972E1,4.7894054E1,8.522528E1,1.0009421E2,2.1987461E1,2.0002874E1,6.804535E1,7.01224E0,2.748214E3,1.3779088E0,5.4158525E0,4.1644122E2,5.615921E0,5.914519E1,5.0450015E2,8.993684E0,4.613735E0,6.798839E1,1.4078007E0,2.3202686E0,4.137491E0,5.3353224E0,3.5607056E2,9.16341E0,1.6984367E1,4.605198E1,1.6755624E0,6.148921E1,1.0893593E2,7.178454E2,1.4893764E2,1.3843126E2,3.9192436E1,4.8492093E0,3.1585035E1,4.705906E0,4.9852606E2,1.1448697E1,1.0491691E3,1.3007068E2,3.801215E2,1.4511211E1,2.7496714E3,2.401225E0,1.7547983E0],"tree_param":{"num_deleted":"0","num_feature":"34","num_nodes":"119","size_leaf_vector":"0"}},{"base_weights":[-2.4661103E-3,3.6098236E-1,-4.14745E-1,6.343147E-1,-2.27669E-2,1.9856535E-1,-5.302927E-1,7.0960957E-1,4.7629222E-1,-2.189093E-1,2.8953594E-1,-1.0909792E-1,6.371064E-1,-5.8008105E-1,-1.8414287E-2,1.083881E-1,7.213145E-1,-1.0197543E-1,5.639383E-1,6.8040594E-2,-4.7425804E-1,5.0036347E-1,-1.2260605E-1,3.8532144E-1,-2.3194125E-1,6.886062E-1,2.1841156E-1,-2.796785E-1,-5.925606E-1,3.0349857E-1,-3.6146772E-1,-2.69491E-1,6.2619185E-1,4.6951976E-1,7.3673344E-1,4.2244852E-1,-2.9581246E-1,6.656657E-1,3.3776125E-1,3.5331976E-1,-1.0278721E-1,-5.5324703E-1,-2.9723012E-1,4.080574E-1,7.419291E-1,-5.1062095E-1,8.502323E-2,-5.347037E-1,6.9030726E-1,5.8848344E-2,-4.4438574E-1,7.3671836E-1,3.328934E-1,7.214029E-1,-2.2555949E-1,2.757737E-1,-4.0695512E-1,-6.0229254E-1,-4.34475E-1,-1.5603498E-1,5.177901E-1,-3.9133206E-1,1.1331104E0,-4.6521834E-1,6.010905E-1,7.663572E-1,-4.9343055E-1,-1.460466E-1,6.033736E-1,7.7671E-1,6.562834E-1,-1.7345834E-1,5.910987E-1,-4.4431952E-1,4.1664097E-2,-6.2816846E-1,6.760764E-1,1.4355903E-3,5.385306E-1,2.7753731E-2,5.989978E-1,-4.5323643E-1,2.2357123E-2,-3.6185038E-1,-5.993966E-1,7.568546E-1,-3.2164103E-1,6.207968E-1,2.2560376E-1,9.006733E-1,5.413092E-1,8.2371175E-2,-5.7967097E-1,3.2074142E-1,-2.2442117E-1,-6.273873E-1,-8.229246E-2,8.463902E-1,-1.6028032E-1,2.369653E-1,-2.2783817E-1,-5.2910113E-1,-1.6589566E-1,2.4620295E-2,7.6518494E-1,-5.0679123E-1,5.466338E-1,8.7935823E-1,-3.807137E-3,4.0065235E-1,-4.748276E-1,4.991195E-1,-3.0217922E-1,2.7495193E-1,-4.6600878E-1,-6.095743E-1,-4.9725538E-1,-2.8971452E-1,-6.108938E-1,5.9146154E-1,-4.0876776E-1,6.410959E-1,-7.659762E-2,-4.7932577E-1,-1.0409576E-1],"categories":[],"categories_nodes":[],"categories_segments":[],"categories_sizes":[],"default_left":[true,true,true,true,true,true,true,true,true,true,true,true,true,true,true,true,true,true,true,true,true,true,true,true,true,true,true,true,true,true,true,true,true,true,true,true,true,true,true,true,true,true,true,true,true,true,true,true,true,true,true,true,true,true,true,true,true,true,true,true,true,true,false,false,false,false,false,false,false,false,false,false,false,false,false,false,false,false,false,false,false,false,false,false,false,false,false,false,false,false,false,false,false,false,false,false,false,false,false,false,false,false,false,false,false,false,false,false,false,false,false,false,false,false,false,false,false,false,false,false,false,false,false,false,false],"id":6,"left_children":[1,3,5,7,9,11,13,15,17,19,21,23,25,27,29,31,33,35,37,39,41,43,45,47,49,51,53,55,57,59,61,63,65,67,69,71,73,75,77,79,81,83,85,87,89,91,93,95,97,99,101,103,105,107,109,111,113,115,117,119,121,123,-1,-1,-1,-1,-1,-1,-1,-1,-1,-1,-1,-1,-1,-1,-1,-1,-1,-1,-1,-1,-1,-1,-1,-1,-1,-1,-1,-1,-1,-1,-1,-1,-1,-1,-1,-1,-1,-1,-1,-1,-1,-1,-1,-1,-1,-1,-1,-1,-1,-1,-1,-1,-1,-1,-1,-1,-1,-1,-1,-1,-1,-1,-1],"loss_changes":[1.6836342E3,6.2638995E2,3.7317413E2,4.115857E1,1.5228769E2,1.12771095E2,1.12892334E2,1.6530273E1,5.725537E1,1.1191683E2,8.3397415E1,2.9956837E1,7.2789307E0,1.4969849E1,4.3590855E1,9.217724E0,8.641113E0,1.5310197E1,2.2327118E1,3.5118137E1,1.1135422E1,1.3849945E1,2.6257198E1,2.7935282E1,2.439802E1,4.9975433E0,8.917079E0,1.1630535E1,5.7005615E0,2.0136866E1,8.971479E0,4.9544444E0,3.4872675E0,1.1321043E1,6.499756E0,4.195478E0,5.514285E0,9.517456E0,2.0668968E1,2.156646E1,1.9790741E1,4.7084656E0,6.714422E0,1.777121E1,5.06205E0,4.697756E0,1.5595242E1,9.975877E-1,9.989216E0,8.603653E0,5.2932854E0,5.4344788E0,7.1549273E0,2.1360073E0,3.559466E0,4.1484694E0,5.482214E0,2.4871826E0,5.6541786E0,1.2623301E1,1.0246067E1,4.7034206E0,0E0,0E0,0E0,0E0,0E0,0E0,0E0,0E0,0E0,0E0,0E0,0E0,0E0,0E0,0E0,0E0,0E0,0E0,0E0,0E0,0E0,0E0,0E0,0E0,0E0,0E0,0E0,0E0,0E0,0E0,0E0,0E0,0E0,0E0,0E0,0E0,0E0,0E0,0E0,0E0,0E0,0E0,0E0,0E0,0E0,0E0,0E0,0E0,0E0,0E0,0E0,0E0,0E0,0E0,0E0,0E0,0E0,0E0,0E0,0E0,0E0,0E0,0E0],"parents":[2147483647,0,0,1,1,2,2,3,3,4,4,5,5,6,6,7,7,8,8,9,9,10,10,11,11,12,12,13,13,14,14,15,15,16,16,17,17,18,18,19,19,20,20,21,21,22,22,23,23,24,24,25,25,26,26,27,27,28,28,29,29,30,30,31,31,32,32,33,33,34,34,35,35,36,36,37,37,38,38,39,39,40,40,41,41,42,42,43,43,44,44,45,45,46,46,47,47,48,48,49,49,50,50,51,51,52,52,53,53,54,54,55,55,56,56,57,57,58,58,59,59,60,60,61,61],"right_children":[2,4,6,8,10,12,14,16,18,20,22,24,26,28,30,32,34,36,38,40,42,44,46,48,50,52,54,56,58,60,62,64,66,68,70,72,74,76,78,80,82,84,86,88,90,92,94,96,98,100,102,104,106,108,110,112,114,116,118,120,122,124,-1,-1,-1,-1,-1,-1,-1,-1,-1,-1,-1,-1,-1,-1,-1,-1,-1,-1,-1,-1,-1,-1,-1,-1,-1,-1,-1,-1,-1,-1,-1,-1,-1,-1,-1,-1,-1,-1,-1,-1,-1,-1,-1,-1,-1,-1,-1,-1,-1,-1,-1,-1,-1,-1,-1,-1,-1,-1,-1,-1,-1,-1,-1],"split_conditions":[1.6679889E2,4.465E-2,2.335E-2,3.335E-2,8.8025E-1,1.5155E-1,1.6784999E-1,9.6865E-1,6.153E-1,8.245E-2,1.2584999E-1,3.4500002E-3,1.512E-1,2.9150002E-2,7.355E-2,6.122E-1,-5.8849998E-2,1.26975204E2,8.9007E0,1.355955E1,1.334E-1,2.1945E-1,2.0495E-1,-4.395E-2,1.719175E1,1.04650006E-1,5.565E-2,4.782055E1,1.4855E-1,1.8445E-1,2.8904998E-1,4.62237E1,3.025E-2,1.7018E0,1.10253E1,6.565E-2,9.725E-2,1.4542E0,1.3894999E-1,4.5064998E-1,8.965E-2,1.00345E1,3.2157998E0,1.3353674E2,1.26E-1,8.880501E0,4.359555E1,2.795E-2,9.455E-2,1.031E-1,7.3025E-1,-3.88E-2,8.384E-1,2.5711475E2,9.9375E-1,1.402E-1,-2.31E-2,9.8325E-1,8.32E-2,6.865E-2,5.1719498E1,2.1225E-1,3.3993313E-1,-1.3956551E-1,1.8032715E-1,2.2990717E-1,-1.4802918E-1,-4.381398E-2,1.8101208E-1,2.33013E-1,1.9688502E-1,-5.2037504E-2,1.7732963E-1,-1.3329586E-1,1.249923E-2,-1.8845055E-1,2.0282294E-1,4.3067712E-4,1.6155918E-1,8.32612E-3,1.7969933E-1,-1.3597094E-1,6.707137E-3,-1.08555116E-1,-1.7981899E-1,2.2705638E-1,-9.649231E-2,1.8623905E-1,6.7681134E-2,2.7020198E-1,1.6239277E-1,2.4711354E-2,-1.7390129E-1,9.622243E-2,-6.732635E-2,-1.882162E-1,-2.468774E-2,2.5391707E-1,-4.80841E-2,7.1089596E-2,-6.8351455E-2,-1.5873034E-1,-4.9768697E-2,7.386089E-3,2.2955549E-1,-1.5203738E-1,1.6399014E-1,2.6380748E-1,-1.1421412E-3,1.2019571E-1,-1.4244828E-1,1.4973585E-1,-9.065377E-2,8.248559E-2,-1.3980263E-1,-1.828723E-1,-1.4917663E-1,-8.691436E-2,-1.8326814E-1,1.7743847E-1,-1.22630335E-1,1.9232877E-1,-2.2979287E-2,-1.4379774E-1,-3.1228729E-2],"split_indices":[7,25,25,20,22,18,18,9,32,30,30,20,13,20,25,22,26,7,1,11,18,33,33,26,11,24,24,8,18,33,28,8,20,6,2,29,16,6,18,27,18,2,1,7,16,2,8,19,29,29,22,16,22,7,4,18,16,22,20,19,8,18,0,0,0,0,0,0,0,0,0,0,0,0,0,0,0,0,0,0,0,0,0,0,0,0,0,0,0,0,0,0,0,0,0,0,0,0,0,0,0,0,0,0,0,0,0,0,0,0,0,0,0,0,0,0,0,0,0,0,0,0,0,0,0],"split_type":[0,0,0,0,0,0,0,0,0,0,0,0,0,0,0,0,0,0,0,0,0,0,0,0,0,0,0,0,0,0,0,0,0,0,0,0,0,0,0,0,0,0,0,0,0,0,0,0,0,0,0,0,0,0,0,0,0,0,0,0,0,0,0,0,0,0,0,0,0,0,0,0,0,0,0,0,0,0,0,0,0,0,0,0,0,0,0,0,0,0,0,0,0,0,0,0,0,0,0,0,0,0,0,0,0,0,0,0,0,0,0,0,0,0,0,0,0,0,0,0,0,0,0,0,0],"sum_hessian":[1.1234055E4,5.970674E3,5.2633813E3,3.4866155E3,2.4840583E3,8.343032E2,4.429078E3,2.359071E3,1.1275444E3,1.5259694E3,9.580889E2,4.9075787E2,3.4354532E2,4.036346E3,3.927322E2,4.5246742E1,2.3138245E3,1.4838333E2,9.7916113E2,7.18869E2,8.071004E2,6.337075E2,3.243814E2,9.7242E1,3.9351587E2,3.0534323E2,3.8202087E1,1.6192711E2,3.8744187E3,2.0266844E2,1.9006375E2,2.6434855E1,1.8811888E1,1.3532866E2,2.1784956E3,3.9725914E1,1.08657425E2,6.740509E2,3.0511017E2,2.6884116E2,4.5002783E2,5.5661584E2,2.5048456E2,4.6045105E2,1.7325645E2,1.12563995E2,2.1181743E2,2.402241E1,7.321959E1,1.6643124E2,2.2708463E2,2.680208E2,3.732242E1,1.7617586E1,2.0584503E1,2.9969496E1,1.3195761E2,3.6470903E3,2.273285E2,6.4539566E1,1.3812888E2,1.8706404E2,2.99971E0,2.1962736E1,4.4721193E0,1.6999273E1,1.812614E0,2.415476E1,1.11173904E2,1.4495457E3,7.2895E2,8.756671E0,3.0969242E1,7.523399E1,3.342343E1,4.906741E0,6.6914417E2,1.144285E2,1.9068169E2,1.16100624E2,1.5274052E2,1.177273E2,3.3230054E2,1.0985472E2,4.467611E2,4.9903836E0,2.4549417E2,2.114729E2,2.4897815E2,9.4774734E1,7.848172E1,1.1720143E1,1.0084386E2,1.2021078E2,9.160665E1,1.9616827E1,4.4055815E0,6.1871155E1,1.1348429E1,1.0276024E2,6.367101E1,1.7342857E2,5.3656055E1,1.0374144E1,2.5764667E2,7.2945457E0,3.0027872E1,1.4292114E1,3.325471E0,5.687938E0,1.4896565E1,2.1714487E1,8.255008E0,1.0225483E1,1.21732124E2,3.4061514E3,2.409388E2,1.2631932E2,1.0100919E2,1.5968874E1,4.8570694E1,1.14332085E2,2.3796791E1,1.4268448E2,4.4379566E1],"tree_param":{"num_deleted":"0","num_feature":"34","num_nodes":"125","size_leaf_vector":"0"}},{"base_weights":[6.9163535E-3,-3.6516267E-1,3.8565978E-1,-5.641368E-1,-2.1423244E-1,1.574173E-1,6.7898947E-1,-5.670648E-1,5.6458986E-1,-4.3249503E-1,-7.626005E-2,2.7421257E-1,-1.6169888E-1,2.3539843E-1,7.031661E-1,-6.054308E-1,-5.1717573E-1,-3.8104066E-1,8.127118E-1,-4.492822E-1,7.0265615E-1,-3.5862732E-1,1.3352658E-1,-6.097686E-2,4.4242147E-1,-3.734713E-1,6.0862906E-2,-2.4111321E-2,6.367457E-1,4.9485788E-1,7.492522E-1,-6.0807437E-1,-2.4343124E-1,-5.265708E-1,2.0939799E-1,2.7225447E-1,9.243311E-1,-5.411853E-1,-3.6132735E-1,-4.4785845E-1,8.39081E-1,-3.9459366E-1,3.3981553E-1,3.6378774E-1,-2.179226E-1,-4.271744E-1,2.5062773E-2,1.6735295E-2,5.2472115E-1,-4.6152645E-1,-3.723019E-2,2.5943202E-1,-3.323835E-1,2.6982537E-1,-3.8503706E-1,7.806439E-1,-3.961928E-1,5.3549904E-1,-5.6929266E-1,7.71662E-1,3.9128703E-1,-6.086284E-1,-9.588534E-2,-5.5567753E-1,3.3094206E-1,-5.3461534E-1,4.3310445E-2,1.0870595E0,-2.215512E-1,-5.4668194E-1,4.5618472E-1,-4.5601502E-1,-1.2616412E-1,1.0337288E0,6.189139E-2,-2.666795E-1,-5.446797E-1,8.073273E-1,-1.8577975E-1,2.8488576E-1,7.8054345E-1,-2.7047557E-1,3.9603272E-1,5.0218586E-2,-5.205917E-1,8.590904E-1,-1.862024E-2,-7.320129E-2,4.7703737E-1,5.4150426E-1,-4.834394E-1,-9.347065E-3,-4.9492604E-1,7.486383E-1,-1.7918235E-1,1.1735545E-1,6.7330444E-1,6.5107065E-1,-3.7781775E-1,-3.7387925E-1,5.987108E-1,6.9549006E-1,-4.5048478E-1,1.535247E-1,8.3292806E-1,-6.46625E-1,3.2641804E-1,8.2535005E-1,4.5193338E-1,-7.240978E-1,3.7782568E-1,3.4376267E-1,7.8006166E-1,1.932664E-1,7.666794E-1],"categories":[],"categories_nodes":[],"categories_segments":[],"categories_sizes":[],"default_left":[true,true,true,true,true,true,true,true,true,true,true,true,true,true,true,true,true,false,true,true,true,true,true,true,true,true,true,true,true,true,true,true,true,true,true,false,false,true,true,false,true,true,true,true,true,true,true,true,true,true,true,true,true,true,true,true,true,true,true,true,true,false,false,false,false,false,false,false,false,false,false,false,false,false,false,false,false,false,false,false,false,false,false,false,false,false,false,false,false,false,false,false,false,false,false,false,false,false,false,false,false,false,false,false,false,false,false,false,false,false,false,false,false,false,false],"id":7,"left_children":[1,3,5,7,9,11,13,15,17,19,21,23,25,27,29,31,33,-1,35,37,39,41,43,45,47,49,51,53,55,57,59,61,63,65,67,-1,-1,69,71,-1,73,75,77,79,81,83,85,87,89,91,93,95,97,99,101,103,105,107,109,111,113,-1,-1,-1,-1,-1,-1,-1,-1,-1,-1,-1,-1,-1,-1,-1,-1,-1,-1,-1,-1,-1,-1,-1,-1,-1,-1,-1,-1,-1,-1,-1,-1,-1,-1,-1,-1,-1,-1,-1,-1,-1,-1,-1,-1,-1,-1,-1,-1,-1,-1,-1,-1,-1,-1],"loss_changes":[1.607936E3,1.7272937E2,3.7845624E2,8.523315E0,9.857901E1,1.1861553E2,2.636792E1,4.4263916E0,1.9340818E0,2.4479874E1,1.1896815E2,1.31357E2,4.0227028E1,1.3490377E1,2.2148315E1,1.1858826E0,7.505005E0,0E0,9.8440886E-2,9.910156E0,3.3375187E0,2.1637398E1,9.334778E1,2.4561527E1,5.433188E1,1.2928467E1,3.2630257E1,8.541773E0,7.8661804E0,1.8810555E1,1.5090576E1,3.3410645E-1,2.2953231E0,4.9273376E0,5.741888E0,0E0,0E0,3.5900269E0,1.4234085E1,0E0,2.5406065E0,1.5492584E1,1.0583031E1,2.2686874E1,1.4847023E1,6.639925E0,2.3038044E1,1.0480788E1,2.2253906E1,5.227066E0,1.0378171E1,1.6238049E1,6.513812E0,9.6285925E0,2.867063E0,1.3463249E0,1.4560982E0,9.622498E0,2.6525211E0,6.218506E0,8.406027E0,0E0,0E0,0E0,0E0,0E0,0E0,0E0,0E0,0E0,0E0,0E0,0E0,0E0,0E0,0E0,0E0,0E0,0E0,0E0,0E0,0E0,0E0,0E0,0E0,0E0,0E0,0E0,0E0,0E0,0E0,0E0,0E0,0E0,0E0,0E0,0E0,0E0,0E0,0E0,0E0,0E0,0E0,0E0,0E0,0E0,0E0,0E0,0E0,0E0,0E0,0E0,0E0,0E0,0E0],"parents":[2147483647,0,0,1,1,2,2,3,3,4,4,5,5,6,6,7,7,8,8,9,9,10,10,11,11,12,12,13,13,14,14,15,15,16,16,18,18,19,19,20,20,21,21,22,22,23,23,24,24,25,25,26,26,27,27,28,28,29,29,30,30,31,31,32,32,33,33,34,34,37,37,38,38,40,40,41,41,42,42,43,43,44,44,45,45,46,46,47,47,48,48,49,49,50,50,51,51,52,52,53,53,54,54,55,55,56,56,57,57,58,58,59,59,60,60],"right_children":[2,4,6,8,10,12,14,16,18,20,22,24,26,28,30,32,34,-1,36,38,40,42,44,46,48,50,52,54,56,58,60,62,64,66,68,-1,-1,70,72,-1,74,76,78,80,82,84,86,88,90,92,94,96,98,100,102,104,106,108,110,112,114,-1,-1,-1,-1,-1,-1,-1,-1,-1,-1,-1,-1,-1,-1,-1,-1,-1,-1,-1,-1,-1,-1,-1,-1,-1,-1,-1,-1,-1,-1,-1,-1,-1,-1,-1,-1,-1,-1,-1,-1,-1,-1,-1,-1,-1,-1,-1,-1,-1,-1,-1,-1,-1,-1],"split_conditions":[1.2665E-1,7.625E-2,1.2395E-1,3.8756798E1,2.77475E0,9.8029995E-1,2.2687001E0,9.105E-2,1.3925001E-1,1.0795E-1,1.1015E-1,1.19E-1,1.2441099E1,1.546E-1,1.3444999E-1,1.4475E-1,1.0235E-1,-1.143122E-1,4.53E-2,2.11465E0,-1.055E-2,6.92365E0,8.414E-1,9.415E-2,8.10055E0,8.895E-2,1.8654999E-1,1.901E-1,2.466E-1,5E-5,2.4419999E-1,9.9091995E1,-1.385E-2,1.71888E1,4.2225E-1,8.167634E-2,2.7729934E-1,-3.4500002E-3,4.7799997E-2,-1.3435754E-1,-1.785E-2,1.85725E1,5.4185E-1,8.535E-2,8.7212E0,5.8417E0,5.0125E-1,1.1485E-1,4E-4,9.775E-2,9.8125E-1,9.8000005E-2,-1.11499995E-1,1.329E-1,-7.195E-2,6.8900004E-2,2.9299998E-1,3.295E-2,8.0675E-1,8.3299994E-2,1.392935E1,-1.8258852E-1,-2.8765602E-2,-1.6670327E-1,9.928262E-2,-1.6038461E-1,1.2993134E-2,3.2611787E-1,-6.646536E-2,-1.640046E-1,1.3685542E-1,-1.368045E-1,-3.784924E-2,3.1011868E-1,1.8567417E-2,-8.000385E-2,-1.6340391E-1,2.4219818E-1,-5.5733927E-2,8.546573E-2,2.3416305E-1,-8.114267E-2,1.1880982E-1,1.5065576E-2,-1.561775E-1,2.5772712E-1,-5.586072E-3,-2.1960389E-2,1.4311121E-1,1.6245128E-1,-1.4503182E-1,-2.8041196E-3,-1.4847782E-1,2.245915E-1,-5.3754706E-2,3.520664E-2,2.0199133E-1,1.953212E-1,-1.1334533E-1,-1.1216378E-1,1.7961323E-1,2.0864703E-1,-1.3514544E-1,4.605741E-2,2.4987842E-1,-1.939875E-1,9.792542E-2,2.4760503E-1,1.3558002E-1,-2.1722935E-1,1.1334771E-1,1.03128806E-1,2.340185E-1,5.7979923E-2,2.3000383E-1],"split_indices":[29,28,30,2,6,22,6,33,14,25,33,28,1,20,30,16,30,0,24,6,16,6,32,23,1,25,18,29,23,26,33,1,21,12,22,0,0,21,25,0,21,11,22,25,5,5,22,25,26,18,9,25,21,33,26,25,29,16,0,28,12,0,0,0,0,0,0,0,0,0,0,0,0,0,0,0,0,0,0,0,0,0,0,0,0,0,0,0,0,0,0,0,0,0,0,0,0,0,0,0,0,0,0,0,0,0,0,0,0,0,0,0,0,0,0],"split_type":[0,0,0,0,0,0,0,0,0,0,0,0,0,0,0,0,0,0,0,0,0,0,0,0,0,0,0,0,0,0,0,0,0,0,0,0,0,0,0,0,0,0,0,0,0,0,0,0,0,0,0,0,0,0,0,0,0,0,0,0,0,0,0,0,0,0,0,0,0,0,0,0,0,0,0,0,0,0,0,0,0,0,0,0,0,0,0,0,0,0,0,0,0,0,0,0,0,0,0,0,0,0,0,0,0,0,0,0,0,0,0,0,0,0,0],"sum_hessian":[1.1408075E4,5.754686E3,5.6533896E3,2.481086E3,3.2736E3,3.1803035E3,2.4730862E3,2.4751626E3,5.923215E0,1.2670624E3,2.0065376E3,2.3282966E3,8.5200684E2,1.2837656E2,2.3447097E3,1.3928734E3,1.0822892E3,1.1197972E0,4.8034177E0,1.2491929E3,1.7869476E1,8.5500885E2,1.1515288E3,7.782056E2,1.550091E3,4.362384E2,4.1576843E2,7.853562E1,4.984094E1,4.2689432E2,1.9178153E3,1.3821005E3,1.0772924E1,1.068745E3,1.3544284E1,1.4109201E0,3.3924975E0,6.083651E2,6.408278E2,1.6522977E0,1.6217178E1,8.135501E2,4.145874E1,6.956925E2,4.5583633E2,1.473019E2,6.3090375E2,2.5132785E2,1.2987631E3,3.4540958E2,9.0828804E1,2.764937E2,1.3927473E2,4.342382E1,3.51118E1,4.3961E1,5.8799386E0,4.11669E2,1.5225332E1,1.8037396E3,1.1407568E2,1.3804191E3,1.6814158E0,7.000044E0,3.7728806E0,1.0539293E3,1.4815618E1,3.9589982E0,9.585285E0,6.054801E2,2.8849924E0,4.5620096E2,1.8462686E2,1.27050905E1,3.5120878E0,4.4071655E2,3.7283356E2,2.1658075E1,1.9800667E1,5.863632E2,1.0932923E2,4.204098E2,3.542653E1,2.4182716E1,1.2311917E2,3.0470596E1,6.004331E2,2.109518E2,4.0376057E1,1.2779515E3,2.0811537E1,2.3846355E1,3.2156323E2,1.3242494E1,7.758631E1,2.0678938E2,6.970432E1,5.5615425E0,1.337132E2,1.4637686E1,2.8786135E1,1.4554806E0,3.3656322E1,3.6859891E0,4.027501E1,4.444709E0,1.4352294E0,9.01395E1,3.215295E2,1.32887745E1,1.9365582E0,3.5532745E1,1.7682069E3,7.567285E1,3.840283E1],"tree_param":{"num_deleted":"0","num_feature":"34","num_nodes":"115","size_leaf_vector":"0"}},{"base_weights":[2.5007208E-3,4.013934E-1,-3.3546397E-1,-2.1388574E-1,5.577631E-1,-4.666132E-2,-5.300048E-1,-4.5593292E-1,2.0248467E-1,6.7749447E-1,1.5404525E-2,-4.4806322E-1,3.0545345E-1,-3.5547498E-1,-5.7925993E-1,5.210602E-1,-5.1386166E-1,6.7641115E-1,-1.9832994E-1,1.6031546E-3,6.9686747E-1,1.3399164E-1,-4.715585E-1,2.5174397E-1,-5.0511414E-1,6.318579E-1,1.4875579E-1,-3.8657552E-1,4.509701E-1,-4.5194843E-1,-5.946443E-1,8.31937E-1,-5.9127265E-1,-2.0594281E-1,-5.57621E-1,-2.9623824E-1,7.050482E-1,-2.6641896E-1,1.0587097E0,6.652437E-1,-6.126061E-1,7.096542E-1,-3.2066116E-1,-5.4216015E-1,2.3158205E-1,-5.2522326E-1,6.766387E-1,4.2618424E-1,-5.2669483E-1,-2.997397E-1,-5.575665E-1,4.5641086E-1,8.0859923E-1,-6.7776695E-2,3.4710428E-1,3.556284E-1,-4.2071897E-1,1.220332E0,-5.2718836E-1,-5.0329095E-1,2.633087E-1,9.3854225E-1,-5.9581363E-1,1.0145864E0,-5.0266767E-1,-4.5465723E-1,9.1186863E-1,-5.963734E-1,-3.7921995E-1,3.9105487E-1,-7.1827567E-1,7.354057E-1,-1.3058881E-1,-5.343576E-1,-1.0270741E-1,7.7989924E-1,-4.8917407E-1,-6.7160946E-1,1.3223046E-2,7.8306276E-1,5.9042335E-1,2.439188E-1,-5.551681E-1,-5.8985263E-1,8.8073176E-1,5.0787705E-1,5.5960547E-3,-5.516067E-1,1.0365305E0,1.3820469E0,-5.1012313E-1,-1.23431906E-1,6.5669155E-1,3.4473857E-1,-6.323265E-1,-5.92102E-1,1.01077E-1,-1.6542868E-1,-5.796042E-1,5.4606295E-1,-1.7132163E-2,8.220333E-1,-4.8615402E-1,3.1949127E-1,-1.4746118E-1,5.4883623E-1,9.296992E-2,-9.2532255E-2,7.690901E-1,-5.463536E-1,-3.1585458E-1,1.4768223E0,3.643497E-1,1.0994723E-1,-5.9177023E-1,8.731947E-1,-5.126163E-1,1.3927402E0,-9.059197E-2,6.547616E-1,-5.969174E-1],"categories":[],"categories_nodes":[],"categories_segments":[],"categories_sizes":[],"default_left":[true,true,true,true,true,true,true,true,true,true,true,true,true,true,true,true,true,true,true,true,true,true,true,true,true,true,true,true,true,true,true,true,false,true,true,true,true,true,false,true,true,true,true,true,true,true,true,true,true,true,true,true,true,true,true,true,true,true,true,true,true,false,true,false,false,false,false,false,false,false,false,false,false,false,false,false,false,false,false,false,false,false,false,false,false,false,false,false,false,false,false,false,false,false,false,false,false,false,false,false,false,false,false,false,false,false,false,false,false,false,false,false,false,false,false,false,false,false,false,false,false],"id":8,"left_children":[1,3,5,7,9,11,13,15,17,19,21,23,25,27,29,31,33,35,37,39,41,43,45,47,49,51,53,55,57,59,61,63,-1,65,67,69,71,73,-1,75,77,79,81,83,85,87,89,91,93,95,97,99,101,103,105,107,109,111,113,115,117,-1,119,-1,-1,-1,-1,-1,-1,-1,-1,-1,-1,-1,-1,-1,-1,-1,-1,-1,-1,-1,-1,-1,-1,-1,-1,-1,-1,-1,-1,-1,-1,-1,-1,-1,-1,-1,-1,-1,-1,-1,-1,-1,-1,-1,-1,-1,-1,-1,-1,-1,-1,-1,-1,-1,-1,-1,-1,-1,-1],"loss_changes":[1.5158809E3,4.963117E2,3.4197247E2,1.0549179E2,2.6704504E2,3.465732E2,3.1059631E1,3.7715378E1,7.329744E1,4.4109863E1,4.3069134E1,4.5872375E1,6.671927E1,2.0316658E1,5.2838135E0,1.3470626E1,8.308426E0,5.1308975E0,1.8208853E1,3.9078255E1,4.283716E1,3.9694687E1,9.355465E0,1.20431E1,1.1248962E1,1.2760071E1,3.7986156E1,1.9759087E1,2.3432934E1,1.1509552E1,5.0880127E0,7.7619247E0,0E0,2.248099E1,3.5538635E0,1.9510947E0,4.4580765E0,8.695458E0,0E0,6.4806595E0,1.8474636E0,2.784851E1,5.607717E0,5.6724186E0,3.276049E1,6.344681E0,6.53069E0,9.159051E0,1.7258306E0,2.5577703E1,7.1891174E0,9.1274185E0,4.045822E0,1.3113454E1,2.360794E1,6.4776044E0,9.579773E0,3.2496643E0,6.423874E-1,4.1623993E0,8.682119E0,0E0,3.8757935E0,0E0,0E0,0E0,0E0,0E0,0E0,0E0,0E0,0E0,0E0,0E0,0E0,0E0,0E0,0E0,0E0,0E0,0E0,0E0,0E0,0E0,0E0,0E0,0E0,0E0,0E0,0E0,0E0,0E0,0E0,0E0,0E0,0E0,0E0,0E0,0E0,0E0,0E0,0E0,0E0,0E0,0E0,0E0,0E0,0E0,0E0,0E0,0E0,0E0,0E0,0E0,0E0,0E0,0E0,0E0,0E0,0E0,0E0],"parents":[2147483647,0,0,1,1,2,2,3,3,4,4,5,5,6,6,7,7,8,8,9,9,10,10,11,11,12,12,13,13,14,14,15,15,16,16,17,17,18,18,19,19,20,20,21,21,22,22,23,23,24,24,25,25,26,26,27,27,28,28,29,29,30,30,31,31,33,33,34,34,35,35,36,36,37,37,39,39,40,40,41,41,42,42,43,43,44,44,45,45,46,46,47,47,48,48,49,49,50,50,51,51,52,52,53,53,54,54,55,55,56,56,57,57,58,58,59,59,60,60,62,62],"right_children":[2,4,6,8,10,12,14,16,18,20,22,24,26,28,30,32,34,36,38,40,42,44,46,48,50,52,54,56,58,60,62,64,-1,66,68,70,72,74,-1,76,78,80,82,84,86,88,90,92,94,96,98,100,102,104,106,108,110,112,114,116,118,-1,120,-1,-1,-1,-1,-1,-1,-1,-1,-1,-1,-1,-1,-1,-1,-1,-1,-1,-1,-1,-1,-1,-1,-1,-1,-1,-1,-1,-1,-1,-1,-1,-1,-1,-1,-1,-1,-1,-1,-1,-1,-1,-1,-1,-1,-1,-1,-1,-1,-1,-1,-1,-1,-1,-1,-1,-1,-1,-1],"split_conditions":[2.7214998E-1,1.530425E1,1.2055E-1,4.165E-2,1.0665E-1,4.555E-2,1.3665E-1,-6.48E-2,9.495E-2,3.7E-3,1.2965E-1,7.2195E-1,8.7850004E-2,5.5E-4,3.1865E-1,6.32E-2,4.0349998E-2,1.3545E-1,3.95E-3,-3.175E-2,1.338E-1,2.885E-2,1.5605E-1,1.042E-1,1.1635E-1,1.577795E1,6.0545003E-1,6.4255E-1,1.096E-1,8.23E-1,5.519E-1,2.3297E0,-1.773818E-1,2.675E-2,4.5351496E0,1.2325E-1,2.6805001E-1,1.3934401E1,3.1761295E-1,5.2050002E-2,3.4500002E-3,7.7250004E-2,7.6373997E0,8.6715E-1,1.2045E-1,8.584E-1,3.7068E0,1.565E-2,5.431E-1,3.145E-2,1.7051E0,1.0095E-1,4.5265E-1,7.737E-1,8.847E-1,6.24E-1,5.945E-2,-5.6499997E-3,4.8729998E-1,2.6705E-1,1.16849996E-1,2.815627E-1,2.15245E0,3.0437595E-1,-1.508003E-1,-1.3639717E-1,2.735606E-1,-1.7891201E-1,-1.1376599E-1,1.1731646E-1,-2.1548271E-1,2.2062172E-1,-3.9176647E-2,-1.6030729E-1,-3.0812224E-2,2.3396978E-1,-1.4675222E-1,-2.0148285E-1,3.966914E-3,2.3491883E-1,1.77127E-1,7.317565E-2,-1.6655043E-1,-1.7695579E-1,2.6421955E-1,1.5236312E-1,1.6788165E-3,-1.6548201E-1,3.1095916E-1,4.146141E-1,-1.5303695E-1,-3.702957E-2,1.9700748E-1,1.0342158E-1,-1.8969795E-1,-1.776306E-1,3.0323101E-2,-4.9628608E-2,-1.7388126E-1,1.638189E-1,-5.139649E-3,2.4661E-1,-1.4584622E-1,9.584738E-2,-4.4238355E-2,1.6465087E-1,2.7890977E-2,-2.7759677E-2,2.3072705E-1,-1.6390608E-1,-9.475638E-2,4.430467E-1,1.0930491E-1,3.298417E-2,-1.7753108E-1,2.6195842E-1,-1.5378489E-1,4.178221E-1,-2.717759E-2,1.964285E-1,-1.7907523E-1],"split_indices":[15,11,23,20,23,20,23,26,23,20,30,3,23,26,14,24,28,15,26,26,30,25,18,28,18,11,22,3,25,0,22,6,0,30,5,14,15,11,0,29,20,23,5,0,28,0,6,25,22,20,6,30,14,3,3,0,20,31,27,3,28,0,1,0,0,0,0,0,0,0,0,0,0,0,0,0,0,0,0,0,0,0,0,0,0,0,0,0,0,0,0,0,0,0,0,0,0,0,0,0,0,0,0,0,0,0,0,0,0,0,0,0,0,0,0,0,0,0,0,0,0],"split_type":[0,0,0,0,0,0,0,0,0,0,0,0,0,0,0,0,0,0,0,0,0,0,0,0,0,0,0,0,0,0,0,0,0,0,0,0,0,0,0,0,0,0,0,0,0,0,0,0,0,0,0,0,0,0,0,0,0,0,0,0,0,0,0,0,0,0,0,0,0,0,0,0,0,0,0,0,0,0,0,0,0,0,0,0,0,0,0,0,0,0,0,0,0,0,0,0,0,0,0,0,0,0,0,0,0,0,0,0,0,0,0,0,0,0,0,0,0,0,0,0,0],"sum_hessian":[1.1242437E4,5.1563345E3,6.0861016E3,1.0448239E3,4.1115107E3,2.450093E3,3.6360088E3,6.606661E2,3.8415778E2,3.3677874E3,7.437234E2,1.1447896E3,1.3053035E3,8.020947E2,2.833914E3,3.6532623E1,6.241334E2,1.7570964E2,2.0844814E2,9.3870895E1,3.2739165E3,5.986602E2,1.450632E2,8.60354E1,1.0587542E3,4.2240106E2,8.8290247E2,7.728119E2,2.928284E1,3.088058E2,2.5251082E3,2.8749687E1,7.7829356E0,7.837103E1,5.457624E2,4.7580843E0,1.7095155E2,1.9848502E2,9.963114E0,4.50799E1,4.8791E1,3.2335842E3,4.0332237E1,7.493312E1,5.237271E2,1.3910428E2,5.958926E0,7.065488E1,1.53805275E1,2.1675945E2,8.419947E2,2.137745E2,2.0862656E2,4.224174E2,4.6048508E2,3.357384E1,7.3923804E2,1.625222E1,1.3030621E1,2.8840024E2,2.0405571E1,1.3134587E0,2.5237947E3,2.5499674E1,3.2500129E0,6.45924E1,1.3778627E1,4.4644302E2,9.931938E1,1.8381104E0,2.9199739E0,1.650746E2,5.876965E0,7.442055E1,1.24064476E2,4.130223E1,3.7776701E0,4.4520447E1,4.2705503E0,1.9979255E3,1.2356588E3,1.1824468E1,2.850777E1,7.3069435E1,1.8636855E0,2.3507379E2,2.8865332E2,1.3742943E2,1.6748581E0,3.634209E0,2.3247173E0,2.1014032E1,4.9640842E1,1.4180872E0,1.39624405E1,1.250608E2,9.169865E1,4.5253944E1,7.967407E2,1.7961609E2,3.415841E1,2.0684549E2,1.781071E0,7.1571106E1,3.5084628E2,2.5606274E2,2.0442233E2,1.6483355E1,1.7090487E1,3.343973E2,4.048407E2,1.1947057E1,4.3051643E0,1.1346114E0,1.1896009E1,1.317319E0,2.8708292E2,4.1681194E0,1.6237452E1,1.7032744E0,2.5220916E3],"tree_param":{"num_deleted":"0","num_feature":"34","num_nodes":"121","size_leaf_vector":"0"}},{"base_weights":[-5.647269E-3,2.9195765E-1,-3.735712E-1,5.199183E-1,-2.4482936E-2,1.6392508E-1,-4.848937E-1,6.166174E-1,3.9787227E-1,-2.3121165E-1,1.9098319E-1,-9.612023E-2,5.214595E-1,-5.311612E-1,6.180699E-2,-6.2125856E-1,6.2081736E-1,5.303267E-1,2.2280203E-1,4.7487665E-2,-4.1071218E-1,3.179901E-1,-2.4428023E-1,1.6029015E-1,-2.8610292E-1,5.585595E-1,3.036612E-2,-3.0122498E-1,-5.5212843E-1,4.7617897E-1,-1.2089912E-1,2.1039504E-1,6.304634E-1,-3.926872E-1,5.4566467E-1,-9.558617E-2,3.876452E-1,2.985628E-1,-8.0023125E-2,-2.2275114E-1,-5.006782E-1,1.06675275E-1,4.4588158E-1,-2.8941754E-1,9.210272E-1,2.9781896E-1,-2.168707E-1,9.869409E-2,-3.7146798E-1,-1.22934446E-1,5.8761203E-1,7.993155E-1,-2.0014833E-1,8.147582E-2,-4.95186E-1,-5.639713E-1,-3.7559187E-1,5.763481E-1,-5.302114E-2,-2.7751818E-1,2.6028132E-1,-3.1142598E-1,5.3177243E-1,6.612259E-1,4.9680296E-1,-8.1335324E-1,9.55186E-2,4.413444E-1,6.460727E-1,-4.1754013E-1,3.5367645E-2,4.6046627E-1,2.6063668E-2,-7.308279E-1,3.3803964E-1,-4.3976566E-1,-5.2080336E-3,-5.838259E-1,-5.8966946E-2,-5.964112E-1,-3.4098622E-1,4.6489692E-1,-8.781648E-2,5.967832E-1,3.2027915E-1,-5.798128E-2,-4.403445E-1,-7.273766E-2,1.0967699E0,4.5742445E-2,5.8280075E-1,3.367005E-1,-4.298485E-1,-5.287892E-1,4.1422275E-1,-4.637342E-1,-1.1567589E-1,-3.6988676E-1,5.7495725E-1,6.462575E-1,2.0549095E-1,4.5163444E-1,-4.216876E-1,1.9980372E-1,-5.91126E-1,-1.5486333E-1,-5.275325E-1,-5.6638926E-1,-1.5023164E-1,-5.19326E-1,-2.5882694E-1,7.893667E-2,7.020936E-1,-5.3603077E-1,5.535971E-1,-5.040403E-1,-6.475642E-2,7.454785E-2,6.944176E-1],"categories":[],"categories_nodes":[],"categories_segments":[],"categories_sizes":[],"default_left":[true,true,true,true,true,true,true,true,true,true,true,true,true,true,true,false,true,true,true,true,true,true,true,true,true,true,true,true,true,true,true,true,true,true,true,true,true,true,true,true,true,true,true,true,true,true,true,true,true,true,true,false,true,true,true,true,true,true,true,true,true,false,false,false,false,false,false,false,false,false,false,false,false,false,false,false,false,false,false,false,false,false,false,false,false,false,false,false,false,false,false,false,false,false,false,false,false,false,false,false,false,false,false,false,false,false,false,false,false,false,false,false,false,false,false,false,false,false,false],"id":9,"left_children":[1,3,5,7,9,11,13,15,17,19,21,23,25,27,29,-1,31,33,35,37,39,41,43,45,47,49,51,53,55,57,59,61,63,65,67,69,71,73,75,77,79,81,83,85,87,89,91,93,95,97,99,-1,101,103,105,107,109,111,113,115,117,-1,-1,-1,-1,-1,-1,-1,-1,-1,-1,-1,-1,-1,-1,-1,-1,-1,-1,-1,-1,-1,-1,-1,-1,-1,-1,-1,-1,-1,-1,-1,-1,-1,-1,-1,-1,-1,-1,-1,-1,-1,-1,-1,-1,-1,-1,-1,-1,-1,-1,-1,-1,-1,-1,-1,-1,-1,-1],"loss_changes":[1.1052222E3,4.025403E2,2.7015332E2,3.8034363E1,1.0416593E2,7.212258E1,9.461975E1,9.785095E0,3.3196716E1,5.9722225E1,6.3382526E1,2.1948338E1,5.9328537E0,1.645575E1,2.2215282E1,0E0,7.0024414E0,1.1782928E1,3.26044E1,1.5020249E1,1.2165176E1,2.3921371E1,1.3901843E1,1.0023519E1,8.531929E0,6.082596E0,4.4131913E0,2.1590443E1,6.3915405E0,4.7887096E0,1.2245799E1,7.357717E0,6.909729E0,2.9402633E0,8.138748E0,8.973056E0,1.0758343E1,6.666855E0,8.379882E0,1.3970104E1,7.290535E0,2.3429829E1,1.0275032E1,8.718344E0,1.8097963E0,1.011063E1,6.2614613E0,9.672378E0,4.9468155E0,2.4943757E0,6.395767E0,0E0,2.9715903E0,7.9581137E0,2.0408173E0,2.8739624E0,3.2483063E0,4.6705513E0,4.7509165E0,6.9562597E0,4.778161E0,0E0,0E0,0E0,0E0,0E0,0E0,0E0,0E0,0E0,0E0,0E0,0E0,0E0,0E0,0E0,0E0,0E0,0E0,0E0,0E0,0E0,0E0,0E0,0E0,0E0,0E0,0E0,0E0,0E0,0E0,0E0,0E0,0E0,0E0,0E0,0E0,0E0,0E0,0E0,0E0,0E0,0E0,0E0,0E0,0E0,0E0,0E0,0E0,0E0,0E0,0E0,0E0,0E0,0E0,0E0,0E0,0E0,0E0],"parents":[2147483647,0,0,1,1,2,2,3,3,4,4,5,5,6,6,7,7,8,8,9,9,10,10,11,11,12,12,13,13,14,14,16,16,17,17,18,18,19,19,20,20,21,21,22,22,23,23,24,24,25,25,26,26,27,27,28,28,29,29,30,30,31,31,32,32,33,33,34,34,35,35,36,36,37,37,38,38,39,39,40,40,41,41,42,42,43,43,44,44,45,45,46,46,47,47,48,48,49,49,50,50,52,52,53,53,54,54,55,55,56,56,57,57,58,58,59,59,60,60],"right_children":[2,4,6,8,10,12,14,16,18,20,22,24,26,28,30,-1,32,34,36,38,40,42,44,46,48,50,52,54,56,58,60,62,64,66,68,70,72,74,76,78,80,82,84,86,88,90,92,94,96,98,100,-1,102,104,106,108,110,112,114,116,118,-1,-1,-1,-1,-1,-1,-1,-1,-1,-1,-1,-1,-1,-1,-1,-1,-1,-1,-1,-1,-1,-1,-1,-1,-1,-1,-1,-1,-1,-1,-1,-1,-1,-1,-1,-1,-1,-1,-1,-1,-1,-1,-1,-1,-1,-1,-1,-1,-1,-1,-1,-1,-1,-1,-1,-1,-1,-1],"split_conditions":[1.6679889E2,4.465E-2,2.335E-2,1.5950002E-2,8.0635E-1,1.5134999E-1,1.773E-1,-5E-5,1.0553101E1,6.4500004E-2,1.3815E-1,7.11645E0,8.8863E0,3.5949998E-2,4.645E-2,-1.8637757E-1,-7.565E-2,9.7969997E-1,7.4695003E-1,1.35533E1,1.385125E1,1.3335E-1,2.9500002E-1,3.4685E-1,3.4500002E-3,2.4325E-1,3.3315E-1,1.69488E1,1.5215E-1,1.2785E-1,5.8045E-1,5.105E-2,7.635E-2,6.6129994E-1,7.458E-1,4.9440002E-1,1.1825E-1,2.40875E0,7.364E-1,1.1229999E-1,1.1585E-1,6.11325E0,7.0250005E-2,1.7315E-1,-4.925E-2,6.4325E-1,6.045E-2,-4.32E-2,7.3025E-1,5.48E-2,1.025E-1,2.3979466E-1,9.977E-1,6.755E-2,6.351E-1,1.31235E0,7.8405E-1,4.2595E-1,1.0952001E0,8.539E-1,2.625E-1,-9.34278E-2,1.5953174E-1,1.9836779E-1,1.490409E-1,-2.4400598E-1,2.865558E-2,1.3240333E-1,1.9382182E-1,-1.2526205E-1,1.0610294E-2,1.3813989E-1,7.8191E-3,-2.1924838E-1,1.01411894E-1,-1.3192971E-1,-1.5624102E-3,-1.7514777E-1,-1.7690085E-2,-1.7892337E-1,-1.0229587E-1,1.3946909E-1,-2.6344944E-2,1.7903498E-1,9.608375E-2,-1.7394384E-2,-1.3210335E-1,-2.1821298E-2,3.29031E-1,1.3722734E-2,1.7484023E-1,1.0101015E-1,-1.2895456E-1,-1.5863678E-1,1.24266826E-1,-1.3912027E-1,-3.4702767E-2,-1.10966034E-1,1.7248718E-1,1.9387726E-1,6.1647285E-2,1.3549034E-1,-1.2650628E-1,5.994112E-2,-1.7733781E-1,-4.6459E-2,-1.5825976E-1,-1.6991678E-1,-4.5069493E-2,-1.557978E-1,-7.764809E-2,2.3681004E-2,2.1062809E-1,-1.6080923E-1,1.6607913E-1,-1.512121E-1,-1.9426927E-2,2.2364356E-2,2.0832528E-1],"split_indices":[7,25,25,25,22,18,18,25,2,20,25,5,5,20,25,0,26,9,32,11,11,18,28,15,20,14,27,11,18,19,14,19,24,3,22,32,24,1,3,33,18,1,25,25,26,32,19,26,22,24,24,0,10,25,0,22,22,14,22,22,33,0,0,0,0,0,0,0,0,0,0,0,0,0,0,0,0,0,0,0,0,0,0,0,0,0,0,0,0,0,0,0,0,0,0,0,0,0,0,0,0,0,0,0,0,0,0,0,0,0,0,0,0,0,0,0,0,0,0],"split_type":[0,0,0,0,0,0,0,0,0,0,0,0,0,0,0,0,0,0,0,0,0,0,0,0,0,0,0,0,0,0,0,0,0,0,0,0,0,0,0,0,0,0,0,0,0,0,0,0,0,0,0,0,0,0,0,0,0,0,0,0,0,0,0,0,0,0,0,0,0,0,0,0,0,0,0,0,0,0,0,0,0,0,0,0,0,0,0,0,0,0,0,0,0,0,0,0,0,0,0,0,0,0,0,0,0,0,0,0,0,0,0,0,0,0,0,0,0,0,0],"sum_hessian":[1.0091729E4,5.5791187E3,4.51261E3,3.2425642E3,2.3365547E3,7.741798E2,3.7384302E3,1.8068868E3,1.4356774E3,1.1924178E3,1.1441368E3,4.4861795E2,3.255619E2,3.446758E3,2.9167218E2,5.6130977E0,1.8012737E3,8.161593E2,6.1951807E2,4.6741974E2,7.2499805E2,8.8590515E2,2.582317E2,1.909961E2,2.5762186E2,3.0256686E2,2.2995005E1,2.8931897E2,3.157439E3,8.876028E1,2.029119E2,4.188638E1,1.7593873E3,1.2938504E1,8.032208E2,2.1147755E2,4.080405E2,1.5697891E2,3.1044083E2,2.3580971E2,4.8918835E2,3.3470572E2,5.5119946E2,2.493259E2,8.905809E0,1.4011472E2,5.088139E1,4.6746807E1,2.1087505E2,1.2239106E1,2.9032776E2,4.7344184E0,1.8260588E1,9.750791E1,1.9181108E2,2.9568838E3,2.0055519E2,7.455846E1,1.4201823E1,1.4401224E2,5.8899666E1,1.5976414E1,2.5909964E1,1.4270084E3,3.3237894E2,6.592245E0,6.3462596E0,3.96582E2,4.0663885E2,6.051388E1,1.5096368E2,3.39411E2,6.862948E1,5.1509485E0,1.5182797E2,5.2606846E1,2.5783395E2,7.2785E1,1.630247E2,3.0413123E2,1.8505713E2,1.172888E2,2.1741692E2,2.4867923E2,3.0252023E2,9.896064E1,1.5036525E2,1.4263585E0,7.4794507E0,7.496554E1,6.514918E1,1.3975471E1,3.690592E1,1.5415176E1,3.133163E1,1.5437706E2,5.6497974E1,9.387343E0,2.8517623E0,2.5109941E2,3.922836E1,4.3687687E0,1.3891819E1,8.351791E1,1.3990002E1,1.7150948E1,1.7466013E2,2.9393367E3,1.7547096E1,8.835061E1,1.1220458E2,1.5373447E1,5.918501E1,7.971228E0,6.230595E0,6.9087494E1,7.492474E1,4.207201E1,1.6827656E1],"tree_param":{"num_deleted":"0","num_feature":"34","num_nodes":"119","size_leaf_vector":"0"}},{"base_weights":[7.580945E-3,-3.1905586E-1,3.094829E-1,-5.303828E-1,-1.97267E-1,1.5497313E-1,6.049051E-1,-5.3378254E-1,4.8248705E-1,-3.7134495E-1,-2.8667117E-2,-1.8511488E-1,2.2826067E-1,3.9731976E-1,6.542862E-1,-5.72505E-1,-4.7288677E-1,-4.2239544E-1,8.7292033E-1,-4.528217E-1,-1.5265882E-1,-2.455522E-1,1.6842274E-1,-2.521908E-1,3.4968656E-1,-3.0810794E-1,2.751587E-1,5.366916E-1,1.5552564E-1,6.5926534E-1,-1.5662098E-1,-5.7394177E-1,-4.6816625E-2,-4.8308825E-1,4.1804947E-3,-2.9287094E-1,-5.2033514E-1,1.7871961E-1,-3.4762684E-1,-3.2344073E-1,4.787035E-1,2.9841706E-1,-3.0541864E-1,8.782905E-3,-3.189399E-1,6.331584E-1,-1.7409155E-2,2.9545933E-1,-3.8811976E-1,3.316435E-1,-1.9659302E-1,2.7574527E-1,6.897758E-1,-2.0308565E-1,3.6882395E-1,6.6389996E-1,-2.1753858E-1,-7.140211E-1,5.753775E-1,-5.765013E-1,-2.5486782E-1,3.3940178E-1,-4.135506E-1,-5.299675E-1,-3.9964747E-1,9.3752855E-1,-4.3344492E-1,-4.6658662E-1,-1.5827876E-1,3.914499E-1,-5.2255803E-1,-3.6374542E-1,3.3270723E-1,-4.7688618E-1,-1.7225954E-1,-4.8218516E-1,-1.5709835E-1,-4.097843E-2,8.605381E-1,4.1837192E-1,5.456729E-2,-4.1132572E-1,6.6274926E-2,-3.254558E-1,3.8380355E-1,-4.9910536E-1,-2.2955298E-1,7.4525976E-1,-2.6242194E-1,-3.535276E-1,2.2309788E-1,-1.7502132E-1,6.63507E-1,1.2116684E0,-4.209752E-1,3.5471362E-1,-5.3275394E-1,5.7832625E-2,-3.3538285E-1,3.6988804E-1,-4.82468E-1,7.1048355E-1,1.5588091E-1,-2.9275918E-1,6.9128716E-1,4.5970187E-1,-4.353429E-1,-9.878699E-2,6.6879594E-1,-7.2155756E-1,4.4302893E-1],"categories":[],"categories_nodes":[],"categories_segments":[],"categories_sizes":[],"default_left":[true,true,true,true,true,true,true,true,true,true,true,true,true,true,true,true,true,false,false,true,true,true,true,true,true,true,true,true,true,true,true,true,true,true,true,true,true,true,true,true,true,true,true,true,true,true,true,true,true,true,true,true,true,true,true,true,true,false,false,false,false,false,false,false,false,false,false,false,false,false,false,false,false,false,false,false,false,false,false,false,false,false,false,false,false,false,false,false,false,false,false,false,false,false,false,false,false,false,false,false,false,false,false,false,false,false,false,false,false,false,false],"id":10,"left_children":[1,3,5,7,9,11,13,15,17,19,21,23,25,27,29,31,33,-1,-1,35,37,39,41,43,45,47,49,51,53,55,57,59,61,63,65,67,69,71,73,75,77,79,81,83,85,87,89,91,93,95,97,99,101,103,105,107,109,-1,-1,-1,-1,-1,-1,-1,-1,-1,-1,-1,-1,-1,-1,-1,-1,-1,-1,-1,-1,-1,-1,-1,-1,-1,-1,-1,-1,-1,-1,-1,-1,-1,-1,-1,-1,-1,-1,-1,-1,-1,-1,-1,-1,-1,-1,-1,-1,-1,-1,-1,-1,-1,-1],"loss_changes":[1.0234962E3,1.28203E2,2.4610529E2,6.5316772E0,9.285804E1,8.834409E1,1.872345E1,4.012512E0,2.70773E0,2.7668625E1,6.8797676E1,2.2639643E1,7.341443E1,1.1995132E1,6.137329E0,8.0822754E-1,3.4662628E0,0E0,0E0,1.2089874E1,2.7460712E1,4.3376858E1,5.203537E1,9.743576E0,7.3452244E0,1.1456999E1,7.151289E1,8.876076E0,1.0207229E1,6.1811523E0,4.461769E0,7.534485E-1,7.214184E-1,2.5142822E0,6.898356E0,7.8468647E0,1.8176575E0,1.3297878E1,5.9776115E0,1.8207565E1,1.4878244E1,1.93488E1,7.1932507E0,1.4522748E1,7.05698E0,4.190954E0,2.6401155E0,4.9747343E0,1.1432875E1,4.7948395E1,1.0165863E1,6.287335E0,1.4633255E0,4.2163424E0,6.29622E0,5.584961E0,3.1710365E0,0E0,0E0,0E0,0E0,0E0,0E0,0E0,0E0,0E0,0E0,0E0,0E0,0E0,0E0,0E0,0E0,0E0,0E0,0E0,0E0,0E0,0E0,0E0,0E0,0E0,0E0,0E0,0E0,0E0,0E0,0E0,0E0,0E0,0E0,0E0,0E0,0E0,0E0,0E0,0E0,0E0,0E0,0E0,0E0,0E0,0E0,0E0,0E0,0E0,0E0,0E0,0E0,0E0,0E0],"parents":[2147483647,0,0,1,1,2,2,3,3,4,4,5,5,6,6,7,7,8,8,9,9,10,10,11,11,12,12,13,13,14,14,15,15,16,16,19,19,20,20,21,21,22,22,23,23,24,24,25,25,26,26,27,27,28,28,29,29,30,30,31,31,32,32,33,33,34,34,35,35,36,36,37,37,38,38,39,39,40,40,41,41,42,42,43,43,44,44,45,45,46,46,47,47,48,48,49,49,50,50,51,51,52,52,53,53,54,54,55,55,56,56],"right_children":[2,4,6,8,10,12,14,16,18,20,22,24,26,28,30,32,34,-1,-1,36,38,40,42,44,46,48,50,52,54,56,58,60,62,64,66,68,70,72,74,76,78,80,82,84,86,88,90,92,94,96,98,100,102,104,106,108,110,-1,-1,-1,-1,-1,-1,-1,-1,-1,-1,-1,-1,-1,-1,-1,-1,-1,-1,-1,-1,-1,-1,-1,-1,-1,-1,-1,-1,-1,-1,-1,-1,-1,-1,-1,-1,-1,-1,-1,-1,-1,-1,-1,-1,-1,-1,-1,-1,-1,-1,-1,-1,-1,-1],"split_conditions":[1.2584999E-1,7.735E-2,1.3425E-1,3.696254E2,7.705E-2,5.6050003E-2,1.0357E1,6.545E-2,1.194E-1,9.685E-2,2.2935E-1,1.2459999E-1,9.765E-2,2.0465E-1,3.95E-3,9.5639404E1,7.2292E0,-1.2671864E-1,2.618761E-1,6.0545003E-1,7.3185E-1,6.6698503E0,1.6714999E-1,7.5365E-1,7.3515E-1,1.56094E1,2.0914999E-1,1.4245E-1,-4.725E-2,2.7775002E-1,1.7140001E-1,1.003E-1,8.392E-1,9.8645E-1,7.516E0,4.465E-2,9.9584997E-1,1.9697E0,2.38645E0,1.77E-1,-9.8E-3,5.5699997E-2,1.14800006E-1,1.3155001E-1,3.9488647E1,5.5150002E-2,1.412E-1,3.3287501E0,5.4355E-1,5E-5,-5.455E-2,1.2998449E1,5.8315E0,2.8899997E-1,2.7155E-1,8.1650004E-2,1.3890001E-1,-2.1420634E-1,1.7261326E-1,-1.729504E-1,-7.646035E-2,1.01820536E-1,-1.2406518E-1,-1.5899025E-1,-1.19894244E-1,2.8125858E-1,-1.3003348E-1,-1.39976E-1,-4.748363E-2,1.1743497E-1,-1.5676741E-1,-1.0912363E-1,9.981217E-2,-1.4306585E-1,-5.1677864E-2,-1.4465556E-1,-4.7129508E-2,-1.229353E-2,2.5816146E-1,1.2551159E-1,1.6370187E-2,-1.2339772E-1,1.9882478E-2,-9.763675E-2,1.1514107E-1,-1.4973162E-1,-6.8865895E-2,2.2357793E-1,-7.872658E-2,-1.06058285E-1,6.692936E-2,-5.25064E-2,1.9905211E-1,3.6350054E-1,-1.2629257E-1,1.0641409E-1,-1.5982619E-1,1.7349789E-2,-1.0061486E-1,1.10966414E-1,-1.447404E-1,2.1314508E-1,4.6764277E-2,-8.782776E-2,2.0738615E-1,1.3791056E-1,-1.3060288E-1,-2.9636098E-2,2.0063879E-1,-2.1646728E-1,1.3290869E-1],"split_indices":[29,23,30,7,13,13,1,23,15,24,15,25,23,33,21,1,6,0,0,22,22,6,18,22,27,11,18,20,21,23,20,25,0,9,6,13,10,6,6,15,16,20,13,23,8,13,25,6,0,26,21,2,5,25,33,23,20,0,0,0,0,0,0,0,0,0,0,0,0,0,0,0,0,0,0,0,0,0,0,0,0,0,0,0,0,0,0,0,0,0,0,0,0,0,0,0,0,0,0,0,0,0,0,0,0,0,0,0,0,0,0],"split_type":[0,0,0,0,0,0,0,0,0,0,0,0,0,0,0,0,0,0,0,0,0,0,0,0,0,0,0,0,0,0,0,0,0,0,0,0,0,0,0,0,0,0,0,0,0,0,0,0,0,0,0,0,0,0,0,0,0,0,0,0,0,0,0,0,0,0,0,0,0,0,0,0,0,0,0,0,0,0,0,0,0,0,0,0,0,0,0,0,0,0,0,0,0,0,0,0,0,0,0,0,0,0,0,0,0,0,0,0,0,0,0],"sum_hessian":[1.037699E4,4.984285E3,5.392705E3,1.821054E3,3.1632314E3,3.5418135E3,1.8508915E3,1.8154333E3,5.620542E0,1.5557402E3,1.6074912E3,6.2765924E2,2.9141543E3,3.574229E2,1.4934686E3,1.1046234E3,7.1081E2,1.6694651E0,3.9510772E0,1.1326674E3,4.2307288E2,7.651955E2,8.422958E2,5.5817957E2,6.947964E1,2.3386719E2,2.680287E3,2.2595892E2,1.3146397E2,1.4845402E3,8.928378E0,1.101521E3,3.10238E0,6.959161E2,1.4893943E1,3.377704E2,7.94897E2,1.5674452E2,2.6632834E2,6.9139435E2,7.380113E1,6.6125604E2,1.8103972E2,1.13864365E2,4.4431522E2,3.87963E1,3.0683332E1,2.7058592E1,2.068086E2,2.393947E3,2.8634012E2,8.4582085E1,1.4137685E2,4.9048412E1,8.2415565E1,1.476976E3,7.56424E0,5.0826306E0,3.8457477E0,1.091955E3,9.5660515E0,1.5473492E0,1.5550307E0,4.42152E2,2.5376404E2,4.3896294E0,1.0504314E1,1.4637727E2,1.9139313E2,1.507345E0,7.9338965E2,3.4355473E1,1.2238906E2,1.5232994E2,1.13998405E2,3.5280533E2,3.3858905E2,3.1636341E1,4.2164795E1,4.427448E2,2.1851122E2,1.408115E2,4.0228214E1,6.0275627E1,5.3588737E1,1.4582045E2,2.9849478E2,3.462951E1,4.1667905E0,1.26018305E1,1.8081503E1,1.2106779E1,1.4951813E1,3.4398088E0,2.0336879E2,2.3322896E3,6.1657387E1,1.0127286E2,1.8506728E2,7.569558E1,8.886507E0,1.3577971E2,5.597132E0,4.519013E1,3.8582852E0,7.4432396E1,7.983163E0,9.29844E0,1.4676775E3,4.2381573E0,3.3260825E0],"tree_param":{"num_deleted":"0","num_feature":"34","num_nodes":"111","size_leaf_vector":"0"}},{"base_weights":[-3.2940954E-3,2.9372713E-1,-4.3537912E-1,-8.233588E-2,4.9169E-1,-2.1468686E-1,-5.156526E-1,-4.4769394E-1,1.7954642E-1,5.8874524E-1,2.2546002E-1,-5.1685685E-1,-1.2682188E-1,-5.821288E-1,-4.8404306E-1,1.7670149E-2,-4.9722567E-1,3.701721E-1,-1.5241905E-2,6.557896E-1,4.655339E-1,2.9808697E-1,-5.48606E-1,3.7819332E-1,-5.443478E-1,1.128525E-1,-2.4183151E-1,-5.86097E-1,-3.2843974E-1,3.5370752E-1,-4.945627E-1,2.5254396E-1,-5.58866E-1,-2.3764911E-1,-5.372159E-1,4.0890965E-1,-3.474825E-1,-5.4545695E-1,7.1552075E-2,2.4661909E-1,6.825609E-1,5.145763E-1,-2.6919243E-1,1.0531765E-1,5.1454645E-1,-5.884615E-1,5.3042847E-1,-4.315283E-1,7.677763E-1,-7.927581E-2,-5.8587843E-1,-4.0683472E-1,2.8733566E-1,5.8956873E-2,-3.3366188E-1,-3.8968623E-1,-5.879125E-1,1.5148357E0,-5.58535E-1,1.0199556E0,-1.8509118E-1,-3.7030232E-1,-5.605029E-1,5.6213254E-1,-1.7974807E-1,3.8990286E-1,-6.281539E-1,-4.9073404E-1,8.725842E-1,-9.0629786E-2,-5.633962E-1,6.5537417E-1,2.7705494E-1,-6.384552E-1,3.562151E-1,2.6551342E-1,-6.0155034E-1,-3.4349895E-1,1.904366E-1,5.466001E-1,-4.9108413E-1,-2.0134614E-1,6.8716484E-1,2.1189623E-1,5.723585E-1,5.663823E-1,-4.388744E-1,2.6817074E-1,-1.6302724E-1,5.5295014E-1,-2.7660656E-1,3.3121636E-5,-6.184501E-1,1.2099936E0,-4.8698282E-1,-3.7208307E-1,-5.952428E-1,2.7007893E-1,-4.9884313E-1,1.6837813E-1,8.6927253E-1,5.386805E-1,-1.8098557E-1,-4.7209084E-1,-1.7612404E-1,6.6043824E-1,-5.5332303E-1,3.1582344E-1,1.3945858E0,-6.212138E-1,5.638367E-1,-4.142527E-1,6.81057E-2,8.8120157E-1,-5.647626E-1],"categories":[],"categories_nodes":[],"categories_segments":[],"categories_sizes":[],"default_left":[true,true,true,true,true,true,true,true,true,true,true,true,true,true,true,true,true,true,true,true,true,true,true,true,true,true,true,true,true,true,true,true,true,true,true,true,true,true,true,true,true,true,true,true,true,true,false,false,false,true,true,true,true,true,true,true,false,false,false,true,true,true,true,false,false,false,false,false,false,false,false,false,false,false,false,false,false,false,false,false,false,false,false,false,false,false,false,false,false,false,false,false,false,false,false,false,false,false,false,false,false,false,false,false,false,false,false,false,false,false,false,false,false,false,false],"id":11,"left_children":[1,3,5,7,9,11,13,15,17,19,21,23,25,27,29,31,33,35,37,39,41,43,45,47,49,51,53,55,57,59,61,63,65,67,69,71,73,75,77,79,81,83,85,87,89,91,-1,-1,-1,93,95,97,99,101,103,105,-1,-1,-1,107,109,111,113,-1,-1,-1,-1,-1,-1,-1,-1,-1,-1,-1,-1,-1,-1,-1,-1,-1,-1,-1,-1,-1,-1,-1,-1,-1,-1,-1,-1,-1,-1,-1,-1,-1,-1,-1,-1,-1,-1,-1,-1,-1,-1,-1,-1,-1,-1,-1,-1,-1,-1,-1,-1],"loss_changes":[1.2928923E3,4.4449664E2,7.259375E1,1.971603E2,1.0093341E2,2.9041859E1,6.040222E0,1.9838226E1,4.458202E1,2.336792E1,5.9000416E1,6.2748184E0,2.3475895E1,7.7856445E-1,1.8197083E1,1.1478129E1,7.9436646E0,1.7010406E1,2.740797E1,2.0134644E1,3.6651398E1,3.989743E1,4.188015E0,2.836E0,4.583435E0,2.5190777E1,1.5906193E1,1.0913086E-1,8.111876E0,9.501825E0,1.6344208E1,8.154541E0,1.8585019E0,3.0097456E1,7.8170013E0,1.8542015E1,6.7009087E0,3.9706688E0,2.5326633E1,2.5803339E1,7.215454E0,1.6498367E1,9.331529E0,2.2230616E1,1.3848412E1,1.5422668E0,0E0,0E0,0E0,1.15265255E1,2.1877289E-1,4.489374E0,1.4224981E1,1.5679733E1,9.52924E0,2.367887E0,0E0,0E0,0E0,2.6599827E0,5.3117194E0,1.3579018E1,8.590454E0,0E0,0E0,0E0,0E0,0E0,0E0,0E0,0E0,0E0,0E0,0E0,0E0,0E0,0E0,0E0,0E0,0E0,0E0,0E0,0E0,0E0,0E0,0E0,0E0,0E0,0E0,0E0,0E0,0E0,0E0,0E0,0E0,0E0,0E0,0E0,0E0,0E0,0E0,0E0,0E0,0E0,0E0,0E0,0E0,0E0,0E0,0E0,0E0,0E0,0E0,0E0,0E0],"parents":[2147483647,0,0,1,1,2,2,3,3,4,4,5,5,6,6,7,7,8,8,9,9,10,10,11,11,12,12,13,13,14,14,15,15,16,16,17,17,18,18,19,19,20,20,21,21,22,22,23,23,24,24,25,25,26,26,27,27,28,28,29,29,30,30,31,31,32,32,33,33,34,34,35,35,36,36,37,37,38,38,39,39,40,40,41,41,42,42,43,43,44,44,45,45,49,49,50,50,51,51,52,52,53,53,54,54,55,55,59,59,60,60,61,61,62,62],"right_children":[2,4,6,8,10,12,14,16,18,20,22,24,26,28,30,32,34,36,38,40,42,44,46,48,50,52,54,56,58,60,62,64,66,68,70,72,74,76,78,80,82,84,86,88,90,92,-1,-1,-1,94,96,98,100,102,104,106,-1,-1,-1,108,110,112,114,-1,-1,-1,-1,-1,-1,-1,-1,-1,-1,-1,-1,-1,-1,-1,-1,-1,-1,-1,-1,-1,-1,-1,-1,-1,-1,-1,-1,-1,-1,-1,-1,-1,-1,-1,-1,-1,-1,-1,-1,-1,-1,-1,-1,-1,-1,-1,-1,-1,-1,-1,-1],"split_conditions":[1.3545E-1,5.8305E0,1.5255001E-1,3.365E-2,1.00549996E-1,2.685E-2,3.765E-2,-5.11E-2,9.485E-2,7.715E-2,1.391E-1,9.5565E-1,1.2055E-1,7.6675E-1,5.3135E-1,1.0655E-1,4.0650003E-2,1.15899995E-1,5.3115E-1,2.115E-2,6.85865E0,7.6180005E-1,7.3805E-1,3.4235E-1,1.3655001E-1,4.245E-2,1.185E-1,-9.945E-2,6.9135E-1,2.9627E0,1.7335E-1,8.742E-1,7.8150004E-2,1.86E-2,9.9905E-1,8.624E-1,8.6449996E-2,1.9235001E0,4.465E-2,-2.8450001E-2,2.75E-3,3.605E-2,6.285E-2,8.6915E-1,6.92365E0,1.6843805E2,1.5912855E-1,-1.294585E-1,2.303329E-1,1.203195E1,6.904E-1,5.585E-2,-1E-4,9.9335E-1,7.4235E-1,6.1E-2,-1.7637375E-1,4.5445073E-1,-1.675605E-1,1.7135E-1,5.1345E-1,1.0346E0,3.785E-2,1.6863976E-1,-5.3924423E-2,1.1697086E-1,-1.8844618E-1,-1.4722022E-1,2.6177529E-1,-2.7188936E-2,-1.6901886E-1,1.9661225E-1,8.311649E-2,-1.9153658E-1,1.06864534E-1,7.965403E-2,-1.804651E-1,-1.0304969E-1,5.713098E-2,1.6398004E-1,-1.4732525E-1,-6.0403846E-2,2.0614946E-1,6.356887E-2,1.7170756E-1,1.699147E-1,-1.3166232E-1,8.045123E-2,-4.8908174E-2,1.6588505E-1,-8.2981974E-2,9.936492E-6,-1.8553504E-1,3.629981E-1,-1.4609486E-1,-1.1162493E-1,-1.7857285E-1,8.102368E-2,-1.4965294E-1,5.0513443E-2,2.6078176E-1,1.6160415E-1,-5.4295674E-2,-1.4162725E-1,-5.283721E-2,1.9813149E-1,-1.6599691E-1,9.474704E-2,4.1837576E-1,-1.8636414E-1,1.6915101E-1,-1.2427581E-1,2.043171E-2,2.643605E-1,-1.6942878E-1],"split_indices":[33,5,33,20,28,25,25,26,23,23,30,9,23,15,22,28,28,28,22,30,6,0,17,15,33,20,28,26,0,6,33,3,33,25,10,3,25,6,25,26,25,25,28,3,6,7,0,0,0,12,3,24,26,4,22,28,0,0,0,33,22,22,25,0,0,0,0,0,0,0,0,0,0,0,0,0,0,0,0,0,0,0,0,0,0,0,0,0,0,0,0,0,0,0,0,0,0,0,0,0,0,0,0,0,0,0,0,0,0,0,0,0,0,0,0],"split_type":[0,0,0,0,0,0,0,0,0,0,0,0,0,0,0,0,0,0,0,0,0,0,0,0,0,0,0,0,0,0,0,0,0,0,0,0,0,0,0,0,0,0,0,0,0,0,0,0,0,0,0,0,0,0,0,0,0,0,0,0,0,0,0,0,0,0,0,0,0,0,0,0,0,0,0,0,0,0,0,0,0,0,0,0,0,0,0,0,0,0,0,0,0,0,0,0,0,0,0,0,0,0,0,0,0,0,0,0,0,0,0,0,0,0,0],"sum_hessian":[1.007209E4,5.96914E3,4.102949E3,2.0587642E3,3.9103762E3,1.0953173E3,3.007632E3,8.592688E2,1.1994954E3,2.8647927E3,1.0455834E3,2.4564731E2,8.4967004E2,9.6363995E2,2.0439921E3,8.272144E1,7.7654736E2,6.0577014E2,5.937252E2,1.8524669E3,1.0123258E3,9.564584E2,8.912506E1,6.939936E0,2.3870737E2,2.755196E2,5.741504E2,9.4750885E2,1.613108E1,2.4943521E1,2.0190486E3,5.9175877E1,2.3545568E1,1.0459078E2,6.7195654E2,5.7515466E2,3.061546E1,8.2775314E1,5.109499E2,1.1438752E2,1.7380793E3,9.4926294E2,6.306286E1,5.0670007E2,4.4975827E2,8.638882E1,2.7362456E0,2.2193992E0,4.7205367E0,1.980738E1,2.189E2,6.89185E1,2.066011E2,1.343729E2,4.397775E2,1.0653067E1,9.368558E2,1.1705309E0,1.4960549E1,1.0753424E1,1.4190098E1,7.022729E2,1.3167756E3,3.4306625E1,2.4869253E1,1.2875595E0,2.2258009E1,8.5629074E1,1.8961714E1,3.7457954E1,6.344986E2,1.9907349E2,3.7608118E2,2.1725056E1,8.890406E0,5.1135E0,7.766181E1,1.1334593E2,3.9760397E2,8.150374E1,3.2883785E1,8.7846775E0,1.7292947E3,1.5291522E2,7.963477E2,1.0250049E1,5.2812813E1,3.1533206E2,1.91368E2,4.2922424E2,2.0534042E1,4.2371936E0,8.215163E1,4.2860475E0,1.5521334E1,1.0894932E1,2.0800505E2,8.015132E0,6.0903374E1,1.7260675E2,3.3994347E1,4.43859E1,8.9987E1,2.3302292E2,2.067546E2,1.0269172E0,9.626149E0,4.374467E0,6.378957E0,9.075624E0,5.114473E0,6.383349E2,6.3937946E1,3.2726643E0,1.313503E3],"tree_param":{"num_deleted":"0","num_feature":"34","num_nodes":"115","size_leaf_vector":"0"}},{"base_weights":[-4.108313E-3,2.3699267E-1,-3.5627842E-1,4.170059E-1,-7.281993E-2,1.2631714E-1,-4.598688E-1,5.125475E-1,2.7029184E-1,-3.0409548E-1,1.2314378E-1,-8.8827744E-2,4.2833605E-1,-5.139327E-1,-5.723528E-2,2.3661838E-1,5.3111213E-1,3.8332652E-2,3.8011137E-1,-1.4973126E-1,-4.6102172E-1,2.145202E-1,-1.8226518E-1,1.5090787E-1,-2.4433684E-1,4.5304716E-1,-1.9398102E-1,-5.2948177E-1,-2.938327E-1,1.6758363E-1,-2.5610057E-1,-7.674297E-2,4.0559277E-1,-6.312178E-1,5.3463864E-1,1.9477876E-1,-1.8360208E-1,-3.7468836E-1,4.0289116E-1,4.726527E-2,-3.4926072E-1,-1.2869772E-1,-5.1285905E-1,-5.9223115E-1,2.5532454E-1,-5.238389E-1,-2.2166114E-2,-4.4266766E-1,3.0005062E-1,-2.483933E-2,-4.0352753E-1,-9.400846E-2,4.808528E-1,-4.6769735E-1,5.743767E-1,-2.614526E-1,-5.390276E-1,1.5333077E-1,-4.240666E-1,-1.2179102E-1,3.638159E-1,-3.6079755E-1,3.5940418E-1,-4.4962952E-1,2.6390442E-1,6.8838227E-1,2.3595434E-1,5.590877E-1,3.965849E-1,3.719539E-1,1.1425859E-2,-8.4915996E-2,-5.018425E-1,-6.5825E-1,5.493475E-1,-2.535128E-1,4.2403072E-1,-4.2823043E-1,3.2496858E-1,5.6235063E-1,-3.7492E-1,-1.8879731E-1,1.0732912E0,-5.376552E-1,-1.7931315E-1,6.276952E-1,-6.5361387E-1,5.043859E-1,1.5557958E-1,1.4721385E-1,-5.555026E-1,2.5550047E-1,-3.6147815E-1,-5.1336336E-1,4.00384E-1,-6.138934E-1,3.7370467E-1,-3.1889868E-1,2.2716966E-1,-1.8601346E-1,