{"learner":{"attributes":{"best_iteration":"89","best_ntree_limit":"90","best_score":"0.246234","scikit_learn":"{\"use_label_encoder\": false, \"n_estimators\": 250, \"objective\": \"multi:softprob\", \"max_depth\": 6, \"learning_rate\": 0.3, \"verbosity\": null, \"booster\": \"gbtree\", \"tree_method\": null, \"gamma\": null, \"min_child_weight\": null, \"max_delta_step\": null, \"subsample\": 0.9, \"colsample_bytree\": 0.9, \"colsample_bylevel\": 0.9, \"colsample_bynode\": 0.9, \"reg_alpha\": null, \"reg_lambda\": null, \"scale_pos_weight\": null, \"base_score\": null, \"missing\": NaN, \"num_parallel_tree\": null, \"random_state\": null, \"n_jobs\": null, \"monotone_constraints\": null, \"interaction_constraints\": null, \"importance_type\": null, \"gpu_id\": null, \"validate_parameters\": null, \"predictor\": null, \"enable_categorical\": false, \"kwargs\": {\"num_class\": 3, \"eval_metric\": [\"merror\", \"mlogloss\"]}, \"classes_\": [0, 1, 2], \"n_classes_\": 3, \"evals_result_\": {\"validation_0\": {\"merror\": [0.120387, 0.113769, 0.112242, 0.109188, 0.10817, 0.106897, 0.10537, 0.100789, 0.102316, 0.101298, 0.097735, 0.09748, 0.09748, 0.095444, 0.094935, 0.093408, 0.092899, 0.091881, 0.092899, 0.090863, 0.090099, 0.091117, 0.090863, 0.090608, 0.090354, 0.091881, 0.090608, 0.090354, 0.090608, 0.090863, 0.090608, 0.090099, 0.089336, 0.08959, 0.088572, 0.088572, 0.087554, 0.088827, 0.088572, 0.089081, 0.08959, 0.088318, 0.088318, 0.088063, 0.089081, 0.089081, 0.089336, 0.090354, 0.088572, 0.088318, 0.088572, 0.087809, 0.087045, 0.086536, 0.086027, 0.086536, 0.0873, 0.088063, 0.088572, 0.088572, 0.088063, 0.0873, 0.087809, 0.087554, 0.087809, 0.088063, 0.089081, 0.089845, 0.089845, 0.090608, 0.090099, 0.089845, 0.090608, 0.090863, 0.090608, 0.090099, 0.08959, 0.08959, 0.08959, 0.089336, 0.08959, 0.090099, 0.089845, 0.089845, 0.090354, 0.090354, 0.090608, 0.090863, 0.090608, 0.090608, 0.091626, 0.090863, 0.091372, 0.090608, 0.091117, 0.091117, 0.091117, 0.091372, 0.091372, 0.090863, 0.091117, 0.091117, 0.091117, 0.090608, 0.090863, 0.089845, 0.090099, 0.089845, 0.090099, 0.089845, 0.089845, 0.08959, 0.089336, 0.08959, 0.088572, 0.088827, 0.089336, 0.08959, 0.089336, 0.08959, 0.089336, 0.089845, 0.089845, 0.08959, 0.089845, 0.089845, 0.089336, 0.089336, 0.088827, 0.088318, 0.088572, 0.088572, 0.088827, 0.088318, 0.088827, 0.089081, 0.08959, 0.089336, 0.089336, 0.089336], \"mlogloss\": [0.834395, 0.673838, 0.565952, 0.4926, 0.439065, 0.400152, 0.37114, 0.348861, 0.331682, 0.318457, 0.308051, 0.298909, 0.293004, 0.287146, 0.283529, 0.279275, 0.275968, 0.27368, 0.270655, 0.268339, 0.265658, 0.264015, 0.262551, 0.261256, 0.260531, 0.259258, 0.257708, 0.256985, 0.256796, 0.255879, 0.254601, 0.253958, 0.25326, 0.253041, 0.252509, 0.252253, 0.251834, 0.251124, 0.250633, 0.250351, 0.250467, 0.249792, 0.249539, 0.248922, 0.248977, 0.248921, 0.248482, 0.248023, 0.247986, 0.248299, 0.248262, 0.248154, 0.247623, 0.248197, 0.248189, 0.248034, 0.248495, 0.248546, 0.24879, 0.248688, 0.248956, 0.248782, 0.248493, 0.248039, 0.247958, 0.247581, 0.248109, 0.247791, 0.247624, 0.247231, 0.247242, 0.247061, 0.24722, 0.247009, 0.247029, 0.247193, 0.247411, 0.247071, 0.24722, 0.247181, 0.246993, 0.246998, 0.246926, 0.247074, 0.246337, 0.246772, 0.246843, 0.246756, 0.246485, 0.246234, 0.246466, 0.246366, 0.246702, 0.246594, 0.246818, 0.246949, 0.247258, 0.247638, 0.247899, 0.247875, 0.248096, 0.248185, 0.248105, 0.248177, 0.248135, 0.248243, 0.248271, 0.248152, 0.248203, 0.247516, 0.247254, 0.24696, 0.246949, 0.24725, 0.247116, 0.247259, 0.24762, 0.247833, 0.247944, 0.247721, 0.247875, 0.247309, 0.247239, 0.247299, 0.247822, 0.247938, 0.24783, 0.247853, 0.247674, 0.248008, 0.248486, 0.248502, 0.248909, 0.248748, 0.248562, 0.24891, 0.24937, 0.249421, 0.249408, 0.249464]}}, \"_estimator_type\": \"classifier\"}"},"feature_names":["Detection probability","Nucleus: Area µm^2","Nucleus: Length µm","Nucleus: Circularity","Nucleus: Solidity","Nucleus: Max diameter µm","Nucleus: Min diameter µm","Cell: Area µm^2","Cell: Length µm","Cell: Circularity","Cell: Solidity","Cell: Max diameter µm","Cell: Min diameter µm","Nucleus/Cell area ratio","Hematoxylin: Nucleus: Mean","Hematoxylin: Nucleus: Median","Hematoxylin: Nucleus: Min","Hematoxylin: Nucleus: Max","Hematoxylin: Nucleus: Std.Dev.","Hematoxylin: Cytoplasm: Mean","Hematoxylin: Cytoplasm: Median","Hematoxylin: Cytoplasm: Min","Hematoxylin: Cytoplasm: Max","Hematoxylin: Cytoplasm: Std.Dev.","Hematoxylin: Membrane: Mean","Hematoxylin: Membrane: Median","Hematoxylin: Membrane: Min","Hematoxylin: Membrane: Max","Hematoxylin: Membrane: Std.Dev.","Hematoxylin: Cell: Mean","Hematoxylin: Cell: Median","Hematoxylin: Cell: Min","Hematoxylin: Cell: Max","Hematoxylin: Cell: Std.Dev."],"feature_types":["float","float","float","float","float","float","float","float","float","float","float","float","float","float","float","float","float","float","float","float","float","float","float","float","float","float","float","float","float","float","float","float","float","float"],"gradient_booster":{"model":{"gbtree_model_param":{"num_trees":"420","size_leaf_vector":"0"},"tree_info":[0,1,2,0,1,2,0,1,2,0,1,2,0,1,2,0,1,2,0,1,2,0,1,2,0,1,2,0,1,2,0,1,2,0,1,2,0,1,2,0,1,2,0,1,2,0,1,2,0,1,2,0,1,2,0,1,2,0,1,2,0,1,2,0,1,2,0,1,2,0,1,2,0,1,2,0,1,2,0,1,2,0,1,2,0,1,2,0,1,2,0,1,2,0,1,2,0,1,2,0,1,2,0,1,2,0,1,2,0,1,2,0,1,2,0,1,2,0,1,2,0,1,2,0,1,2,0,1,2,0,1,2,0,1,2,0,1,2,0,1,2,0,1,2,0,1,2,0,1,2,0,1,2,0,1,2,0,1,2,0,1,2,0,1,2,0,1,2,0,1,2,0,1,2,0,1,2,0,1,2,0,1,2,0,1,2,0,1,2,0,1,2,0,1,2,0,1,2,0,1,2,0,1,2,0,1,2,0,1,2,0,1,2,0,1,2,0,1,2,0,1,2,0,1,2,0,1,2,0,1,2,0,1,2,0,1,2,0,1,2,0,1,2,0,1,2,0,1,2,0,1,2,0,1,2,0,1,2,0,1,2,0,1,2,0,1,2,0,1,2,0,1,2,0,1,2,0,1,2,0,1,2,0,1,2,0,1,2,0,1,2,0,1,2,0,1,2,0,1,2,0,1,2,0,1,2,0,1,2,0,1,2,0,1,2,0,1,2,0,1,2,0,1,2,0,1,2,0,1,2,0,1,2,0,1,2,0,1,2,0,1,2,0,1,2,0,1,2,0,1,2,0,1,2,0,1,2,0,1,2,0,1,2,0,1,2,0,1,2,0,1,2,0,1,2,0,1,2,0,1,2,0,1,2,0,1,2,0,1,2,0,1,2,0,1,2,0,1,2,0,1,2,0,1,2,0,1,2,0,1,2,0,1,2,0,1,2,0,1,2],"trees":[{"base_weights":[-5.386527E-3,7.058703E-1,-4.7240287E-1,1.1722009E0,-3.0089786E-2,5.5280215E-1,-5.909766E-1,1.2832458E0,7.252931E-1,-4.7868058E-1,3.837484E-1,8.6620957E-1,-3.1707323E-1,-6.4941144E-1,1.9104616E-1,7.572052E-1,1.312215E0,4.1131446E-1,1.1194783E0,1.2979588E-1,-5.850194E-1,6.789292E-1,-2.6100972E-1,5.2138674E-1,1.1282406E0,-4.9160516E-1,4.027397E-1,-2.1822305E-1,-6.8234164E-1,7.884914E-1,-3.203368E-1,1.0237812E0,1.9169286E-2,-6.1224496E-1,1.3162678E0,7.737656E-1,1.1225101E-1,1.3619047E0,9.535045E-1,5.136E-1,-2.660099E-1,-3.8482994E-1,-6.5323055E-1,3.8957343E-1,9.8908967E-1,-4.4224268E-1,2.5375167E-1,7.2958255E-1,-8.318895E-2,1.2969757E0,7.3220336E-1,1.1673148E-1,-6.14021E-1,6.896551E-1,-2.9203546E-1,2.0413715E-1,-5.7902104E-1,-5.3769565E-1,-7.19117E-1,9.5757574E-1,2.1854301E-1,-4.0744326E-1,6.0913706E-1,-2.3076928E-1,1.1159235E0,-3.668123E-1,9.677419E-1,1.3694042E0,1.1658292E0,-5.342466E-1,8.4222734E-1,-2.9074895E-1,3.898477E-1,1.3794212E0,-2.5544848E-8,1.1373439E0,6.5377855E-1,8.222222E-1,-5.2401792E-2,1.0344827E0,-3.2597628E-1,-5.3319067E-1,1.421446E-1,-4.7085208E-1,-6.788951E-1,7.4092525E-1,1.08535856E-1,1.0992546E0,2.5190836E-1,-1.7595353E-2,-5.2331614E-1,6.088019E-1,-1.8918924E-1,1.0716685E0,3.237971E-1,2.4137928E-1,-3.4153852E-1,1.3047382E0,-2.5544848E-8,-9.523814E-2,9.446808E-1,-2.6865676E-1,1.2923077E0,-6.6695285E-1,1.7647055E-1,9.5238096E-1,-3.973643E-8,7.241379E-1,-5.806452E-1,-3.7194133E-1,4.8905107E-1,-6.2322396E-1,2.654867E-1,-2.780639E-1,-6.360425E-1,-7.316393E-1,-5.8993787E-1,1.1030502E0,2.9893234E-1,-2.5751078E-1,6.943231E-1,-4.9582642E-1,1.7081846E-1,9.411765E-1,-4.5283023E-1],"categories":[],"categories_nodes":[],"categories_segments":[],"categories_sizes":[],"default_left":[true,true,true,true,true,true,true,true,true,true,true,true,true,true,true,true,true,true,true,true,true,true,true,true,true,true,true,true,true,true,true,true,true,false,true,true,true,true,true,true,true,true,true,true,true,true,true,true,true,true,true,true,true,true,true,true,true,true,true,true,true,true,true,false,false,false,false,false,false,false,false,false,false,false,false,false,false,false,false,false,false,false,false,false,false,false,false,false,false,false,false,false,false,false,false,false,false,false,false,false,false,false,false,false,false,false,false,false,false,false,false,false,false,false,false,false,false,false,false,false,false,false,false,false,false],"id":0,"left_children":[1,3,5,7,9,11,13,15,17,19,21,23,25,27,29,31,33,35,37,39,41,43,45,47,49,51,53,55,57,59,61,63,65,-1,67,69,71,73,75,77,79,81,83,85,87,89,91,93,95,97,99,101,103,105,107,109,111,113,115,117,119,121,123,-1,-1,-1,-1,-1,-1,-1,-1,-1,-1,-1,-1,-1,-1,-1,-1,-1,-1,-1,-1,-1,-1,-1,-1,-1,-1,-1,-1,-1,-1,-1,-1,-1,-1,-1,-1,-1,-1,-1,-1,-1,-1,-1,-1,-1,-1,-1,-1,-1,-1,-1,-1,-1,-1,-1,-1,-1,-1,-1,-1,-1,-1],"loss_changes":[4.090915E3,1.6753511E3,9.040619E2,1.4735938E2,3.5185532E2,2.105294E2,3.046565E2,3.5459717E1,7.3427704E1,5.8921265E1,1.8781175E2,5.066272E1,2.5952208E1,8.78999E1,1.4204933E2,2.5010406E1,1.847876E1,3.610533E1,9.328308E0,2.0813517E1,1.0322235E1,6.0333313E1,2.9063753E1,3.1122643E1,2.0530975E1,1.2392326E1,8.285818E0,6.7388466E1,3.0256104E1,2.0445892E1,2.0551958E1,1.1059441E1,1.3088221E1,0E0,1.6480957E1,1.395192E1,2.0710123E1,2.5048523E0,8.078781E0,1.2173691E1,5.6142583E0,1.56514435E1,2.3769379E0,3.4644226E1,2.6189056E1,7.905319E0,1.2923645E1,2.5148407E1,5.4582887E0,2.2562866E0,1.7378216E1,1.3284374E1,5.887268E0,5.2545156E0,4.10273E0,3.368322E1,9.062378E0,2.9740417E1,6.993164E0,1.5479889E1,1.157914E1,1.1833992E1,8.144543E0,0E0,0E0,0E0,0E0,0E0,0E0,0E0,0E0,0E0,0E0,0E0,0E0,0E0,0E0,0E0,0E0,0E0,0E0,0E0,0E0,0E0,0E0,0E0,0E0,0E0,0E0,0E0,0E0,0E0,0E0,0E0,0E0,0E0,0E0,0E0,0E0,0E0,0E0,0E0,0E0,0E0,0E0,0E0,0E0,0E0,0E0,0E0,0E0,0E0,0E0,0E0,0E0,0E0,0E0,0E0,0E0,0E0,0E0,0E0,0E0,0E0,0E0],"parents":[2147483647,0,0,1,1,2,2,3,3,4,4,5,5,6,6,7,7,8,8,9,9,10,10,11,11,12,12,13,13,14,14,15,15,16,16,17,17,18,18,19,19,20,20,21,21,22,22,23,23,24,24,25,25,26,26,27,27,28,28,29,29,30,30,31,31,32,32,34,34,35,35,36,36,37,37,38,38,39,39,40,40,41,41,42,42,43,43,44,44,45,45,46,46,47,47,48,48,49,49,50,50,51,51,52,52,53,53,54,54,55,55,56,56,57,57,58,58,59,59,60,60,61,61,62,62],"right_children":[2,4,6,8,10,12,14,16,18,20,22,24,26,28,30,32,34,36,38,40,42,44,46,48,50,52,54,56,58,60,62,64,66,-1,68,70,72,74,76,78,80,82,84,86,88,90,92,94,96,98,100,102,104,106,108,110,112,114,116,118,120,122,124,-1,-1,-1,-1,-1,-1,-1,-1,-1,-1,-1,-1,-1,-1,-1,-1,-1,-1,-1,-1,-1,-1,-1,-1,-1,-1,-1,-1,-1,-1,-1,-1,-1,-1,-1,-1,-1,-1,-1,-1,-1,-1,-1,-1,-1,-1,-1,-1,-1,-1,-1,-1,-1,-1,-1,-1,-1,-1,-1,-1,-1,-1],"split_conditions":[1.344505E1,6.565E-2,3.725E-2,4.445E-2,8.4985E-1,7.69495E0,9.948E-1,9.7855E-1,7.7845E-1,5.2100003E-2,1.223E-1,8.258E-1,8.264E-1,2.815E-2,6.5699995E-2,2.905E-2,-1E-4,4.145E-2,-2.835E-2,1.414055E1,7.595E-2,9.791E-1,1.10355E0,2.38E-2,8.54E-2,3.35E-3,7.885E-2,7.1355E0,1.755519E2,6.135E-2,6.8394995E-1,9.6555E-1,8.0735004E-1,-1.836735E-1,3.785E-2,6.2735E-1,5.3534997E-1,8.751E-1,6.685E-2,-1.895E-2,5.525E-2,7.3135E-1,3.18145E0,6.315E-2,1.4254999E-1,1.2793135E2,1.8515E-1,1.621885E1,1.7135559E2,1.27145E0,6.7565E-1,-2.64E-2,6.6929996E-1,9.5514E0,7.3400006E-2,6.9495E-1,1.0223E0,6.12E-2,9.5505E-1,2.070422E2,1.1574E0,1.3118501E0,9.9025E-1,-6.923079E-2,3.3477706E-1,-1.1004369E-1,2.9032257E-1,4.108213E-1,3.4974876E-1,-1.60274E-1,2.526682E-1,-8.722469E-2,1.1695431E-1,4.1382638E-1,-7.663455E-9,3.4120318E-1,1.9613357E-1,2.4666665E-1,-1.5720539E-2,3.1034482E-1,-9.7792886E-2,-1.599572E-1,4.2643383E-2,-1.4125563E-1,-2.0366855E-1,2.2227758E-1,3.256076E-2,3.297764E-1,7.557251E-2,-5.278606E-3,-1.5699485E-1,1.8264058E-1,-5.6756776E-2,3.2150057E-1,9.7139135E-2,7.241379E-2,-1.0246156E-1,3.9142147E-1,-7.663455E-9,-2.8571444E-2,2.8340426E-1,-8.059703E-2,3.8769233E-1,-2.0008586E-1,5.2941166E-2,2.857143E-1,-1.192093E-8,2.1724138E-1,-1.7419356E-1,-1.11582406E-1,1.4671533E-1,-1.869672E-1,7.9646006E-2,-8.3419174E-2,-1.9081275E-1,-2.1949181E-1,-1.7698136E-1,3.309151E-1,8.96797E-2,-7.725324E-2,2.0829694E-1,-1.4874794E-1,5.124554E-2,2.8235295E-1,-1.3584907E-1],"split_indices":[2,30,30,25,32,5,17,9,22,25,25,32,32,25,25,25,25,20,26,11,25,22,22,25,24,20,19,5,7,20,15,9,32,0,30,3,22,0,25,21,24,22,5,25,30,7,30,11,7,27,27,21,22,5,24,32,22,25,32,7,32,32,9,0,0,0,0,0,0,0,0,0,0,0,0,0,0,0,0,0,0,0,0,0,0,0,0,0,0,0,0,0,0,0,0,0,0,0,0,0,0,0,0,0,0,0,0,0,0,0,0,0,0,0,0,0,0,0,0,0,0,0,0,0,0],"split_type":[0,0,0,0,0,0,0,0,0,0,0,0,0,0,0,0,0,0,0,0,0,0,0,0,0,0,0,0,0,0,0,0,0,0,0,0,0,0,0,0,0,0,0,0,0,0,0,0,0,0,0,0,0,0,0,0,0,0,0,0,0,0,0,0,0,0,0,0,0,0,0,0,0,0,0,0,0,0,0,0,0,0,0,0,0,0,0,0,0,0,0,0,0,0,0,0,0,0,0,0,0,0,0,0,0,0,0,0,0,0,0,0,0,0,0,0,0,0,0,0,0,0,0,0,0],"sum_hessian":[1.2313777E4,4.8804443E3,7.433333E3,2.9871108E3,1.8933333E3,7.7022217E2,6.663111E3,2.391111E3,5.9599994E2,9.084444E2,9.8488885E2,5.6622217E2,2.0399998E2,6.1999995E3,4.6311108E2,1.2622221E2,2.2648887E3,3.3288885E2,2.6311108E2,1.351111E2,7.733333E2,6.7555554E2,3.093333E2,2.4577776E2,3.2044443E2,1.6444443E2,3.9555553E1,4.4044443E2,5.759555E3,2.1333331E2,2.4977776E2,9.244444E1,3.3777775E1,4.444444E0,2.2604443E3,1.4977777E2,1.831111E2,1.0399999E2,1.591111E2,6.844444E1,6.6666664E1,1.9822221E2,5.751111E2,3.5066666E2,3.2488885E2,2.2888887E2,8.044444E1,1.8266666E2,6.3111107E1,2.231111E2,9.733333E1,2.7555553E1,1.3688889E2,2.7999998E1,1.1555555E1,2.031111E2,2.3733331E2,1.1706666E3,4.5888887E3,1.6399998E2,4.9333332E1,2.2888887E2,2.0888887E1,6.222222E0,8.622221E1,2.4444443E1,9.333333E0,1.6644443E3,5.9599994E2,7.1111107E0,1.4266666E2,7.4666664E1,1.08444435E2,1.02666664E2,1.3333333E0,9.6888885E1,6.2222218E1,4.3999996E1,2.4444443E1,2.222222E0,6.444444E1,1.5466666E2,4.3555553E1,7.333333E1,5.0177774E2,1.551111E2,1.9555554E2,2.822222E2,4.2666664E1,3.6888885E1,1.9199998E2,4.4444443E1,3.5999996E1,9.822221E1,8.444444E1,2.7999998E1,3.511111E1,2.2177777E2,1.3333333E0,1.9999998E1,7.733333E1,2.1333332E1,6.222222E0,1.2844444E2,8.444444E0,1.9999998E1,7.9999995E0,2.222222E0,9.333333E0,6.711111E1,1.3599998E2,2.2577777E2,1.1555555E1,3.2266666E2,8.4799994E2,4.179111E3,4.0977774E2,1.3377777E2,3.0222221E1,2.4888887E1,2.4444443E1,1.9866666E2,3.0222221E1,1.5999999E1,4.8888884E0],"tree_param":{"num_deleted":"0","num_feature":"34","num_nodes":"125","size_leaf_vector":"0"}},{"base_weights":[-2.588832E-3,-4.6547824E-1,6.4546883E-1,-6.165055E-1,-2.056224E-1,3.4117398E-1,1.133618E0,-7.0391256E-1,-5.4856706E-1,-5.285227E-1,-1.0758151E-1,-1.4592628E-1,5.112622E-1,7.627118E-1,1.208353E0,-7.04887E-1,4.285714E-1,-6.864483E-1,-4.402589E-1,-3.551021E-1,-6.4088076E-1,-5.80472E-1,1.3098067E-1,1.9354835E-1,-4.8212853E-1,-3.6128312E-1,5.909114E-1,1.0083293E0,2.4257928E-1,5.0220263E-1,1.2416283E0,-7.1651155E-1,-6.155295E-1,-3.7286207E-1,-7.153772E-1,-5.578806E-1,-1.8434533E-1,-5.7155883E-1,-1.3965985E-1,-6.6255933E-1,-2.7804884E-1,-6.095857E-1,6.6206896E-1,2.8774926E-1,-4.16268E-1,4.843588E-2,7.862069E-1,-5.262253E-1,1.7427382E-1,-5.406539E-1,5.058978E-3,7.475969E-1,8.727228E-3,1.072679E0,2.1818179E-1,-2.53359E-1,7.9354835E-1,-4.40367E-1,6.712564E-1,1.256748E0,3.2365143E-1,-7.4471426E-1,-6.966961E-1,-6.31354E-1,7.241379E-1,-4.081637E-2,-6.943821E-1,-7.189571E-1,-3.092784E-1,-6.3978404E-1,-4.3185043E-1,1.115767E-1,-4.4025448E-1,-6.534654E-1,-1.6751274E-1,-4.652407E-1,1.8584067E-1,-6.778116E-1,-4.2253527E-1,1.3761464E-1,-6.8571436E-1,-7.043055E-1,-4.5677426E-1,-1.5789478E-1,1.0824742E0,5.62388E-1,-2.219238E-2,-4.3047836E-1,1.0344827E0,-3.5671824E-1,2.0737968E-1,9.502258E-2,1.0701754E0,-5.8506656E-1,-2.1238942E-1,-1.1602215E-1,9.1304344E-1,1.0344827E0,-5.754476E-1,-3.840831E-1,3.6421722E-1,7.8669983E-1,-5.7303375E-1,-2.9268298E-1,4.0066776E-1,7.6623374E-1,1.2414654E0,-6.1224496E-1,5.28E-1,-5.565612E-1,-2.9126259E-2,1.0619465E-1,9.889197E-1,-5.876289E-1,4.285714E-1,1.0944206E0,3.7815124E-1,1.12123E0,1.3333334E0,-6.31579E-1,5.9067357E-1],"categories":[],"categories_nodes":[],"categories_segments":[],"categories_sizes":[],"default_left":[true,true,true,true,true,true,true,true,true,true,true,true,true,true,true,true,false,true,true,true,true,true,true,true,true,true,true,true,true,true,true,true,true,true,true,true,true,true,true,true,true,true,true,true,true,true,true,true,true,true,true,true,true,true,true,true,true,true,true,true,true,false,false,false,false,false,false,false,false,false,false,false,false,false,false,false,false,false,false,false,false,false,false,false,false,false,false,false,false,false,false,false,false,false,false,false,false,false,false,false,false,false,false,false,false,false,false,false,false,false,false,false,false,false,false,false,false,false,false,false,false],"id":1,"left_children":[1,3,5,7,9,11,13,15,17,19,21,23,25,27,29,31,-1,33,35,37,39,41,43,45,47,49,51,53,55,57,59,61,63,65,67,69,71,73,75,77,79,81,83,85,87,89,91,93,95,97,99,101,103,105,107,109,111,113,115,117,119,-1,-1,-1,-1,-1,-1,-1,-1,-1,-1,-1,-1,-1,-1,-1,-1,-1,-1,-1,-1,-1,-1,-1,-1,-1,-1,-1,-1,-1,-1,-1,-1,-1,-1,-1,-1,-1,-1,-1,-1,-1,-1,-1,-1,-1,-1,-1,-1,-1,-1,-1,-1,-1,-1,-1,-1,-1,-1,-1,-1],"loss_changes":[3.708341E3,2.8287988E2,7.6471655E2,2.6693237E1,8.390215E1,2.6306818E2,5.3892334E1,2.4989624E0,3.8082336E1,1.1803467E1,2.2972728E2,9.394797E1,1.6374121E2,4.2467697E1,3.800879E1,1.6255493E0,0E0,9.97522E0,4.3312805E1,1.1345491E1,2.7531586E0,2.5103043E1,1.1627179E2,3.521324E1,1.205896E1,1.2977018E1,1.9671411E2,1.1296661E1,2.9863491E1,1.2352705E1,2.1376465E1,4.6154785E-1,5.462639E0,1.0374762E1,1.2787476E0,9.918701E0,3.4556374E1,3.9243279E0,1.323935E1,1.0010223E0,3.9540963E0,9.342285E0,5.7246923E0,8.9645935E1,6.668972E0,2.1346365E1,1.5709312E1,7.0345764E0,5.8487444E0,7.8599854E0,9.348757E0,8.8199524E1,5.4262417E1,9.882019E0,5.040089E0,3.9195302E0,6.833256E0,1.8015971E0,7.593071E0,1.4526123E1,7.2032022E0,0E0,0E0,0E0,0E0,0E0,0E0,0E0,0E0,0E0,0E0,0E0,0E0,0E0,0E0,0E0,0E0,0E0,0E0,0E0,0E0,0E0,0E0,0E0,0E0,0E0,0E0,0E0,0E0,0E0,0E0,0E0,0E0,0E0,0E0,0E0,0E0,0E0,0E0,0E0,0E0,0E0,0E0,0E0,0E0,0E0,0E0,0E0,0E0,0E0,0E0,0E0,0E0,0E0,0E0,0E0,0E0,0E0,0E0,0E0,0E0],"parents":[2147483647,0,0,1,1,2,2,3,3,4,4,5,5,6,6,7,7,8,8,9,9,10,10,11,11,12,12,13,13,14,14,15,15,17,17,18,18,19,19,20,20,21,21,22,22,23,23,24,24,25,25,26,26,27,27,28,28,29,29,30,30,31,31,32,32,33,33,34,34,35,35,36,36,37,37,38,38,39,39,40,40,41,41,42,42,43,43,44,44,45,45,46,46,47,47,48,48,49,49,50,50,51,51,52,52,53,53,54,54,55,55,56,56,57,57,58,58,59,59,60,60],"right_children":[2,4,6,8,10,12,14,16,18,20,22,24,26,28,30,32,-1,34,36,38,40,42,44,46,48,50,52,54,56,58,60,62,64,66,68,70,72,74,76,78,80,82,84,86,88,90,92,94,96,98,100,102,104,106,108,110,112,114,116,118,120,-1,-1,-1,-1,-1,-1,-1,-1,-1,-1,-1,-1,-1,-1,-1,-1,-1,-1,-1,-1,-1,-1,-1,-1,-1,-1,-1,-1,-1,-1,-1,-1,-1,-1,-1,-1,-1,-1,-1,-1,-1,-1,-1,-1,-1,-1,-1,-1,-1,-1,-1,-1,-1,-1,-1,-1,-1,-1,-1,-1],"split_conditions":[1.2924999E-1,1.0265E-1,1.3115E-1,7.685E-2,2.59205E0,9.16385E0,9.390949E0,7.4300006E-2,7.715E-2,8.0225E-1,8.675E-2,9.7730005E-1,9.85E-2,9.8945E-1,1.0385E-1,9.975E-2,1.2857142E-1,3.48E-2,8.935E-2,1.1085001E-1,1.891E-1,1.792235E1,9.5475E-1,1.15449995E-1,1.2445E-1,9.355E-2,1.09495E0,2.1364999E-1,1.4845E-1,1.3223749E1,2.656E-1,5.9550002E-2,6.26585E0,8.2280004E-1,2.4625E-1,5.415E-2,4.1100003E-2,7.161E-1,2.15795E0,1.25685E0,2.1035E-1,7.7250004E-2,1.7315E-1,6.305E-2,7.3175E0,8.62E0,1.20764E1,4.1866503E0,5.593E-1,5.4905E-1,2.7185E-1,1E-4,7.74E-2,1.485E-1,1.2825E-1,1.4590001E-1,3.21175E0,-3E-4,5.055E-2,1.5495E-1,7.3895E-1,-2.2341429E-1,-2.0900884E-1,-1.894062E-1,2.1724138E-1,-1.2244912E-2,-2.0831463E-1,-2.1568714E-1,-9.2783526E-2,-1.9193523E-1,-1.2955514E-1,3.347301E-2,-1.3207635E-1,-1.9603963E-1,-5.0253827E-2,-1.3957222E-1,5.5752203E-2,-2.033435E-1,-1.2676059E-1,4.1284394E-2,-2.0571432E-1,-2.1129167E-1,-1.3703229E-1,-4.7368433E-2,3.247423E-1,1.687164E-1,-6.657714E-3,-1.2914352E-1,3.1034482E-1,-1.07015476E-1,6.221391E-2,2.8506776E-2,3.2105264E-1,-1.7551997E-1,-6.371683E-2,-3.4806646E-2,2.7391306E-1,3.1034482E-1,-1.7263429E-1,-1.15224935E-1,1.0926517E-1,2.3600996E-1,-1.7191014E-1,-8.78049E-2,1.2020033E-1,2.2987013E-1,3.7243965E-1,-1.836735E-1,1.584E-1,-1.6696836E-1,-8.737878E-3,3.1858396E-2,2.9667592E-1,-1.7628868E-1,1.2857142E-1,3.2832617E-1,1.1344538E-1,3.36369E-1,4.0000004E-1,-1.894737E-1,1.7720208E-1],"split_indices":[29,29,30,29,6,1,1,19,23,32,23,32,23,22,23,16,0,20,13,23,16,12,32,25,25,23,32,33,25,12,33,23,5,17,13,13,20,0,6,22,16,23,14,20,6,2,12,5,15,0,15,26,30,30,16,30,5,21,16,30,0,0,0,0,0,0,0,0,0,0,0,0,0,0,0,0,0,0,0,0,0,0,0,0,0,0,0,0,0,0,0,0,0,0,0,0,0,0,0,0,0,0,0,0,0,0,0,0,0,0,0,0,0,0,0,0,0,0,0,0,0],"split_type":[0,0,0,0,0,0,0,0,0,0,0,0,0,0,0,0,0,0,0,0,0,0,0,0,0,0,0,0,0,0,0,0,0,0,0,0,0,0,0,0,0,0,0,0,0,0,0,0,0,0,0,0,0,0,0,0,0,0,0,0,0,0,0,0,0,0,0,0,0,0,0,0,0,0,0,0,0,0,0,0,0,0,0,0,0,0,0,0,0,0,0,0,0,0,0,0,0,0,0,0,0,0,0,0,0,0,0,0,0,0,0,0,0,0,0,0,0,0,0,0,0],"sum_hessian":[1.2359999E4,7.2102217E3,5.1497773E3,4.559111E3,2.6511108E3,3.1733333E3,1.9764443E3,1.9897777E3,2.5693333E3,6.164444E2,2.0346665E3,8.213333E2,2.3519998E3,3.333333E2,1.643111E3,1.9884443E3,1.3333333E0,1.1279999E3,1.4413333E3,2.4399998E2,3.7244443E2,6.817777E2,1.3528888E3,4.0888885E2,4.1244443E2,1.9644443E2,2.1555554E3,2.2577777E2,1.0755555E2,7.4666664E1,1.5684443E3,1.7533333E3,2.351111E2,9.6444435E1,1.0315555E3,9.866666E2,4.5466663E2,1.20888885E2,1.2311111E2,3.5066666E2,2.1777777E1,6.666666E2,1.5111111E1,1.0519999E3,3.008889E2,3.293333E2,7.955555E1,3.8666666E2,2.5777777E1,1.3155554E2,6.4888885E1,1.6982222E3,4.573333E2,2.0844443E2,1.7333332E1,5.6888885E1,5.0666664E1,1.1111111E1,6.3555553E1,1.5426666E3,2.5777777E1,7.084444E2,1.0448888E3,2.3288887E2,2.222222E0,4.7999996E1,4.8444443E1,1.0217777E3,9.777777E0,5.9555554E2,3.9111108E2,2.111111E2,2.4355554E2,9.999999E1,2.0888887E1,6.133333E1,6.1777775E1,3.2799997E2,2.2666666E1,1.1111111E1,1.0666666E1,4.093333E2,2.573333E2,5.333333E0,9.777777E0,5.573333E2,4.9466663E2,2.9866666E2,2.222222E0,9.244444E1,2.3688887E2,2.3555553E1,5.5999996E1,3.2488885E2,6.1777775E1,1.911111E1,6.666666E0,2.222222E0,1.2933333E2,3.1111109E1,3.3777775E1,1.6497777E3,4.8444443E1,2.5866666E2,1.9866666E2,7.599999E1,1.3244444E2,4.444444E0,1.2888888E1,2.3555553E1,3.3333332E1,1.1555555E1,3.9111107E1,9.777777E0,1.3333333E0,2.4888887E1,3.8666664E1,5.626666E2,9.7999994E2,5.333333E0,2.0444443E1],"tree_param":{"num_deleted":"0","num_feature":"34","num_nodes":"121","size_leaf_vector":"0"}},{"base_weights":[-4.4699853E-8,7.823411E-1,-4.6815306E-1,-2.007672E-1,1.1946775E0,-1.4300835E-1,-5.900996E-1,-5.8032465E-1,8.723869E-1,3.3089384E-1,1.2548273E0,-6.0586E-1,7.436471E-2,-6.954104E-1,-5.2388805E-1,-2.7741129E-2,-6.3003975E-1,1.2216216E0,4.9193025E-1,7.562264E-1,-6.180905E-1,1.3972365E0,9.297446E-1,-6.741617E-3,-6.5245324E-1,4.344627E-1,-1.6686119E-1,8.571428E-1,-6.967683E-1,-3.7835264E-1,-6.0987407E-1,9.767442E-1,-2.3076928E-1,6.0606018E-2,-6.549059E-1,-5.853659E-1,1.2602572E0,1.0427808E0,1.7753255E-1,-8.41122E-2,1.0157946E0,4.137931E-1,-6.60312E-1,1.4044278E0,-2.6966298E-1,9.876714E-1,-2.3940155E-1,-2.9126218E-1,5.9999996E-1,8.571428E-1,-6.570714E-1,-3.4955192E-1,5.729569E-1,-4.9582597E-2,-5.375068E-1,-7.3513615E-1,-6.4192635E-1,-8.3562225E-2,-4.616413E-1,-6.823396E-1,-5.375883E-1,1.221239E0,-4.8000002E-1,-5.2019006E-1,3.1999996E-1,4.7208118E-1,-6.8807346E-1,-7.107233E-1,-3.363562E-1,1.4032754E0,1.0330827E0,1.1090573E0,-5.172414E-1,-1.9108325E-2,8.687783E-1,9.0566033E-1,-2.7075818E-1,1.1737629E0,5.882349E-2,4.285714E-1,-6.9026554E-1,1.4155754E0,1.823204E-1,9.6E-1,-6.575343E-1,1.0403515E0,8.685964E-2,6.8852454E-1,-3.954155E-1,8.875736E-2,-7.04698E-1,8.677686E-1,-5.4545456E-1,-6.99718E-1,-4.5317227E-1,4.2148757E-1,-4.84305E-1,1.6008494E-2,7.220779E-1,-3.667634E-1,1.7142853E-1,4.9586773E-1,-6.06548E-1,-5.3684217E-1,-7.396408E-1,1.1707317E0,-6.5046734E-1,-2.3642485E-1,5.849056E-1,-4.0827167E-1,-6.677578E-1,-6.87324E-1,-1.485149E-1,-7.284201E-1,-4.8853305E-1],"categories":[],"categories_nodes":[],"categories_segments":[],"categories_sizes":[],"default_left":[true,true,true,true,true,true,true,true,true,true,true,true,true,true,true,true,true,true,true,true,true,true,true,true,true,true,true,false,true,true,true,true,true,true,true,false,true,true,true,true,true,false,true,true,true,true,true,true,true,false,true,true,true,true,true,true,true,true,true,true,true,false,false,false,false,false,false,false,false,false,false,false,false,false,false,false,false,false,false,false,false,false,false,false,false,false,false,false,false,false,false,false,false,false,false,false,false,false,false,false,false,false,false,false,false,false,false,false,false,false,false,false,false,false,false],"id":2,"left_children":[1,3,5,7,9,11,13,15,17,19,21,23,25,27,29,31,33,35,37,39,41,43,45,47,49,51,53,-1,55,57,59,61,63,65,67,-1,69,71,73,75,77,-1,79,81,83,85,87,89,91,-1,93,95,97,99,101,103,105,107,109,111,113,-1,-1,-1,-1,-1,-1,-1,-1,-1,-1,-1,-1,-1,-1,-1,-1,-1,-1,-1,-1,-1,-1,-1,-1,-1,-1,-1,-1,-1,-1,-1,-1,-1,-1,-1,-1,-1,-1,-1,-1,-1,-1,-1,-1,-1,-1,-1,-1,-1,-1,-1,-1,-1,-1],"loss_changes":[4.504697E3,1.8667944E3,3.050155E2,5.5505475E2,1.681372E2,2.1134033E2,3.8653076E1,2.7628235E1,4.6715027E1,8.626205E1,1.3909229E2,1.8732666E1,1.2427974E2,5.1446533E0,4.2813354E1,1.737892E1,1.5894836E1,1.365332E1,2.9622128E1,3.219832E1,3.1632214E0,2.56333E1,6.300232E1,8.710375E0,4.9049683E0,6.2513992E1,3.7226105E1,0E0,4.063965E0,3.1391617E1,1.0950623E1,5.691244E0,1.1448727E1,1.0490906E1,1.5607391E1,0E0,4.4454346E0,7.018471E0,1.507431E1,6.8341703E0,1.6946098E1,0E0,2.3868694E0,2.8322754E1,5.3477483E0,4.1822876E1,6.7225356E0,5.4567842E0,5.414876E0,0E0,5.0867615E0,9.220334E0,4.052739E1,4.5776176E1,1.4990002E1,7.296753E-1,1.4621307E1,2.9078993E1,1.0704498E1,2.75885E0,9.813629E0,0E0,0E0,0E0,0E0,0E0,0E0,0E0,0E0,0E0,0E0,0E0,0E0,0E0,0E0,0E0,0E0,0E0,0E0,0E0,0E0,0E0,0E0,0E0,0E0,0E0,0E0,0E0,0E0,0E0,0E0,0E0,0E0,0E0,0E0,0E0,0E0,0E0,0E0,0E0,0E0,0E0,0E0,0E0,0E0,0E0,0E0,0E0,0E0,0E0,0E0,0E0,0E0,0E0,0E0],"parents":[2147483647,0,0,1,1,2,2,3,3,4,4,5,5,6,6,7,7,8,8,9,9,10,10,11,11,12,12,13,13,14,14,15,15,16,16,17,17,18,18,19,19,20,20,21,21,22,22,23,23,24,24,25,25,26,26,28,28,29,29,30,30,31,31,32,32,33,33,34,34,36,36,37,37,38,38,39,39,40,40,42,42,43,43,44,44,45,45,46,46,47,47,48,48,50,50,51,51,52,52,53,53,54,54,55,55,56,56,57,57,58,58,59,59,60,60],"right_children":[2,4,6,8,10,12,14,16,18,20,22,24,26,28,30,32,34,36,38,40,42,44,46,48,50,52,54,-1,56,58,60,62,64,66,68,-1,70,72,74,76,78,-1,80,82,84,86,88,90,92,-1,94,96,98,100,102,104,106,108,110,112,114,-1,-1,-1,-1,-1,-1,-1,-1,-1,-1,-1,-1,-1,-1,-1,-1,-1,-1,-1,-1,-1,-1,-1,-1,-1,-1,-1,-1,-1,-1,-1,-1,-1,-1,-1,-1,-1,-1,-1,-1,-1,-1,-1,-1,-1,-1,-1,-1,-1,-1,-1,-1,-1,-1],"split_conditions":[1.1565E-1,5.10645E0,1.4205E-1,4.885E-2,1.8649999E-2,4.015E-2,5.2050002E-2,9.827E-1,9.67E-2,-3.5099998E-2,9.805E-2,9.6975E-1,1.08899996E-1,9.1455E-1,1.6975E-1,1.1573E1,-6.48E-2,4.885E-2,8.5635E-1,6.3065996E0,1.337E-1,1.95411E1,1.338E-1,3.3095E-1,1.134005E1,3.44E-2,1.1785E-1,2.5714284E-1,2.885E-2,1.2275E-1,5.2581997E0,-1.93E-2,2.285E-2,9.0174997E-1,3.285E-2,-1.7560977E-1,1.2241E1,1.3175E-1,7.2015E-1,8.34915E0,-2.58E-2,1.2413793E-1,1.219075E1,1.338E-1,-1.25E-2,1.707515E1,6.15425E0,2.272705E1,1.035E-1,2.5714284E-1,5.6948004E0,7.255E-2,6.2979996E-1,5.7621E0,5.49345E0,1.4344999E-1,1.77E-1,9.8995E-1,1.4835E-1,3.5E-1,-6.5799996E-2,3.663717E-1,-1.4400001E-1,-1.5605703E-1,9.599999E-2,1.4162436E-1,-2.0642205E-1,-2.1321699E-1,-1.00906864E-1,4.2098263E-1,3.0992484E-1,3.327172E-1,-1.5517244E-1,-5.7324977E-3,2.606335E-1,2.7169812E-1,-8.122746E-2,3.521289E-1,1.7647047E-2,1.2857142E-1,-2.0707966E-1,4.2467263E-1,5.4696124E-2,2.8800002E-1,-1.972603E-1,3.1210548E-1,2.6057893E-2,2.0655738E-1,-1.1862466E-1,2.6627209E-2,-2.1140942E-1,2.603306E-1,-1.6363637E-1,-2.0991541E-1,-1.3595168E-1,1.2644628E-1,-1.452915E-1,4.8025483E-3,2.1662338E-1,-1.1002903E-1,5.142856E-2,1.4876032E-1,-1.8196441E-1,-1.6105266E-1,-2.2189224E-1,3.512195E-1,-1.9514021E-1,-7.0927456E-2,1.754717E-1,-1.224815E-1,-2.0032735E-1,-2.061972E-1,-4.4554472E-2,-2.1852604E-1,-1.4655992E-1],"split_indices":[33,5,33,20,20,20,20,9,33,31,33,9,28,9,33,12,26,24,3,5,27,12,25,14,12,25,20,0,25,28,5,26,20,3,20,0,12,30,32,1,26,0,2,30,16,12,5,2,28,0,5,19,32,5,1,33,27,32,20,16,21,0,0,0,0,0,0,0,0,0,0,0,0,0,0,0,0,0,0,0,0,0,0,0,0,0,0,0,0,0,0,0,0,0,0,0,0,0,0,0,0,0,0,0,0,0,0,0,0,0,0,0,0,0,0],"split_type":[0,0,0,0,0,0,0,0,0,0,0,0,0,0,0,0,0,0,0,0,0,0,0,0,0,0,0,0,0,0,0,0,0,0,0,0,0,0,0,0,0,0,0,0,0,0,0,0,0,0,0,0,0,0,0,0,0,0,0,0,0,0,0,0,0,0,0,0,0,0,0,0,0,0,0,0,0,0,0,0,0,0,0,0,0,0,0,0,0,0,0,0,0,0,0,0,0,0,0,0,0,0,0,0,0,0,0,0,0,0,0,0,0,0,0],"sum_hessian":[1.2297333E4,4.603555E3,7.6937773E3,1.3604443E3,3.2431108E3,2.099111E3,5.5946665E3,1.00533325E3,3.5511108E2,2.1155554E2,3.0315554E3,6.7022217E2,1.4288888E3,2.1559998E3,3.4386665E3,8.311111E1,9.2222217E2,1.8399998E2,1.711111E2,1.4622221E2,6.533333E1,2.1057776E3,9.257777E2,4.8444443E1,6.217778E2,5.7288885E2,8.5599994E2,1.3333333E0,2.1546665E3,1.2791111E3,2.1595554E3,1.3333332E1,6.977777E1,3.1999998E1,8.9022217E2,3.5555553E0,1.8044443E2,6.133333E1,1.0977777E2,3.4666664E1,1.1155555E2,2.222222E0,6.3111107E1,2.0968887E3,8.888888E0,8.8222217E2,4.3555553E1,3.3333332E1,1.5111111E1,1.3333333E0,6.204444E2,8.577777E1,4.8711108E2,6.511111E2,2.0488887E2,1.2604443E3,8.9422217E2,2.822222E2,9.9688885E2,1.0742222E3,1.0853333E3,1.1555555E1,1.7777777E0,4.5777775E1,2.3999998E1,2.0888887E1,1.1111111E1,7.564444E2,1.3377777E2,1.0755555E2,7.2888885E1,5.9111107E1,2.222222E0,8.622221E1,2.3555553E1,4.8888884E0,2.9777777E1,9.555555E1,1.5999999E1,1.3333333E0,6.1777775E1,2.0777776E3,1.911111E1,1.7777777E0,7.1111107E0,8.333333E2,4.8888885E1,5.7777777E0,3.7777775E1,1.7777777E1,1.5555554E1,1.2444444E1,2.6666665E0,5.1111108E2,1.0933333E2,1.2444444E1,7.333333E1,1.0311111E2,3.8399997E2,2.6711108E2,3.8399997E2,1.2444444E1,1.9244443E2,3.0666664E1,1.2297777E3,3.5555553E0,8.906666E2,2.3022221E2,5.1999996E1,7.9422217E2,2.0266666E2,1.0639999E3,1.0222221E1,2.191111E2,8.6622217E2],"tree_param":{"num_deleted":"0","num_feature":"34","num_nodes":"115","size_leaf_vector":"0"}},{"base_weights":[-2.0726204E-3,6.1419505E-1,-3.5498348E-1,7.7967614E-1,-3.4116453E-1,1.433429E-1,-5.4404926E-1,8.544957E-1,4.0659878E-1,-4.7715303E-1,6.525856E-1,-1.3726337E-1,5.324053E-1,-6.027355E-1,1.3077413E-1,8.9288235E-1,6.0479033E-1,1.1223548E-1,8.120535E-1,8.832593E-2,-5.579451E-1,7.406807E-1,-2.6036274E-1,2.1698375E-1,-4.3228102E-1,7.67932E-1,6.1133213E-2,-2.9710048E-1,-6.203325E-1,5.3356725E-1,-2.7170688E-1,-5.9919304E-1,8.9571947E-1,-5.18116E-1,6.2934107E-1,3.9216757E-1,-2.2143215E-1,8.849894E-1,2.324543E-1,-3.554015E-1,6.307872E-1,-6.1278117E-1,-2.5405538E-1,8.856951E-1,6.831557E-2,4.4117108E-1,-6.226486E-1,-1.2558484E-1,4.8808825E-1,7.5072288E-3,-4.9207038E-1,8.6596465E-1,4.740756E-1,-2.1169765E-1,3.9856273E-1,-4.5015788E-1,1.0017881E-1,-5.1794785E-1,-6.512529E-1,-2.1845482E-2,7.63401E-1,-3.6988226E-1,5.5418247E-1,9.445291E-1,8.21737E-1,-6.934283E-1,-6.7890016E-4,3.2110992E-1,7.349952E-1,2.5138065E-1,8.170365E-1,-5.787621E-1,-5.503988E-2,-2.1511354E-1,9.05071E-1,-2.8553868E-2,9.116606E-1,-4.332627E-1,6.384061E-1,8.542915E-1,-1.8258572E-1,-3.5885298E-1,-6.364521E-1,5.9735954E-1,-4.3111053E-1,-5.183645E-1,9.4079167E-1,1.0096512E0,-4.69672E-1,4.0760353E-1,-3.183762E-1,7.1310365E-1,5.393809E-2,7.5103843E-1,-2.3905826E-1,-5.128238E-1,1.9210745E-1,9.597856E-1,6.9293344E-1,-6.1819047E-1,5.607213E-1,8.7467074E-2,-4.7329208E-1,5.9981954E-1,-5.6891162E-2,-5.818392E-2,-5.221393E-1,1.2453675E0,-2.6814366E-2,-3.0170193E-1,-5.8034253E-1,-6.608317E-1,-5.361623E-1,-3.233747E-1,7.3167634E-1,9.510141E-1,4.880163E-1,-4.3499896E-1,2.4264921E-1,1.002842E0,1.23986594E-1],"categories":[],"categories_nodes":[],"categories_segments":[],"categories_sizes":[],"default_left":[true,true,true,true,true,true,true,true,true,true,true,true,true,true,true,true,true,true,true,true,true,true,true,true,true,true,true,true,true,true,true,false,true,true,true,true,true,true,true,true,true,true,true,true,true,false,false,true,true,true,true,true,true,true,true,true,true,true,true,true,true,true,true,false,false,false,false,false,false,false,false,false,false,false,false,false,false,false,false,false,false,false,false,false,false,false,false,false,false,false,false,false,false,false,false,false,false,false,false,false,false,false,false,false,false,false,false,false,false,false,false,false,false,false,false,false,false,false,false,false,false],"id":3,"left_children":[1,3,5,7,9,11,13,15,17,19,21,23,25,27,29,31,33,35,37,39,41,43,45,47,49,51,53,55,57,59,61,-1,63,65,67,69,71,73,75,77,79,81,83,85,87,-1,-1,89,91,93,95,97,99,101,103,105,107,109,111,113,115,117,119,-1,-1,-1,-1,-1,-1,-1,-1,-1,-1,-1,-1,-1,-1,-1,-1,-1,-1,-1,-1,-1,-1,-1,-1,-1,-1,-1,-1,-1,-1,-1,-1,-1,-1,-1,-1,-1,-1,-1,-1,-1,-1,-1,-1,-1,-1,-1,-1,-1,-1,-1,-1,-1,-1,-1,-1,-1,-1],"loss_changes":[2.5957554E3,6.87344E2,7.151036E2,1.03062744E2,8.711646E1,2.2804659E2,2.1797375E2,2.903003E1,7.399707E1,2.5889359E1,6.445347E0,1.2696582E2,9.709767E1,2.7040283E1,7.164205E1,1.184668E1,1.1743332E1,3.378809E1,1.08255005E1,1.7451529E1,8.093536E0,6.8778343E0,2.201566E0,5.1352848E1,1.74291E1,1.6397797E1,2.7033382E1,1.69187E1,1.4812378E1,2.819767E1,1.8145138E1,0E0,8.85498E0,8.530896E-1,1.2977158E1,1.1552341E1,9.793141E0,5.307312E0,5.437144E0,3.3723407E0,6.0756655E0,2.2879944E0,1.1922373E1,5.0094643E0,7.41653E0,0E0,0E0,2.5291641E1,3.0099396E1,1.4900224E1,8.382248E0,6.4178467E0,1.4369194E1,1.2759485E1,1.2062004E1,5.626766E0,1.1376177E1,1.4867676E1,3.6933594E0,1.5138632E1,7.604843E0,8.017019E0,4.490089E0,0E0,0E0,0E0,0E0,0E0,0E0,0E0,0E0,0E0,0E0,0E0,0E0,0E0,0E0,0E0,0E0,0E0,0E0,0E0,0E0,0E0,0E0,0E0,0E0,0E0,0E0,0E0,0E0,0E0,0E0,0E0,0E0,0E0,0E0,0E0,0E0,0E0,0E0,0E0,0E0,0E0,0E0,0E0,0E0,0E0,0E0,0E0,0E0,0E0,0E0,0E0,0E0,0E0,0E0,0E0,0E0,0E0,0E0],"parents":[2147483647,0,0,1,1,2,2,3,3,4,4,5,5,6,6,7,7,8,8,9,9,10,10,11,11,12,12,13,13,14,14,15,15,16,16,17,17,18,18,19,19,20,20,21,21,22,22,23,23,24,24,25,25,26,26,27,27,28,28,29,29,30,30,32,32,33,33,34,34,35,35,36,36,37,37,38,38,39,39,40,40,41,41,42,42,43,43,44,44,47,47,48,48,49,49,50,50,51,51,52,52,53,53,54,54,55,55,56,56,57,57,58,58,59,59,60,60,61,61,62,62],"right_children":[2,4,6,8,10,12,14,16,18,20,22,24,26,28,30,32,34,36,38,40,42,44,46,48,50,52,54,56,58,60,62,-1,64,66,68,70,72,74,76,78,80,82,84,86,88,-1,-1,90,92,94,96,98,100,102,104,106,108,110,112,114,116,118,120,-1,-1,-1,-1,-1,-1,-1,-1,-1,-1,-1,-1,-1,-1,-1,-1,-1,-1,-1,-1,-1,-1,-1,-1,-1,-1,-1,-1,-1,-1,-1,-1,-1,-1,-1,-1,-1,-1,-1,-1,-1,-1,-1,-1,-1,-1,-1,-1,-1,-1,-1,-1,-1,-1,-1,-1,-1,-1],"split_conditions":[5.2950002E-2,4.972E1,4.41305E1,1.546535E1,1.7225E-1,8.7855005E-1,1.773E-1,4.445E-2,1.5799999E-1,3.95E-3,4.9850002E-2,7.505E-2,1.064E-1,3.085E-2,7.355E-2,-1E-4,5.48E-2,3.5949998E-2,4.26E-2,-4.71E-2,6.8005E-1,8.883551E0,7.5953503E0,1.0955E-1,5.595E-2,8.1E-2,2.1689999E-1,1.3815E-1,1.7545026E2,4.702E-1,2.625E-1,-1.7975792E-1,1.565E-2,7.7755E-1,6.9615E-1,7.8475E-1,8.835E-2,2.3985E-1,9.434E-1,6.5365005E-1,8.102E-1,2.235E-2,6.3705003E-1,2.3545E-1,4.9149998E-2,1.3235132E-1,-1.8679458E-1,4.245E-2,1.41064E1,1.3284451E1,6.164E-1,8.005E-2,1.3264999E-1,1.2744999E-1,1.722E-1,1.4837999E1,4.82E-2,6.155E-2,9.98E-1,1.569E-1,1.08500004E-1,1.323E0,1.21649995E-1,2.8335875E-1,2.465211E-1,-2.080285E-1,-2.0367006E-4,9.633298E-2,2.2049856E-1,7.5414196E-2,2.4511096E-1,-1.7362864E-1,-1.6511964E-2,-6.453406E-2,2.7152133E-1,-8.566161E-3,2.734982E-1,-1.2997882E-1,1.9152184E-1,2.5628746E-1,-5.477572E-2,-1.076559E-1,-1.9093563E-1,1.7920786E-1,-1.2933317E-1,-1.5550935E-1,2.822375E-1,3.0289537E-1,-1.4090161E-1,1.2228107E-1,-9.551287E-2,2.139311E-1,1.6181428E-2,2.2531153E-1,-7.171748E-2,-1.5384716E-1,5.7632238E-2,2.8793567E-1,2.0788004E-1,-1.8545714E-1,1.6821639E-1,2.6240123E-2,-1.4198764E-1,1.7994587E-1,-1.7067349E-2,-1.7455177E-2,-1.566418E-1,3.7361026E-1,-8.04431E-3,-9.0510584E-2,-1.7410277E-1,-1.9824952E-1,-1.608487E-1,-9.701241E-2,2.1950291E-1,2.8530425E-1,1.4640489E-1,-1.3049969E-1,7.2794765E-2,3.008526E-1,3.719598E-2],"split_indices":[30,8,8,11,18,22,18,25,18,25,25,20,20,25,25,25,24,30,25,31,22,5,5,23,25,25,33,18,7,14,33,0,25,17,32,22,33,14,22,27,0,30,0,14,24,0,0,25,11,11,14,30,23,25,25,2,24,25,32,23,24,32,30,0,0,0,0,0,0,0,0,0,0,0,0,0,0,0,0,0,0,0,0,0,0,0,0,0,0,0,0,0,0,0,0,0,0,0,0,0,0,0,0,0,0,0,0,0,0,0,0,0,0,0,0,0,0,0,0,0,0],"split_type":[0,0,0,0,0,0,0,0,0,0,0,0,0,0,0,0,0,0,0,0,0,0,0,0,0,0,0,0,0,0,0,0,0,0,0,0,0,0,0,0,0,0,0,0,0,0,0,0,0,0,0,0,0,0,0,0,0,0,0,0,0,0,0,0,0,0,0,0,0,0,0,0,0,0,0,0,0,0,0,0,0,0,0,0,0,0,0,0,0,0,0,0,0,0,0,0,0,0,0,0,0,0,0,0,0,0,0,0,0,0,0,0,0,0,0,0,0,0,0,0,0],"sum_hessian":[1.19331875E4,4.34501E3,7.588178E3,3.7036685E3,6.4134125E2,2.0871792E3,5.500999E3,3.0839097E3,6.1975903E2,5.6459924E2,7.6742035E1,1.21298E3,8.7419916E2,5.060976E3,4.400226E2,2.6707632E3,4.1314633E2,3.5981058E2,2.5994846E2,7.057038E1,4.9402887E2,7.0160576E1,6.581459E0,5.5128284E2,6.616972E2,5.8246985E2,2.9172928E2,2.7649655E2,4.7844795E3,2.1976324E2,2.2025937E2,4.6697364E0,2.6660935E3,8.40945E0,4.0473688E2,1.9556502E2,1.6424556E2,2.304252E2,2.9523249E1,3.9007504E1,3.156288E1,4.1764877E2,7.638007E1,5.7452126E1,1.2708447E1,2.1671758E0,4.414283E0,2.4377928E2,3.0750357E2,7.929646E1,5.824007E2,4.3530273E2,1.4716713E2,1.6151106E2,1.3021822E2,1.9950238E2,7.699418E1,1.1138901E3,3.6705896E3,6.458736E1,1.551759E2,1.9735184E2,2.2907534E1,1.5992361E3,1.0668574E3,6.0272446E0,2.382205E0,1.0434993E2,3.0038693E2,1.4808607E2,4.7478954E1,5.139522E1,1.12850334E2,3.9567428E0,2.2646846E2,2.2019476E1,7.5037737E0,3.6696503E1,2.3109996E0,2.4719872E1,6.8430076E0,3.6990936E1,3.8065784E2,1.274046E1,6.3639614E1,1.851856E0,5.560027E1,4.3028617E0,8.405585E0,6.444219E1,1.7933708E2,2.0210973E2,1.05393845E2,1.9237816E1,6.0058647E1,5.654977E2,1.6903008E1,2.7930902E2,1.5599371E2,1.0365368E1,1.3680176E2,7.565551E1,8.585555E1,9.009147E1,4.0126755E1,3.1232828E1,1.6826956E2,6.8067E0,7.018748E1,2.507349E2,8.631552E2,3.3841887E3,2.8640082E2,4.653626E1,1.8051094E1,9.083721E1,6.4338684E1,1.7864984E2,1.870199E1,1.0561555E1,1.2345979E1],"tree_param":{"num_deleted":"0","num_feature":"34","num_nodes":"121","size_leaf_vector":"0"}},{"base_weights":[4.3301405E-3,-2.582462E-1,6.228428E-1,-5.0927913E-1,4.1677795E-2,1.7779827E-3,7.13836E-1,-6.272601E-1,-3.886561E-1,-3.126799E-1,3.3111244E-1,-2.037278E-1,5.8204544E-1,5.923605E-1,8.6546075E-1,-6.292388E-1,9.521393E-1,-5.5485123E-1,-2.262768E-1,-4.4892764E-1,-6.445278E-2,-1.9445586E-1,4.3472344E-1,-2.7834114E-1,8.0993366E-1,7.030531E-2,7.242223E-1,6.6352296E-1,2.3493531E-1,-6.42068E-1,8.7051153E-1,-6.587797E-1,-5.689484E-1,-5.755878E-1,-2.144019E-1,-2.6747695E-1,6.4248484E-1,-4.7942495E-1,-4.3152068E-2,1.7854258E-1,-2.771229E-1,-4.5649308E-1,6.028105E-2,5.819012E-1,-9.447926E-2,-4.191045E-1,-3.1771222E-3,1.1045556E0,-5.665778E-1,4.3014115E-1,-3.163478E-1,-4.1995507E-1,7.808825E-1,4.115984E-1,7.1827185E-1,-5.0653103E-3,5.127449E-1,8.8995886E-1,5.086223E-1,-6.6000396E-1,-3.0590004E-1,-5.009802E-1,-6.1581504E-1,-3.8974562E-1,-5.9834373E-1,-4.037295E-1,3.468022E-1,-5.1253235E-1,-7.332071E-2,8.120923E-1,-3.2077062E-1,-3.6874598E-1,-5.742859E-1,5.4974353E-1,-2.7837023E-1,-4.0278292E-1,3.3969668E-1,-4.052375E-1,-6.0434893E-2,-5.1647323E-1,2.5284085E-1,2.5552282E-1,-3.2415864E-1,-2.717022E-1,6.3821423E-1,2.1673013E-1,-2.9465017E-1,-2.2628364E-1,-6.1473095E-1,-3.77413E-1,3.2869387E-1,-1.4166234E-1,1.2559016E0,1.1894131E-1,1.0390443E0,-5.703294E-1,8.1351876E-1,-3.0854613E-2,-5.567688E-1,9.00989E-1,3.5735592E-1,5.59426E-1,-2.8002396E-1,5.1562107E-1,7.922225E-1,2.4196975E-1,-2.595402E-1,-2.2818969E-1,6.179035E-1,2.3962414E-1,8.974586E-1,1.0715884E0,3.5900113E-1],"categories":[],"categories_nodes":[],"categories_segments":[],"categories_sizes":[],"default_left":[true,true,true,true,true,true,true,true,true,true,true,true,true,true,true,true,false,true,true,true,true,true,true,true,true,true,true,true,true,false,true,true,true,true,true,true,true,true,true,true,true,true,true,true,true,true,true,true,false,true,true,true,true,true,true,true,true,true,true,false,false,false,false,false,false,false,false,false,false,false,false,false,false,false,false,false,false,false,false,false,false,false,false,false,false,false,false,false,false,false,false,false,false,false,false,false,false,false,false,false,false,false,false,false,false,false,false,false,false,false,false,false,false],"id":4,"left_children":[1,3,5,7,9,11,13,15,17,19,21,23,25,27,29,31,-1,33,35,37,39,41,43,45,47,49,51,53,55,-1,57,59,61,63,65,67,69,71,73,75,77,79,81,83,85,87,89,91,-1,93,95,97,99,101,103,105,107,109,111,-1,-1,-1,-1,-1,-1,-1,-1,-1,-1,-1,-1,-1,-1,-1,-1,-1,-1,-1,-1,-1,-1,-1,-1,-1,-1,-1,-1,-1,-1,-1,-1,-1,-1,-1,-1,-1,-1,-1,-1,-1,-1,-1,-1,-1,-1,-1,-1,-1,-1,-1,-1,-1,-1],"loss_changes":[1.9411409E3,6.317405E2,2.0129443E2,6.475806E1,3.9228998E2,5.4517437E1,5.6710083E1,7.8101807E0,6.089435E1,5.8129593E1,1.147233E2,2.5760204E1,8.648411E0,4.3797363E1,1.1064453E1,3.730774E0,0E0,7.7605286E0,4.116841E1,1.3716522E1,3.1601854E1,2.3214676E1,1.3704587E2,1.2207796E1,1.0116944E1,3.9070892E0,6.387005E0,1.9573547E1,1.9236298E1,0E0,9.228149E0,4.6380615E-1,2.1295624E0,4.2158203E0,7.1216354E0,5.2024467E1,8.780987E0,1.0627228E1,1.1128173E1,2.6889952E1,9.02523E0,7.4207573E0,1.3369873E1,6.632922E1,2.395888E1,7.7267E0,1.3498415E1,3.8777103E0,0E0,2.61694E0,4.378565E0,2.5219578E-1,4.2257385E0,2.6690228E1,1.7305908E1,9.85439E0,1.0559406E1,6.1452637E0,5.7207127E0,0E0,0E0,0E0,0E0,0E0,0E0,0E0,0E0,0E0,0E0,0E0,0E0,0E0,0E0,0E0,0E0,0E0,0E0,0E0,0E0,0E0,0E0,0E0,0E0,0E0,0E0,0E0,0E0,0E0,0E0,0E0,0E0,0E0,0E0,0E0,0E0,0E0,0E0,0E0,0E0,0E0,0E0,0E0,0E0,0E0,0E0,0E0,0E0,0E0,0E0,0E0,0E0,0E0,0E0],"parents":[2147483647,0,0,1,1,2,2,3,3,4,4,5,5,6,6,7,7,8,8,9,9,10,10,11,11,12,12,13,13,14,14,15,15,17,17,18,18,19,19,20,20,21,21,22,22,23,23,24,24,25,25,26,26,27,27,28,28,30,30,31,31,32,32,33,33,34,34,35,35,36,36,37,37,38,38,39,39,40,40,41,41,42,42,43,43,44,44,45,45,46,46,47,47,49,49,50,50,51,51,52,52,53,53,54,54,55,55,56,56,57,57,58,58],"right_children":[2,4,6,8,10,12,14,16,18,20,22,24,26,28,30,32,-1,34,36,38,40,42,44,46,48,50,52,54,56,-1,58,60,62,64,66,68,70,72,74,76,78,80,82,84,86,88,90,92,-1,94,96,98,100,102,104,106,108,110,112,-1,-1,-1,-1,-1,-1,-1,-1,-1,-1,-1,-1,-1,-1,-1,-1,-1,-1,-1,-1,-1,-1,-1,-1,-1,-1,-1,-1,-1,-1,-1,-1,-1,-1,-1,-1,-1,-1,-1,-1,-1,-1,-1,-1,-1,-1,-1,-1,-1,-1,-1,-1,-1,-1],"split_conditions":[1.0565E-1,1.0275E-1,1.17750004E-1,7.605E-2,1.12205E1,1.3215E-1,1.3624999E-1,1.096543E2,7.975E-2,5.2249998E-2,9.855E-2,1.67471E1,8.4350005E-2,1.6325E-1,1.162745E1,6.555E-2,2.8564182E-1,9.14E-2,1.691675E1,8.055E-2,8.799E-1,1.0625E-1,1.7765E-1,2.5255E-1,2.05E-3,1.5585E-1,3.444E-1,6.635E-2,1.34971E1,-1.9262041E-1,2.464E-1,1.0215E-1,6.275E-2,4.6845E-1,7.3505E-1,2.212E-1,-3.5E-3,8.8725E-1,1.1525001E-1,1.1930901E1,1.3767816E2,9.6735E-1,5.954E-1,9.785E-2,8.6925E-1,-5.35E-3,8.658E-1,8.66305E0,-1.6997334E-1,9.765E-2,9.3155E-1,6.836E-1,6.2555003E-1,1.0316501E0,1.2625E-1,7.178E-1,1.598E-1,1.055E-1,-9.1350004E-2,-1.9800119E-1,-9.1770016E-2,-1.5029407E-1,-1.8474452E-1,-1.1692369E-1,-1.7950313E-1,-1.2111885E-1,1.0404067E-1,-1.5375972E-1,-2.1996213E-2,2.436277E-1,-9.623119E-2,-1.106238E-1,-1.7228578E-1,1.6492307E-1,-8.351107E-2,-1.2083488E-1,1.01909004E-1,-1.2157125E-1,-1.8130468E-2,-1.5494198E-1,7.585226E-2,7.665685E-2,-9.724759E-2,-8.151066E-2,1.9146428E-1,6.501904E-2,-8.839505E-2,-6.788509E-2,-1.8441929E-1,-1.132239E-1,9.8608166E-2,-4.2498704E-2,3.767705E-1,3.5682395E-2,3.1171328E-1,-1.7109883E-1,2.4405564E-1,-9.256384E-3,-1.6703063E-1,2.7029672E-1,1.07206784E-1,1.6782781E-1,-8.400719E-2,1.5468633E-1,2.3766676E-1,7.2590925E-2,-7.786206E-2,-6.845691E-2,1.8537104E-1,7.188725E-2,2.692376E-1,3.2147652E-1,1.0770034E-1],"split_indices":[30,28,33,23,1,30,25,1,13,25,23,12,28,18,12,23,0,30,12,30,32,33,18,15,26,29,27,13,12,0,33,19,19,22,0,15,26,32,18,12,7,3,27,29,22,26,3,5,0,33,3,0,22,32,28,27,33,28,21,0,0,0,0,0,0,0,0,0,0,0,0,0,0,0,0,0,0,0,0,0,0,0,0,0,0,0,0,0,0,0,0,0,0,0,0,0,0,0,0,0,0,0,0,0,0,0,0,0,0,0,0,0,0],"split_type":[0,0,0,0,0,0,0,0,0,0,0,0,0,0,0,0,0,0,0,0,0,0,0,0,0,0,0,0,0,0,0,0,0,0,0,0,0,0,0,0,0,0,0,0,0,0,0,0,0,0,0,0,0,0,0,0,0,0,0,0,0,0,0,0,0,0,0,0,0,0,0,0,0,0,0,0,0,0,0,0,0,0,0,0,0,0,0,0,0,0,0,0,0,0,0,0,0,0,0,0,0,0,0,0,0,0,0,0,0,0,0,0,0],"sum_hessian":[1.1950347E4,8.389392E3,3.560955E3,4.5665474E3,3.8228445E3,4.5518137E2,3.1057737E3,2.3064326E3,2.2601147E3,1.7186294E3,2.104215E3,3.366155E2,1.1856584E2,1.7270438E3,1.3787299E3,2.3041477E3,2.285063E0,1.1157393E3,1.1443754E3,1.1090704E3,6.095589E2,3.4637024E2,1.7578448E3,3.1421246E2,2.2403067E1,2.6103935E1,9.246191E1,1.439572E3,2.874717E2,4.1826763E0,1.3745472E3,1.5397695E3,7.643781E2,1.0510308E3,6.470849E1,1.0932225E3,5.115288E1,1.0313729E3,7.769752E1,2.845708E2,3.249881E2,1.7034818E2,1.7602206E2,1.3752668E3,3.8257806E2,2.0752667E2,1.06685776E2,1.8616127E1,3.7869391E0,1.3462597E1,1.2641338E1,4.0601745E0,8.840173E1,2.5852023E2,1.1810519E3,1.5475775E2,1.3271396E2,1.3030636E3,7.148364E1,1.5335785E3,6.191068E0,3.1673062E2,4.4764746E2,1.1663411E2,9.3439667E2,4.859507E1,1.6113413E1,4.8254095E2,6.106815E2,4.3627922E1,7.5249586E0,4.7825565E2,5.5311725E2,2.168946E1,5.6008057E1,6.144024E1,2.2313057E2,2.0368893E2,1.21299164E2,1.5731754E2,1.3030632E1,1.16958694E2,5.9063374E1,8.487606E1,1.2903907E3,1.4972113E2,2.3285693E2,1.0559893E2,1.0192775E2,5.007793E1,5.6607845E1,2.0229182E0,1.659321E1,9.700286E0,3.7623115E0,1.0725572E1,1.9157667E0,1.3750454E0,2.6851292E0,6.7992584E1,2.0409145E1,2.1315216E2,4.5368073E1,3.178911E2,8.631607E2,7.855171E1,7.620604E1,1.6349237E1,1.1636472E2,1.5231506E1,1.287832E3,1.3715508E1,5.7768135E1],"tree_param":{"num_deleted":"0","num_feature":"34","num_nodes":"113","size_leaf_vector":"0"}},{"base_weights":[-2.791429E-3,4.7780797E-1,-4.0301803E-1,-1.1076623E-1,8.133124E-1,-1.893108E-1,-5.377482E-1,-3.9572734E-1,2.806308E-1,8.8539284E-1,2.9247792E-2,-2.4094824E-1,8.33115E-1,-4.8888618E-1,-6.157755E-1,-5.336047E-1,3.834387E-1,-5.7504827E-1,5.7736224E-1,9.624786E-1,7.18975E-1,-2.910304E-1,5.831067E-1,-5.074498E-1,-6.610852E-2,1.0994502E0,-3.2412615E-1,-6.078328E-1,-4.277822E-1,-5.569024E-1,-6.697276E-1,2.5138238E-1,-5.724479E-1,5.3303754E-1,-6.594109E-1,8.961601E-1,-6.1571056E-1,9.1559E-1,3.3069387E-1,4.469691E-1,9.8443615E-1,7.8411424E-1,-1.7197572E-1,-1.8235145E-2,-5.303315E-1,9.1670007E-1,2.2506478E-1,3.756978E-1,-5.424544E-1,2.5834543E-1,-1.6187564E-1,-3.940897E-1,1.1226019E0,-5.632251E-1,1.0392439E0,4.625815E-1,-6.1005044E-1,-4.0269074E-1,-6.5752125E-1,-5.6193703E-1,7.139052E-1,-6.732994E-1,6.9461307E-3,4.7611293E-1,-5.4185456E-1,2.7471246E-2,-6.009477E-1,6.346718E-1,-4.1334355E-1,-3.6542982E-2,-6.988809E-1,1.0568372E0,3.730271E-1,6.848787E-1,-6.2826794E-1,9.680083E-1,5.626242E-1,7.9433566E-1,9.6395366E-2,7.857412E-1,-6.024408E-1,9.8682207E-1,-6.0364276E-1,5.2905697E-1,8.813365E-1,-4.1065246E-1,6.447955E-1,4.6586403E-1,-2.07537E-1,2.9245314E-1,-5.6560874E-1,7.7686116E-2,1.0756215E0,-2.5111973E-1,6.044798E-1,1.1937199E0,1.9617882E-2,-2.279435E-1,-5.893566E-1,7.0943505E-1,2.4557205E-2,-3.9978245E-1,-8.781044E-2,1.139039E0,-2.4164483E-2,-6.58724E-1,3.6642578E-1,-3.893909E-1,-6.2307715E-1,-5.9236616E-1,-3.6557245E-1,-6.700693E-1,5.5706334E-1,-4.3840364E-1,-6.131461E-1,6.299782E-1,-4.934509E-1],"categories":[],"categories_nodes":[],"categories_segments":[],"categories_sizes":[],"default_left":[true,true,true,true,true,true,true,true,true,true,true,true,true,true,true,true,true,true,true,true,true,true,true,true,true,true,true,true,true,true,true,true,true,true,true,true,true,true,true,true,true,true,true,true,true,true,true,true,true,true,true,false,true,true,false,false,true,true,true,true,false,false,true,false,false,false,false,false,false,false,false,false,false,false,false,false,false,false,false,false,false,false,false,false,false,false,false,false,false,false,false,false,false,false,false,false,false,false,false,false,false,false,false,false,false,false,false,false,false,false,false,false,false,false,false,false,false],"id":5,"left_children":[1,3,5,7,9,11,13,15,17,19,21,23,25,27,29,31,33,35,37,39,41,43,45,47,49,51,53,55,57,59,61,63,65,67,69,71,73,75,77,79,81,83,85,87,89,91,93,95,97,99,101,-1,103,105,-1,-1,107,109,111,113,-1,-1,115,-1,-1,-1,-1,-1,-1,-1,-1,-1,-1,-1,-1,-1,-1,-1,-1,-1,-1,-1,-1,-1,-1,-1,-1,-1,-1,-1,-1,-1,-1,-1,-1,-1,-1,-1,-1,-1,-1,-1,-1,-1,-1,-1,-1,-1,-1,-1,-1,-1,-1,-1,-1,-1,-1],"loss_changes":[2.2910337E3,1.068795E3,1.8701782E2,2.1936392E2,1.9479492E2,1.3295193E2,1.4893555E1,1.2245894E2,2.1077393E2,3.9806396E1,5.183595E1,1.1153056E2,3.7684326E1,1.758728E1,4.48938E0,2.9638794E1,2.7135067E1,1.3348473E1,5.108217E1,2.3948486E1,5.8364624E1,1.2080945E1,1.2579609E1,2.9522156E1,4.500163E1,3.8545532E0,8.22329E0,2.2547913E0,9.1059265E0,5.12265E0,1.9233704E0,8.512255E0,1.5780731E1,1.4756855E1,5.149555E-1,1.2359047E-1,3.8395996E0,4.250702E0,3.878323E1,3.2417747E1,8.422974E0,2.2723145E1,1.3750766E1,8.122975E0,3.0281181E0,7.2621155E0,9.719745E0,1.06805105E1,1.33280945E1,3.4799156E1,1.9661448E1,0E0,1.8640976E0,2.068767E0,0E0,0E0,2.142273E0,1.0119583E1,2.7886124E0,4.3847046E0,0E0,0E0,1.9189751E0,0E0,0E0,0E0,0E0,0E0,0E0,0E0,0E0,0E0,0E0,0E0,0E0,0E0,0E0,0E0,0E0,0E0,0E0,0E0,0E0,0E0,0E0,0E0,0E0,0E0,0E0,0E0,0E0,0E0,0E0,0E0,0E0,0E0,0E0,0E0,0E0,0E0,0E0,0E0,0E0,0E0,0E0,0E0,0E0,0E0,0E0,0E0,0E0,0E0,0E0,0E0,0E0,0E0,0E0],"parents":[2147483647,0,0,1,1,2,2,3,3,4,4,5,5,6,6,7,7,8,8,9,9,10,10,11,11,12,12,13,13,14,14,15,15,16,16,17,17,18,18,19,19,20,20,21,21,22,22,23,23,24,24,25,25,26,26,27,27,28,28,29,29,30,30,31,31,32,32,33,33,34,34,35,35,36,36,37,37,38,38,39,39,40,40,41,41,42,42,43,43,44,44,45,45,46,46,47,47,48,48,49,49,50,50,52,52,53,53,56,56,57,57,58,58,59,59,62,62],"right_children":[2,4,6,8,10,12,14,16,18,20,22,24,26,28,30,32,34,36,38,40,42,44,46,48,50,52,54,56,58,60,62,64,66,68,70,72,74,76,78,80,82,84,86,88,90,92,94,96,98,100,102,-1,104,106,-1,-1,108,110,112,114,-1,-1,116,-1,-1,-1,-1,-1,-1,-1,-1,-1,-1,-1,-1,-1,-1,-1,-1,-1,-1,-1,-1,-1,-1,-1,-1,-1,-1,-1,-1,-1,-1,-1,-1,-1,-1,-1,-1,-1,-1,-1,-1,-1,-1,-1,-1,-1,-1,-1,-1,-1,-1,-1,-1,-1,-1],"split_conditions":[1.0245E-1,6.059E0,1.3464999E-1,8.2550004E-2,1.2185E-1,5E-5,1.9585E-1,4.0349998E-2,5.2950002E-2,7.885E-2,7.335E-2,6.485E-2,1.462E-1,7.605E-2,1.10305E0,7.0809996E-1,9.8450005E-2,9.815E-2,9.565E-2,2.115E-2,1.68822E1,1.4144999E-1,9.24E-2,6.4305E-1,7.9795E-1,-4.2900003E-2,1.5325001E-1,2.19925E0,2.1294999E-1,1.09905E0,9.7940004E-1,-1.505E-2,-6.475E-2,1.048E-1,6.9E-2,1.279115E1,4.8025E-1,7.7905E-1,8.5635E-1,-2.565E-2,3.820405E1,7.54925E0,-5.05E-3,7.9050004E-2,9.5745003E-1,3.2515E-1,-1.345E-2,-3.435E-2,2.2275001E-1,1.2135E-1,6.2785E-1,-1.18226916E-1,1.64E-1,4E-3,3.1177318E-1,1.3877445E-1,2.8125E-1,-6.285E-2,8.5975003E-1,9.8245E-1,2.1417157E-1,-2.0198981E-1,-3.205E-2,1.4283389E-1,-1.6255638E-1,8.241374E-3,-1.802843E-1,1.9040155E-1,-1.2400307E-1,-1.0962895E-2,-2.0966429E-1,3.1705117E-1,1.1190813E-1,2.0546362E-1,-1.8848039E-1,2.904025E-1,1.6878727E-1,2.3830071E-1,2.891861E-2,2.3572238E-1,-1.8073224E-1,2.9604664E-1,-1.8109283E-1,1.587171E-1,2.6440096E-1,-1.23195745E-1,1.9343865E-1,1.3975921E-1,-6.22611E-2,8.773594E-2,-1.6968262E-1,2.3305835E-2,3.2268646E-1,-7.533592E-2,1.8134394E-1,3.5811597E-1,5.885365E-3,-6.838305E-2,-1.7680699E-1,2.1283053E-1,7.3671616E-3,-1.1993474E-1,-2.6343133E-2,3.4171173E-1,-7.249345E-3,-1.9761722E-1,1.09927736E-1,-1.1681727E-1,-1.8692315E-1,-1.7770985E-1,-1.0967174E-1,-2.0102079E-1,1.6711901E-1,-1.3152109E-1,-1.8394384E-1,1.8899347E-1,-1.4803527E-1],"split_indices":[23,5,23,29,33,26,33,30,30,23,30,30,30,30,32,3,28,33,33,30,12,33,23,3,3,21,18,1,30,27,3,26,26,33,23,2,32,0,3,26,2,5,26,23,9,27,26,26,15,33,32,0,28,21,0,0,27,21,0,9,0,0,21,0,0,0,0,0,0,0,0,0,0,0,0,0,0,0,0,0,0,0,0,0,0,0,0,0,0,0,0,0,0,0,0,0,0,0,0,0,0,0,0,0,0,0,0,0,0,0,0,0,0,0,0,0,0],"split_type":[0,0,0,0,0,0,0,0,0,0,0,0,0,0,0,0,0,0,0,0,0,0,0,0,0,0,0,0,0,0,0,0,0,0,0,0,0,0,0,0,0,0,0,0,0,0,0,0,0,0,0,0,0,0,0,0,0,0,0,0,0,0,0,0,0,0,0,0,0,0,0,0,0,0,0,0,0,0,0,0,0,0,0,0,0,0,0,0,0,0,0,0,0,0,0,0,0,0,0,0,0,0,0,0,0,0,0,0,0,0,0,0,0,0,0,0,0],"sum_hessian":[1.1908836E4,5.411007E3,6.4978296E3,1.9648127E3,3.446194E3,2.5134436E3,3.9843857E3,1.1369976E3,8.278152E2,3.1559343E3,2.902597E2,2.393333E3,1.2011054E2,2.4545623E3,1.5298235E3,9.6631793E2,1.7067963E2,2.1291066E2,6.1490454E2,2.153593E3,1.00234125E3,1.8421109E2,1.0604861E2,9.4737805E2,1.445955E3,9.76798E1,2.2430742E1,8.299712E2,1.6245911E3,7.3696356E2,7.9286E2,4.5303482E1,9.2101447E2,1.4969453E2,2.0985106E1,5.160448E0,2.077502E2,2.5818018E2,3.5672433E2,8.885489E1,2.0647383E3,9.341626E2,6.817863E1,8.658419E1,9.762689E1,5.4090923E1,5.1957687E1,3.5747746E1,9.116303E2,3.291419E2,1.1168131E3,1.2464719E0,9.643333E1,1.9583248E1,2.8474948E0,1.286774E0,8.286844E2,1.4671102E3,1.5748087E2,7.34611E2,2.3525126E0,7.887019E2,4.1581163E0,3.5613632E1,9.68985E0,4.1771103E1,8.7924335E2,1.354749E2,1.4219625E1,1.3653071E0,1.9619799E1,3.1673954E0,1.993053E0,1.4746864E0,2.0627551E2,2.2327895E2,3.4901234E1,1.1894992E2,2.3777441E2,6.736067E1,2.149422E1,2.0620188E3,2.7193832E0,2.5958844E2,6.7457416E2,5.3145638E1,1.5032986E1,2.3929255E1,6.2654934E1,3.7139897E0,9.39129E1,8.85109E0,4.5239834E1,2.3190548E1,2.876714E1,1.0128092E1,2.5619654E1,1.1906677E2,7.9256354E2,1.1166057E2,2.1748134E2,2.6409824E2,8.5271484E2,9.507728E1,1.3560519E0,1.8023232E1,1.5600173E0,4.7916576E1,7.807678E2,2.3766707E2,1.2294432E3,1.5631429E2,1.1665882E0,2.180832E2,5.1652783E2,1.7367611E0,2.421355E0],"tree_param":{"num_deleted":"0","num_feature":"34","num_nodes":"117","size_leaf_vector":"0"}},{"base_weights":[-7.08147E-3,4.3247283E-1,-3.4623352E-1,6.00211E-1,-2.987125E-1,1.007352E-1,-4.9398628E-1,6.81362E-1,4.21229E-1,-4.4457993E-1,3.5627165E-1,-2.6736736E-1,3.2886183E-1,-5.3928417E-1,1.4867371E-1,-6.510172E-1,6.8560195E-1,2.1659428E-1,5.9309214E-1,1.890545E-1,-5.088331E-1,5.473839E-1,-3.4357545E-1,5.9767406E-2,-4.5493704E-1,4.601279E-1,-1.1946404E-1,-5.902255E-1,-3.9595848E-1,-8.664137E-2,5.1339453E-1,7.467668E-1,6.1214083E-1,4.4002536E-1,-2.2283828E-1,7.0076114E-1,4.8669082E-1,-6.0627216E-1,5.27752E-1,-5.570997E-1,-1.9965956E-1,6.504975E-1,-1.3919109E-2,5.6067294E-1,-4.9182174E-1,-3.586301E-1,3.2630226E-1,-2.124763E-1,-5.128388E-1,-3.7420356E-1,5.1715225E-1,-3.1270856E-1,1.592299E-1,-5.182627E-1,-6.129069E-1,-1.09934635E-1,-4.6959892E-1,2.0335159E-1,-4.189401E-1,7.392708E-1,4.708729E-2,3.93764E-1,7.6741993E-1,5.2983797E-1,7.7515244E-1,-4.5108405E-1,4.9662325E-1,-2.720956E-1,4.0653673E-1,3.2151586E-1,7.414092E-1,5.8906364E-1,1.7375629E-1,-6.4734644E-1,-5.544646E-3,7.0792246E-1,-3.609376E-1,-5.7087183E-1,1.7689794E-1,2.060575E-1,-3.6925685E-1,-1.13301516E-1,7.3066205E-1,8.331567E-1,-4.8116314E-1,8.9243484E-1,-3.6398378E-1,-6.1116064E-1,4.7880882E-1,8.2267874E-1,-4.1964334E-1,5.025506E-1,-1.9519581E-1,7.244075E-1,-2.6676977E-1,1.8709984E-1,-5.2898383E-1,8.041274E-1,-4.9327442E-1,6.12889E-1,2.8035477E-1,-1.7338096E-1,-6.0279197E-1,4.2943457E-1,-6.380218E-2,-2.1254078E-1,-5.6323415E-1,3.5606992E-1,-6.136748E-1,1.07700236E-1,-4.2555672E-1,-3.1853935E-1,-5.7867074E-1,-2.2108918E-1,5.005185E-1,-7.477751E-2,-5.234091E-1,7.948844E-1,2.560695E-1,-3.2985362E-1,4.460419E-1],"categories":[],"categories_nodes":[],"categories_segments":[],"categories_sizes":[],"default_left":[true,true,true,true,true,true,true,true,true,true,true,true,true,true,true,false,true,true,true,true,true,true,true,true,true,true,true,true,true,true,true,true,true,true,true,true,true,true,true,true,true,true,true,true,true,true,true,true,true,true,true,true,true,true,true,true,true,true,true,true,true,false,false,false,false,false,false,false,false,false,false,false,false,false,false,false,false,false,false,false,false,false,false,false,false,false,false,false,false,false,false,false,false,false,false,false,false,false,false,false,false,false,false,false,false,false,false,false,false,false,false,false,false,false,false,false,false,false,false,false,false],"id":6,"left_children":[1,3,5,7,9,11,13,15,17,19,21,23,25,27,29,-1,31,33,35,37,39,41,43,45,47,49,51,53,55,57,59,61,63,65,67,69,71,73,75,77,79,81,83,85,87,89,91,93,95,97,99,101,103,105,107,109,111,113,115,117,119,-1,-1,-1,-1,-1,-1,-1,-1,-1,-1,-1,-1,-1,-1,-1,-1,-1,-1,-1,-1,-1,-1,-1,-1,-1,-1,-1,-1,-1,-1,-1,-1,-1,-1,-1,-1,-1,-1,-1,-1,-1,-1,-1,-1,-1,-1,-1,-1,-1,-1,-1,-1,-1,-1,-1,-1,-1,-1,-1,-1],"loss_changes":[1.6362075E3,5.8646906E2,4.0919934E2,5.619336E1,8.544408E1,1.2940935E2,1.3563293E2,1.5551758E1,4.2626984E1,2.9837738E1,2.2008598E1,3.6216812E1,5.6034897E1,3.1526611E1,2.6425062E1,0E0,1.1521362E1,5.473881E1,7.222168E0,1.8633804E1,9.790482E0,7.4484367E0,5.0492206E0,2.4184183E1,5.15522E0,3.521048E1,1.1695031E1,4.9173584E0,2.4038269E1,1.8171827E1,1.2677052E1,1.0270264E1,1.5913666E1,1.8848137E1,5.9466066E0,4.785034E0,1.0640038E1,5.089183E-1,7.975589E0,5.8970337E0,6.348528E0,6.732853E0,8.68362E0,2.0068083E0,3.8981118E0,6.4326363E0,1.2263383E1,3.9569623E0,3.5115051E0,7.0844073E0,1.5455597E1,5.06991E0,5.403083E0,1.0536942E1,2.0291138E0,1.6220892E1,1.4796509E1,1.2836933E1,3.11736E0,1.9794998E0,6.230343E0,0E0,0E0,0E0,0E0,0E0,0E0,0E0,0E0,0E0,0E0,0E0,0E0,0E0,0E0,0E0,0E0,0E0,0E0,0E0,0E0,0E0,0E0,0E0,0E0,0E0,0E0,0E0,0E0,0E0,0E0,0E0,0E0,0E0,0E0,0E0,0E0,0E0,0E0,0E0,0E0,0E0,0E0,0E0,0E0,0E0,0E0,0E0,0E0,0E0,0E0,0E0,0E0,0E0,0E0,0E0,0E0,0E0,0E0,0E0,0E0],"parents":[2147483647,0,0,1,1,2,2,3,3,4,4,5,5,6,6,7,7,8,8,9,9,10,10,11,11,12,12,13,13,14,14,16,16,17,17,18,18,19,19,20,20,21,21,22,22,23,23,24,24,25,25,26,26,27,27,28,28,29,29,30,30,31,31,32,32,33,33,34,34,35,35,36,36,37,37,38,38,39,39,40,40,41,41,42,42,43,43,44,44,45,45,46,46,47,47,48,48,49,49,50,50,51,51,52,52,53,53,54,54,55,55,56,56,57,57,58,58,59,59,60,60],"right_children":[2,4,6,8,10,12,14,16,18,20,22,24,26,28,30,-1,32,34,36,38,40,42,44,46,48,50,52,54,56,58,60,62,64,66,68,70,72,74,76,78,80,82,84,86,88,90,92,94,96,98,100,102,104,106,108,110,112,114,116,118,120,-1,-1,-1,-1,-1,-1,-1,-1,-1,-1,-1,-1,-1,-1,-1,-1,-1,-1,-1,-1,-1,-1,-1,-1,-1,-1,-1,-1,-1,-1,-1,-1,-1,-1,-1,-1,-1,-1,-1,-1,-1,-1,-1,-1,-1,-1,-1,-1,-1,-1,-1,-1,-1,-1,-1,-1,-1,-1,-1,-1],"split_conditions":[5.975E-2,6.6646004E0,4.62595E0,3.015E-2,1.5435001E-1,8.2995E-1,1.8705E-1,-5E-5,8.0509996E-1,2.5499999E-3,4.22E-2,6.61E-2,1.2245E-1,8.6325E-1,2.2854999E-1,-1.9530517E-1,1.3835385E2,4.61475E0,2.53495E0,-4.4650003E-2,5.6095004E-1,8.883551E0,9.99E-1,1.03750005E-1,3.1199002E0,1.074E-1,2.1364999E-1,1.758451E2,8.285E-2,9.595E-2,1.266E-1,-6.545E-2,1.8744999E-1,6.9844997E-1,1.6E-1,3.1620002E-1,6.1750002E-2,8.0325E-1,3.4735E-1,4.16E-1,8.185E-2,1.3945E-1,5.325E-2,7.74765E0,2.4489999E-1,4.8249997E-2,1.1365E-1,5.995E-2,-6.475E-2,6.785E-2,9.56E-2,1.41537E1,1.377888E2,4.575E-2,3.59E-2,6.94675E0,1.8301151E1,4.7505E-1,1.5238199E1,1.109E-1,2.3300001E-1,1.181292E-1,2.30226E-1,1.589514E-1,2.3254575E-1,-1.3532522E-1,1.4898698E-1,-8.162868E-2,1.2196102E-1,9.645476E-2,2.2242276E-1,1.767191E-1,5.212689E-2,-1.9420394E-1,-1.6633939E-3,2.1237674E-1,-1.08281285E-1,-1.7126155E-1,5.3069387E-2,6.1817255E-2,-1.1077706E-1,-3.3990458E-2,2.1919863E-1,2.4994703E-1,-1.4434895E-1,2.6773047E-1,-1.09195136E-1,-1.833482E-1,1.4364265E-1,2.4680363E-1,-1.2589301E-1,1.5076518E-1,-5.8558743E-2,2.1732226E-1,-8.003093E-2,5.6129955E-2,-1.5869516E-1,2.4123822E-1,-1.4798233E-1,1.8386671E-1,8.410643E-2,-5.2014288E-2,-1.808376E-1,1.2883037E-1,-1.9140655E-2,-6.376223E-2,-1.6897026E-1,1.0682098E-1,-1.8410245E-1,3.2310072E-2,-1.2766702E-1,-9.556181E-2,-1.7360123E-1,-6.632676E-2,1.5015556E-1,-2.2433253E-2,-1.5702274E-1,2.3846532E-1,7.682086E-2,-9.895609E-2,1.3381258E-1],"split_indices":[30,5,5,25,18,32,18,25,32,25,25,25,25,32,33,0,7,5,6,26,27,5,10,23,5,23,33,7,30,30,30,26,18,3,18,27,25,32,14,15,24,33,24,5,18,24,24,20,26,24,20,11,7,25,24,5,1,14,11,25,23,0,0,0,0,0,0,0,0,0,0,0,0,0,0,0,0,0,0,0,0,0,0,0,0,0,0,0,0,0,0,0,0,0,0,0,0,0,0,0,0,0,0,0,0,0,0,0,0,0,0,0,0,0,0,0,0,0,0,0,0],"split_type":[0,0,0,0,0,0,0,0,0,0,0,0,0,0,0,0,0,0,0,0,0,0,0,0,0,0,0,0,0,0,0,0,0,0,0,0,0,0,0,0,0,0,0,0,0,0,0,0,0,0,0,0,0,0,0,0,0,0,0,0,0,0,0,0,0,0,0,0,0,0,0,0,0,0,0,0,0,0,0,0,0,0,0,0,0,0,0,0,0,0,0,0,0,0,0,0,0,0,0,0,0,0,0,0,0,0,0,0,0,0,0,0,0,0,0,0,0,0,0,0,0],"sum_hessian":[1.0973675E4,4.779274E3,6.194401E3,3.887612E3,8.916619E2,1.5390176E3,4.6553833E3,2.6729033E3,1.2147087E3,7.29517E2,1.6214493E2,5.887864E2,9.502312E2,4.3490044E3,3.0637888E2,7.994918E0,2.6649084E3,5.555201E2,6.5918866E2,6.698639E1,6.6253064E2,1.275357E2,3.460923E1,2.1481506E2,3.7397134E2,7.350023E2,2.1522885E2,3.2062935E3,1.1427108E3,1.8669023E2,1.1968865E2,1.4491539E3,1.2157544E3,3.6827036E2,1.8724976E2,3.2486612E2,3.3432254E2,1.9770782E1,4.7215603E1,5.7237274E2,9.0157906E1,1.0760866E2,1.9927038E1,4.4829326E0,3.0126299E1,8.345876E1,1.3135631E2,7.2991714E1,3.009796E2,4.6665855E1,6.883365E2,1.2702707E2,8.8201775E1,7.740992E2,2.4321943E3,2.344778E2,9.08233E2,9.9898285E1,8.679194E1,8.023699E1,3.9451656E1,8.1208305E1,1.3679457E3,8.106937E2,4.0506064E2,2.1577168E1,3.4669318E2,1.7418503E2,1.3064716E1,3.2311394E1,2.9255472E2,2.512475E2,8.307505E1,1.8432848E1,1.3379359E0,3.942591E1,7.789693E0,5.6204913E2,1.0323563E1,2.6514336E1,6.364357E1,1.0182032E1,9.742663E1,6.805708E0,1.312133E1,3.324844E0,1.1580887E0,2.715762E1,2.9686787E0,3.48575E0,7.9973015E1,9.8203316E1,3.3152992E1,3.32217E0,6.966955E1,6.5472517E0,2.9443237E2,3.7548015E0,4.2911053E1,4.8903314E2,1.9930333E2,8.68909E1,4.0136177E1,3.946467E1,4.8737106E1,1.0000158E2,6.740976E2,1.5597281E0,2.4306345E3,1.3917174E2,9.530607E1,3.8246143E2,5.2577155E2,4.1244766E1,5.8653515E1,2.0610037E1,6.618191E1,7.13769E1,8.860097E0,2.037455E1,1.9077108E1],"tree_param":{"num_deleted":"0","num_feature":"34","num_nodes":"121","size_leaf_vector":"0"}},{"base_weights":[6.2660053E-3,-3.2764232E-1,3.859372E-1,-4.647165E-1,-9.390493E-2,1.1705122E-1,5.131882E-1,-5.620052E-1,-3.4140402E-1,1.2987125E-2,-4.148278E-1,-3.6470616E-1,2.0464826E-1,1.6289839E-1,5.740316E-1,-5.700135E-1,1.5727526E-1,-5.1182365E-1,-1.8992545E-1,-4.1210517E-1,1.193428E-1,-4.6428636E-1,9.487725E-2,-4.0372768E-1,9.4277006E-1,-2.6891032E-1,3.0985177E-1,5.0812817E-1,-6.0343776E-2,6.23856E-1,3.1030586E-1,-5.721565E-1,3.0167156E-1,-5.3497225E-1,7.3581773E-1,-5.431481E-1,-3.1691447E-1,-4.8181236E-1,-6.107843E-2,-5.8316894E-2,-4.9410272E-1,-2.407727E-1,2.4998096E-1,-4.964974E-1,-5.124777E-3,-6.5152955E-1,3.5643792E-1,-4.4154117E-1,1.6119657E-1,2.3448479E-1,-4.1749743E-1,4.5216742E-1,7.9861715E-2,1.5738459E-1,6.2664884E-1,-3.103474E-1,3.1385338E-1,5.36543E-1,7.159121E-1,8.019085E-2,5.917748E-1,-6.11422E-1,-5.3769773E-1,-4.5366544E-1,1.0625075E0,-6.1300516E-1,1.2702597E-2,-1.5868667E-1,1.1111937E0,-5.528452E-1,-6.742625E-3,-1.4906037E-1,-5.6046396E-1,-5.3773683E-1,5.298231E-2,1.449081E-2,-4.8592475E-1,6.533052E-1,-2.848095E-1,-5.140692E-1,6.890343E-1,-1.225699E-1,-5.231455E-1,-2.4666813E-1,3.8214245E-1,-5.285395E-1,-2.8990376E-1,-1.7134638E-1,8.3175975E-1,6.723535E-1,-3.081602E-1,-8.9854956E-2,-5.046012E-1,-3.194702E-1,8.3264965E-1,-2.885536E-1,3.8024542E-1,-4.3349314E-1,8.6772066E-1,1.6387898E-1,5.9130937E-1,1.6410254E-1,-3.8921815E-1,-3.5192713E-1,4.243969E-1,9.5724297E-4,6.616935E-1,4.470876E-2,-4.2398855E-1,1.0943719E-1,6.4243555E-1,2.5443617E-1,5.865657E-1,6.775999E-1,8.149739E-1,-3.5602618E-2,4.5857033E-1,1.482701E-1,6.628755E-1],"categories":[],"categories_nodes":[],"categories_segments":[],"categories_sizes":[],"default_left":[true,true,true,true,true,true,true,true,true,true,true,true,true,true,true,true,true,true,true,true,true,true,true,true,false,true,true,true,true,true,true,true,true,true,true,true,true,true,true,true,true,true,true,true,true,false,true,true,true,true,true,true,true,true,true,true,true,true,true,true,true,false,false,false,false,false,false,false,false,false,false,false,false,false,false,false,false,false,false,false,false,false,false,false,false,false,false,false,false,false,false,false,false,false,false,false,false,false,false,false,false,false,false,false,false,false,false,false,false,false,false,false,false,false,false,false,false,false,false],"id":7,"left_children":[1,3,5,7,9,11,13,15,17,19,21,23,25,27,29,31,33,35,37,39,41,43,45,47,-1,49,51,53,55,57,59,61,63,65,67,69,71,73,75,77,79,81,83,85,87,-1,89,91,93,95,97,99,101,103,105,107,109,111,113,115,117,-1,-1,-1,-1,-1,-1,-1,-1,-1,-1,-1,-1,-1,-1,-1,-1,-1,-1,-1,-1,-1,-1,-1,-1,-1,-1,-1,-1,-1,-1,-1,-1,-1,-1,-1,-1,-1,-1,-1,-1,-1,-1,-1,-1,-1,-1,-1,-1,-1,-1,-1,-1,-1,-1,-1,-1,-1,-1],"loss_changes":[1.4266837E3,1.9179791E2,1.8011987E2,4.5084778E1,7.597731E1,7.1514915E1,7.608014E1,1.2232544E1,4.2935074E1,7.520265E1,1.3994255E1,1.3687279E1,7.147852E1,4.0902485E1,3.9814392E1,4.067566E0,1.0003937E1,4.613571E0,3.3220856E1,9.628189E0,6.2648422E1,7.4605026E0,9.950219E0,5.496113E0,0E0,1.9622272E1,3.835872E1,8.563248E0,3.0310078E1,2.0191956E1,3.1418827E1,2.486023E0,3.7969456E0,4.9940872E-1,4.706795E0,3.5016632E0,4.451456E0,8.121853E0,1.9735832E1,1.0464349E1,6.735222E0,1.17734375E1,6.4205154E1,2.9680328E0,4.88451E0,0E0,8.081955E0,5.2393227E0,5.6444845E0,4.693842E0,4.526783E0,2.8961853E1,1.7830622E1,7.4877687E0,3.4069557E0,7.8510456E0,8.651165E0,1.8447327E1,4.1658325E0,1.1778038E1,6.787567E0,0E0,0E0,0E0,0E0,0E0,0E0,0E0,0E0,0E0,0E0,0E0,0E0,0E0,0E0,0E0,0E0,0E0,0E0,0E0,0E0,0E0,0E0,0E0,0E0,0E0,0E0,0E0,0E0,0E0,0E0,0E0,0E0,0E0,0E0,0E0,0E0,0E0,0E0,0E0,0E0,0E0,0E0,0E0,0E0,0E0,0E0,0E0,0E0,0E0,0E0,0E0,0E0,0E0,0E0,0E0,0E0,0E0,0E0],"parents":[2147483647,0,0,1,1,2,2,3,3,4,4,5,5,6,6,7,7,8,8,9,9,10,10,11,11,12,12,13,13,14,14,15,15,16,16,17,17,18,18,19,19,20,20,21,21,22,22,23,23,25,25,26,26,27,27,28,28,29,29,30,30,31,31,32,32,33,33,34,34,35,35,36,36,37,37,38,38,39,39,40,40,41,41,42,42,43,43,44,44,46,46,47,47,48,48,49,49,50,50,51,51,52,52,53,53,54,54,55,55,56,56,57,57,58,58,59,59,60,60],"right_children":[2,4,6,8,10,12,14,16,18,20,22,24,26,28,30,32,34,36,38,40,42,44,46,48,-1,50,52,54,56,58,60,62,64,66,68,70,72,74,76,78,80,82,84,86,88,-1,90,92,94,96,98,100,102,104,106,108,110,112,114,116,118,-1,-1,-1,-1,-1,-1,-1,-1,-1,-1,-1,-1,-1,-1,-1,-1,-1,-1,-1,-1,-1,-1,-1,-1,-1,-1,-1,-1,-1,-1,-1,-1,-1,-1,-1,-1,-1,-1,-1,-1,-1,-1,-1,-1,-1,-1,-1,-1,-1,-1,-1,-1,-1,-1,-1,-1,-1,-1],"split_conditions":[1.0955E-1,1.0915E-1,1.4655E-1,7.675E-2,1.7385E-1,1.0415E-1,8.1583E0,1.8157051E1,8.93615E0,7.565E-2,1.376E-1,1.3354999E-1,1.225245E1,8.7235E-1,1.6945E-1,3.650815E1,7.395E-2,-6.9500003E-3,1.7954999E-1,3.4050003E-2,7.005E-2,9.695E-2,7.585E-2,1.3075E-1,2.8283104E-1,7.3605E-1,8.442E-1,1.4735E-1,1.18599996E-1,1.4525E-1,1.08950004E-1,2.016E-1,1.549E-1,3.6756752E1,-1.75E-2,7.305E-2,7.7115E-1,6.87225E0,9.541E-1,7.3185E-1,8.43945E0,9.7819996E-1,1.1235E-1,5.3549998E-2,4.36225E0,-1.9545887E-1,2.112E-1,9.115E-2,1.267E-1,9.7795E-1,1.504E-1,1.2125E-1,2.0969999E-1,1.21151E1,-6.225E-2,7.069E-1,1.752E-1,1.397E-1,-1.25E-3,2.497825E1,1.27813E1,-1.834266E-1,-1.6130933E-1,-1.3609964E-1,3.1875226E-1,-1.8390155E-1,3.8107794E-3,-4.7606003E-2,3.333581E-1,-1.6585356E-1,-2.0227877E-3,-4.4718113E-2,-1.6813919E-1,-1.6132106E-1,1.5894694E-2,4.3472433E-3,-1.4577743E-1,1.9599156E-1,-8.5442856E-2,-1.5422076E-1,2.067103E-1,-3.677097E-2,-1.5694365E-1,-7.400044E-2,1.1464274E-1,-1.5856186E-1,-8.6971134E-2,-5.1403917E-2,2.4952793E-1,2.0170607E-1,-9.2448056E-2,-2.6956487E-2,-1.5138036E-1,-9.5841065E-2,2.497949E-1,-8.656608E-2,1.1407363E-1,-1.3004795E-1,2.6031622E-1,4.9163695E-2,1.7739281E-1,4.9230766E-2,-1.1676545E-1,-1.0557815E-1,1.2731908E-1,2.871729E-4,1.9850807E-1,1.3412628E-2,-1.2719657E-1,3.283116E-2,1.9273068E-1,7.6330855E-2,1.759697E-1,2.0327999E-1,2.4449217E-1,-1.0680785E-2,1.3757111E-1,4.448103E-2,1.9886266E-1],"split_indices":[24,29,29,28,18,33,1,12,1,28,13,30,12,22,18,2,18,26,14,25,13,30,28,25,0,32,32,19,25,30,25,14,14,2,16,25,32,6,32,32,6,32,33,25,6,0,33,19,29,9,25,33,18,12,21,27,30,33,26,1,12,0,0,0,0,0,0,0,0,0,0,0,0,0,0,0,0,0,0,0,0,0,0,0,0,0,0,0,0,0,0,0,0,0,0,0,0,0,0,0,0,0,0,0,0,0,0,0,0,0,0,0,0,0,0,0,0,0,0],"split_type":[0,0,0,0,0,0,0,0,0,0,0,0,0,0,0,0,0,0,0,0,0,0,0,0,0,0,0,0,0,0,0,0,0,0,0,0,0,0,0,0,0,0,0,0,0,0,0,0,0,0,0,0,0,0,0,0,0,0,0,0,0,0,0,0,0,0,0,0,0,0,0,0,0,0,0,0,0,0,0,0,0,0,0,0,0,0,0,0,0,0,0,0,0,0,0,0,0,0,0,0,0,0,0,0,0,0,0,0,0,0,0,0,0,0,0,0,0,0,0],"sum_hessian":[1.1251637E4,5.986683E3,5.2649536E3,3.7730234E3,2.2136597E3,1.6918767E3,3.5730771E3,2.1070698E3,1.6659536E3,1.6612837E3,5.52376E2,2.5981406E2,1.4320626E3,5.2932184E2,3.0437551E3,2.0840737E3,2.2996065E1,7.828435E2,8.831101E2,3.3188797E2,1.3293956E3,5.03599E2,4.8776962E1,2.5295583E2,6.8582287E0,2.6002792E2,1.1720348E3,2.0736655E2,3.219553E2,2.5589414E3,4.8481387E2,2.0793057E3,4.768217E0,1.0503523E1,1.2492543E1,6.729112E2,1.0993228E2,2.6960776E2,6.135024E2,6.2770092E1,2.691179E2,3.5365945E2,9.757362E2,4.7051053E2,3.308849E1,1.2270402E1,3.650656E1,2.3729105E2,1.5664781E1,5.9128765E1,2.0089915E2,7.23422E2,4.4861273E2,5.2961887E1,1.5440466E2,1.931087E2,1.2884657E2,1.316809E3,1.2421323E3,2.6744724E2,2.1736665E2,9.6404266E2,1.115263E3,2.5953515E0,2.1728656E0,9.089203E0,1.4143192E0,3.863426E0,8.629117E0,6.609323E2,1.1978894E1,6.6033844E1,4.3898438E1,2.4407854E2,2.5529236E1,5.216756E2,9.182678E1,1.4699854E1,4.8070236E1,2.652078E2,3.9101079E0,2.5031169E2,1.0334778E2,2.0489516E2,7.7084106E2,4.0598508E2,6.452546E1,2.8268976E1,4.8195133E0,2.4736458E1,1.17701025E1,3.644758E1,2.0084346E2,9.434911E0,6.22987E0,1.2673244E1,4.645552E1,1.9908408E2,1.8150713E0,2.3620541E2,4.872166E2,3.8086447E2,6.774828E1,1.8106564E1,3.4855324E1,8.24394E0,1.4616072E2,4.696854E1,1.4614017E2,8.0252975E1,4.85936E1,1.992439E2,1.1175651E3,9.013679E2,3.4076443E2,2.0547324E2,6.1973984E1,3.0458834E1,1.8690782E2],"tree_param":{"num_deleted":"0","num_feature":"34","num_nodes":"119","size_leaf_vector":"0"}},{"base_weights":[-3.8853942E-3,3.4634024E-1,-3.8474584E-1,-2.693942E-1,5.6642634E-1,-2.1498594E-1,-4.8228514E-1,-4.7223294E-1,3.8597515E-1,6.7881876E-1,2.2680606E-1,-4.484415E-1,-5.6631662E-2,-5.707706E-1,-4.288823E-1,2.1227962E-1,-5.17395E-1,6.1917996E-1,-2.8879017E-1,7.853744E-1,5.4584175E-1,-6.394276E-2,3.880853E-1,2.7683324E-1,-4.7542372E-1,-1.8045527E-1,3.0788517E-1,-5.750903E-1,9.02113E-1,-3.9067766E-1,-5.6358176E-1,5.67141E-1,-2.7265063E-1,-3.9807938E-2,-5.402162E-1,6.646174E-1,-4.9931064E-1,7.506628E-1,-3.5916921E-1,2.1193081E-1,7.931021E-1,5.639655E-1,-4.1838428E-1,4.6570337E-1,-2.3118852E-1,6.858751E-1,2.334247E-1,5.1938593E-1,-6.2838453E-1,-5.116429E-1,-1.4458506E-1,6.7449375E-3,-3.0944708E-1,3.9225346E-1,-5.7615614E-1,-4.2414406E-1,-5.9233725E-1,-3.2862785E-1,-4.9140397E-1,5.880076E-1,-5.6767654E-1,9.384669E-1,1.2364703E-1,2.0941991E-2,-5.7804275E-1,7.6364136E-1,-6.367645E-1,-5.7002336E-1,-3.546194E-1,7.1322316E-1,-2.8483573E-1,-7.319161E-1,4.0896443E-1,1.0672517E0,-3.7625068E-1,-5.2869785E-1,-1.3578682E-1,-5.070209E-1,6.3182825E-1,8.0006623E-1,3.325236E-1,5.934161E-1,5.8153406E-2,3.3609402E-1,-6.5822864E-1,6.1422634E-1,-1.1777347E-1,1.0263147E-1,-3.93971E-1,7.0258886E-1,-3.861224E-1,7.079979E-1,7.1332745E-2,-4.1196895E-1,7.617412E-1,-2.4445798E-1,-5.516142E-1,2.50908E-1,-5.131663E-1,-3.2438803E-1,2.1085894E-1,3.9750785E-1,-3.3306956E-1,2.2811055E-1,8.89991E-1,4.118124E-1,-6.46406E-1,3.1249765E-1,-4.9295488E-1,5.559372E-1,-5.9401405E-1,-5.48459E-1,-2.9508013E-1,-4.974536E-1,1.2312963E0,-5.696626E-1,1.5006441E-1],"categories":[],"categories_nodes":[],"categories_segments":[],"categories_sizes":[],"default_left":[true,true,true,true,true,true,true,true,true,true,true,true,true,true,true,true,true,true,true,true,true,true,true,true,true,true,true,true,false,true,true,true,true,true,true,true,true,true,true,true,true,true,true,true,true,true,true,true,false,true,true,true,true,true,true,true,true,true,true,false,true,false,false,false,false,false,false,false,false,false,false,false,false,false,false,false,false,false,false,false,false,false,false,false,false,false,false,false,false,false,false,false,false,false,false,false,false,false,false,false,false,false,false,false,false,false,false,false,false,false,false,false,false,false,false,false,false],"id":8,"left_children":[1,3,5,7,9,11,13,15,17,19,21,23,25,27,29,31,33,35,37,39,41,43,45,47,49,51,53,55,-1,57,59,61,63,65,67,69,71,73,75,77,79,81,83,85,87,89,91,93,-1,95,97,99,101,103,105,107,109,111,113,-1,115,-1,-1,-1,-1,-1,-1,-1,-1,-1,-1,-1,-1,-1,-1,-1,-1,-1,-1,-1,-1,-1,-1,-1,-1,-1,-1,-1,-1,-1,-1,-1,-1,-1,-1,-1,-1,-1,-1,-1,-1,-1,-1,-1,-1,-1,-1,-1,-1,-1,-1,-1,-1,-1,-1,-1,-1],"loss_changes":[1.4720267E3,7.792394E2,8.743408E1,2.0151334E2,1.6152136E2,7.135895E1,1.5617004E1,3.5877563E1,5.659314E1,4.465735E1,4.948033E1,1.5401062E1,5.2037285E1,8.537567E0,1.0573151E1,1.2599716E1,1.1811523E1,1.388826E1,7.055678E0,7.649536E0,2.5029053E1,3.3516556E1,3.1089966E1,6.6100206E0,8.944763E0,2.0775667E1,2.2033773E1,3.0219116E0,0E0,1.0071045E1,2.5084534E0,6.8146086E0,2.812653E0,2.4751623E1,5.5296326E0,1.2052429E1,2.6199694E0,2.6156733E0,3.243926E0,7.8138685E0,5.316162E0,2.0716217E1,5.061663E0,7.944916E0,1.5652946E1,4.417671E0,3.441913E1,5.532085E0,0E0,7.1058807E0,1.1157944E1,2.3855354E1,8.638561E0,2.1652576E1,2.062254E0,6.8675957E0,2.4979553E0,7.331856E0,7.0955963E0,0E0,7.41272E-1,0E0,0E0,0E0,0E0,0E0,0E0,0E0,0E0,0E0,0E0,0E0,0E0,0E0,0E0,0E0,0E0,0E0,0E0,0E0,0E0,0E0,0E0,0E0,0E0,0E0,0E0,0E0,0E0,0E0,0E0,0E0,0E0,0E0,0E0,0E0,0E0,0E0,0E0,0E0,0E0,0E0,0E0,0E0,0E0,0E0,0E0,0E0,0E0,0E0,0E0,0E0,0E0,0E0,0E0,0E0,0E0],"parents":[2147483647,0,0,1,1,2,2,3,3,4,4,5,5,6,6,7,7,8,8,9,9,10,10,11,11,12,12,13,13,14,14,15,15,16,16,17,17,18,18,19,19,20,20,21,21,22,22,23,23,24,24,25,25,26,26,27,27,29,29,30,30,31,31,32,32,33,33,34,34,35,35,36,36,37,37,38,38,39,39,40,40,41,41,42,42,43,43,44,44,45,45,46,46,47,47,49,49,50,50,51,51,52,52,53,53,54,54,55,55,56,56,57,57,58,58,60,60],"right_children":[2,4,6,8,10,12,14,16,18,20,22,24,26,28,30,32,34,36,38,40,42,44,46,48,50,52,54,56,-1,58,60,62,64,66,68,70,72,74,76,78,80,82,84,86,88,90,92,94,-1,96,98,100,102,104,106,108,110,112,114,-1,116,-1,-1,-1,-1,-1,-1,-1,-1,-1,-1,-1,-1,-1,-1,-1,-1,-1,-1,-1,-1,-1,-1,-1,-1,-1,-1,-1,-1,-1,-1,-1,-1,-1,-1,-1,-1,-1,-1,-1,-1,-1,-1,-1,-1,-1,-1,-1,-1,-1,-1,-1,-1,-1,-1,-1,-1],"split_conditions":[1.0955E-1,3.195E-2,1.3694999E-1,7.1714E0,2.7995002E-1,9.815E-2,8.305E-2,7.132E-1,2.3859999E-1,7.565E-2,6.4449996E-2,6.199E-1,7.6485E-1,6E-4,9.009E-1,-3.06E-2,-6.48E-2,1.171E-1,4.92807E1,1.347105E1,8.20875E0,7.9695E-1,8.44E-2,1.1565E-1,5.5600002E-2,1.2055E-1,1.4504999E-1,1.4195001E-1,2.706339E-1,1.7875001E-1,8.315E-2,3.785E-2,-1.54E-2,5.195E-2,1.722229E2,3.208416E2,9.635E-1,3.797E-1,1.695E-2,4.16E-2,8.174999E0,1.2485E-1,8.2499996E-2,7.823E-1,6.7E-2,1.342E-1,2.48915E0,4.5450002E-2,-1.8851537E-1,2.2275001E-1,9.8644996E-1,6.278E-1,1.7815E-1,-2.6500002E-3,7.153E-1,7.29E-1,2.2065E0,-7.185E-2,6.481E-1,1.764023E-1,3.9020002E-1,2.815401E-1,3.709411E-2,6.282598E-3,-1.7341283E-1,2.2909242E-1,-1.9102937E-1,-1.71007E-1,-1.0638583E-1,2.1396695E-1,-8.5450724E-2,-2.1957485E-1,1.2268933E-1,3.2017553E-1,-1.1287521E-1,-1.5860936E-1,-4.0736046E-2,-1.5210627E-1,1.8954848E-1,2.4001987E-1,9.975709E-2,1.7802483E-1,1.7446022E-2,1.0082821E-1,-1.974686E-1,1.8426791E-1,-3.5332043E-2,3.0789442E-2,-1.181913E-1,2.1077667E-1,-1.15836725E-1,2.1239938E-1,2.1399824E-2,-1.23590685E-1,2.2852238E-1,-7.33374E-2,-1.6548428E-1,7.5272396E-2,-1.539499E-1,-9.7316414E-2,6.325769E-2,1.1925236E-1,-9.992088E-2,6.8433166E-2,2.669973E-1,1.23543724E-1,-1.939218E-1,9.37493E-2,-1.4788647E-1,1.6678116E-1,-1.7820422E-1,-1.645377E-1,-8.852404E-2,-1.4923608E-1,3.693889E-1,-1.7089878E-1,4.5019325E-2],"split_indices":[23,20,23,5,15,19,30,3,14,28,30,3,22,26,17,26,26,28,8,11,6,3,23,28,20,23,30,23,0,19,30,24,26,29,7,7,32,15,20,20,6,30,30,32,28,30,6,24,0,15,9,32,15,26,3,3,1,31,14,0,16,0,0,0,0,0,0,0,0,0,0,0,0,0,0,0,0,0,0,0,0,0,0,0,0,0,0,0,0,0,0,0,0,0,0,0,0,0,0,0,0,0,0,0,0,0,0,0,0,0,0,0,0,0,0,0,0],"split_type":[0,0,0,0,0,0,0,0,0,0,0,0,0,0,0,0,0,0,0,0,0,0,0,0,0,0,0,0,0,0,0,0,0,0,0,0,0,0,0,0,0,0,0,0,0,0,0,0,0,0,0,0,0,0,0,0,0,0,0,0,0,0,0,0,0,0,0,0,0,0,0,0,0,0,0,0,0,0,0,0,0,0,0,0,0,0,0,0,0,0,0,0,0,0,0,0,0,0,0,0,0,0,0,0,0,0,0,0,0,0,0,0,0,0,0,0,0],"sum_hessian":[1.1033753E4,5.748098E3,5.2856543E3,1.5135155E3,4.2345825E3,1.9299408E3,3.3557139E3,1.1560072E3,3.5750827E2,3.1809084E3,1.0536742E3,7.7926654E2,1.1506742E3,1.2593518E3,2.096362E3,7.132024E1,1.084687E3,2.6574637E2,9.1761894E1,1.763164E3,1.4177445E3,3.761561E2,6.7751807E2,2.7618868E1,7.5164764E2,8.592862E2,2.9138806E2,1.256277E3,3.0748398E0,1.6361914E3,4.6017053E2,4.1085342E1,3.0234892E1,4.9592434E1,1.0350946E3,2.557621E2,9.984261E0,5.2060423E0,8.6555855E1,2.3822344E1,1.7393416E3,1.3919954E3,2.5749043E1,8.984472E1,2.8631137E2,2.3042114E2,4.4709695E2,2.2118465E1,5.5004025E0,6.769868E2,7.466087E1,3.5093588E2,5.0835028E2,2.6651004E2,2.4878029E1,1.3144606E2,1.1248309E3,1.0151175E3,6.210739E2,1.1252084E0,4.5904532E2,2.175466E1,1.9330683E1,1.5890134E1,1.4344758E1,2.1020937E1,2.8571495E1,8.900756E2,1.4501895E2,2.435431E2,1.2218992E1,8.103227E0,1.8810337E0,4.1055846E0,1.1004577E0,4.843269E1,3.8123165E1,8.706876E0,1.5115469E1,1.7127076E3,2.663402E1,1.3152429E3,7.675247E1,6.1142254E0,1.9634817E1,7.15732E1,1.8271526E1,9.39718E1,1.9233958E2,2.2722305E2,3.198083E0,1.1297133E2,3.341256E2,4.422653E0,1.7695812E1,8.902467E1,5.879621E2,3.6169613E1,3.849126E1,1.336031E2,2.173328E2,1.592522E1,4.9242505E2,2.0151358E2,6.499645E1,1.3287575E0,2.354927E1,1.0927056E1,1.20519E2,1.1581944E0,1.1236727E3,1.3237083E2,8.827467E2,6.1960925E2,1.4646645E0,4.5798438E2,1.0609605E0],"tree_param":{"num_deleted":"0","num_feature":"34","num_nodes":"117","size_leaf_vector":"0"}},{"base_weights":[-5.133794E-3,3.5761324E-1,-3.0060723E-1,4.947092E-1,-2.596339E-1,2.2560542E-2,-4.7500917E-1,5.4752105E-1,3.1366777E-1,-3.9936778E-1,2.6321745E-1,-2.3926453E-1,2.5455502E-1,-5.350289E-1,-4.2145938E-2,5.7061183E-1,2.0317549E-1,1.1860201E-1,5.6223273E-1,2.4811491E-2,-4.979288E-1,4.2938763E-1,-3.0915344E-1,-1.3351799E-2,-4.4460773E-1,3.7242565E-1,-7.257818E-2,-5.493379E-1,-2.792337E-1,3.9999625E-1,-1.9268717E-1,-1.753262E-1,5.7644385E-1,-2.2841446E-2,4.5141664E-1,-1.5139022E-2,3.9967194E-1,-6.283681E-2,5.826305E-1,-2.0296358E-1,4.6954617E-1,-5.4094505E-1,-2.2432089E-1,3.4765393E-2,5.042194E-1,-4.271544E-1,4.4784287E-1,-4.0883267E-1,1.3493769E-1,-2.961631E-1,-5.3826845E-1,-1.2820897E-1,4.4719237E-1,-3.1679988E-1,1.9981748E-1,-4.8757362E-1,-5.729415E-1,1.208006E0,-3.4280208E-1,8.229621E-2,6.290817E-1,-3.598506E-1,8.966199E-2,2.1675979E-1,-7.8055173E-1,6.121792E-1,4.9260506E-1,2.73348E-1,-3.5163963E-1,5.425443E-1,-9.8555684E-2,2.6692173E-1,-2.734203E-1,5.554524E-1,5.6242246E-2,-7.029656E-1,5.3823555E-1,5.9958136E-1,-4.4640696E-1,-4.5858446E-1,2.2541244E-1,9.933335E-1,-1.7858511E-1,6.1451368E-2,-5.5107296E-1,-9.831584E-3,-4.9321938E-1,-6.34209E-1,2.9423207E-1,5.689757E-1,-1.6118762E-1,5.101973E-1,-4.9275875E-1,6.626822E-1,-1.2646738E-1,4.790802E-1,-4.608543E-1,-1.21377245E-1,3.8042465E-1,4.0609977E-1,-3.51147E-1,-5.4493934E-1,6.019887E-1,4.8854473E-1,-3.4311295E-1,6.5940523E-1,3.770057E-1,3.6944312E-1,-4.05485E-1,5.831697E-1,-5.904828E-2,1.0134457E0,-4.9380726E-1,-2.6584315E-1,-5.7756954E-1,1.4158708E0,4.817256E-1,2.576639E-1,-4.4331717E-1,2.8598008E-1,-5.693315E-1,7.36647E-1,9.391977E-2,-4.3119726E-1,2.727802E-1,-3.456444E-2,5.503702E-1],"categories":[],"categories_nodes":[],"categories_segments":[],"categories_sizes":[],"default_left":[true,true,true,true,true,true,true,true,true,true,true,true,true,true,true,true,true,true,true,true,true,true,true,true,true,true,true,true,true,true,true,true,true,true,true,true,true,true,true,true,true,true,true,true,true,true,true,true,true,true,true,true,true,true,true,true,true,true,true,true,true,true,true,false,false,false,false,false,false,false,false,false,false,false,false,false,false,false,false,false,false,false,false,false,false,false,false,false,false,false,false,false,false,false,false,false,false,false,false,false,false,false,false,false,false,false,false,false,false,false,false,false,false,false,false,false,false,false,false,false,false,false,false,false,false,false,false],"id":9,"left_children":[1,3,5,7,9,11,13,15,17,19,21,23,25,27,29,31,33,35,37,39,41,43,45,47,49,51,53,55,57,59,61,63,65,67,69,71,73,75,77,79,81,83,85,87,89,91,93,95,97,99,101,103,105,107,109,111,113,115,117,119,121,123,125,-1,-1,-1,-1,-1,-1,-1,-1,-1,-1,-1,-1,-1,-1,-1,-1,-1,-1,-1,-1,-1,-1,-1,-1,-1,-1,-1,-1,-1,-1,-1,-1,-1,-1,-1,-1,-1,-1,-1,-1,-1,-1,-1,-1,-1,-1,-1,-1,-1,-1,-1,-1,-1,-1,-1,-1,-1,-1,-1,-1,-1,-1,-1,-1],"loss_changes":[1.065058E3,3.7759833E2,3.0865775E2,3.472931E1,5.938202E1,1.16710945E2,9.238489E1,2.234314E1,4.001725E1,2.6795769E1,1.6464142E1,4.1870964E1,3.930742E1,1.1279602E1,2.8978348E1,1.161438E1,1.0056763E1,1.7465614E1,4.667885E0,1.2427744E1,5.9976044E0,3.9245663E0,3.6942756E0,2.5323404E1,6.4149323E0,2.8094238E1,1.8069283E1,4.0317383E0,1.6250755E1,7.9987755E0,1.5352675E1,5.223178E0,7.5667114E0,9.3164015E0,4.3326473E0,2.3070532E1,7.982319E0,5.1423106E0,6.4050903E0,8.995708E0,1.4277899E1,2.7704773E0,4.1674633E0,4.066582E0,4.92375E0,2.3691955E0,7.965665E-1,5.659603E0,1.9810963E1,7.291931E0,2.5241013E0,1.3170782E1,9.461548E0,8.85879E0,1.2792848E1,8.213516E0,2.8791504E0,3.8790512E-1,9.857046E0,6.4665422E0,3.6218643E0,9.329241E0,6.9733114E0,0E0,0E0,0E0,0E0,0E0,0E0,0E0,0E0,0E0,0E0,0E0,0E0,0E0,0E0,0E0,0E0,0E0,0E0,0E0,0E0,0E0,0E0,0E0,0E0,0E0,0E0,0E0,0E0,0E0,0E0,0E0,0E0,0E0,0E0,0E0,0E0,0E0,0E0,0E0,0E0,0E0,0E0,0E0,0E0,0E0,0E0,0E0,0E0,0E0,0E0,0E0,0E0,0E0,0E0,0E0,0E0,0E0,0E0,0E0,0E0,0E0,0E0,0E0,0E0],"parents":[2147483647,0,0,1,1,2,2,3,3,4,4,5,5,6,6,7,7,8,8,9,9,10,10,11,11,12,12,13,13,14,14,15,15,16,16,17,17,18,18,19,19,20,20,21,21,22,22,23,23,24,24,25,25,26,26,27,27,28,28,29,29,30,30,31,31,32,32,33,33,34,34,35,35,36,36,37,37,38,38,39,39,40,40,41,41,42,42,43,43,44,44,45,45,46,46,47,47,48,48,49,49,50,50,51,51,52,52,53,53,54,54,55,55,56,56,57,57,58,58,59,59,60,60,61,61,62,62],"right_children":[2,4,6,8,10,12,14,16,18,20,22,24,26,28,30,32,34,36,38,40,42,44,46,48,50,52,54,56,58,60,62,64,66,68,70,72,74,76,78,80,82,84,86,88,90,92,94,96,98,100,102,104,106,108,110,112,114,116,118,120,122,124,126,-1,-1,-1,-1,-1,-1,-1,-1,-1,-1,-1,-1,-1,-1,-1,-1,-1,-1,-1,-1,-1,-1,-1,-1,-1,-1,-1,-1,-1,-1,-1,-1,-1,-1,-1,-1,-1,-1,-1,-1,-1,-1,-1,-1,-1,-1,-1,-1,-1,-1,-1,-1,-1,-1,-1,-1,-1,-1,-1,-1,-1,-1,-1,-1],"split_conditions":[5.995E-2,1.659845E1,1.24977E1,5.0918503E0,1.5185E-1,8.8045E-1,1.6385001E-1,6.415E-2,1.5904999E-1,2.465E-2,4.22E-2,7.595E-2,1.343E-1,2.1125E-1,4.845E-2,1.4902999E0,8.4125E-1,7.436E-1,9.6774995E-1,-3.53E-2,7.288E-1,3.0825E-1,2.3789999E-1,9.5750004E-2,1.38927E1,1.2705001E-1,2.1065E-1,6.4923E0,1.7144999E-1,8.624E-1,5.0715005E-1,4.115E-2,3.785E-2,-1.59E-2,1.043E-1,2.1949999E-2,1.09400004E-1,9.8080003E-1,9.48E-2,3.91E-2,2.3069999E-1,2.6E-3,8.46E0,4.32545E0,1.1305E-1,9.792E-1,1.3505E-1,5.3000003E-2,1.1625E-1,-6.37E-2,1.2481251E1,5.2100003E-2,5.0713997E0,1.32166E1,-4.715E-2,2.15E-3,1.525E-2,8.3239996E-1,1.3345E-1,1.087E-1,1.0705E-1,2.2775E-1,2.6255E-1,6.502794E-2,-2.3416553E-1,1.8365377E-1,1.4778152E-1,8.2004406E-2,-1.0549189E-1,1.627633E-1,-2.9566707E-2,8.007652E-2,-8.2026094E-2,1.6663572E-1,1.6872674E-2,-2.108897E-1,1.6147067E-1,1.7987442E-1,-1.339221E-1,-1.3757534E-1,6.7623734E-2,2.9800007E-1,-5.3575534E-2,1.8435411E-2,-1.6532189E-1,-2.9494753E-3,-1.4796582E-1,-1.902627E-1,8.826962E-2,1.7069271E-1,-4.8356287E-2,1.5305918E-1,-1.4782763E-1,1.9880466E-1,-3.7940215E-2,1.4372407E-1,-1.382563E-1,-3.6413174E-2,1.141274E-1,1.21829934E-1,-1.053441E-1,-1.634818E-1,1.805966E-1,1.4656343E-1,-1.0293389E-1,1.9782157E-1,1.1310171E-1,1.1083294E-1,-1.216455E-1,1.7495091E-1,-1.7714486E-2,3.0403373E-1,-1.4814219E-1,-7.975295E-2,-1.7327087E-1,4.2476127E-1,1.4451769E-1,7.729918E-2,-1.3299516E-1,8.5794024E-2,-1.7079946E-1,2.2099411E-1,2.8175931E-2,-1.2935919E-1,8.183406E-2,-1.03693325E-2,1.6511106E-1],"split_indices":[30,11,1,5,18,32,18,25,18,30,25,25,30,33,25,6,22,22,9,21,22,15,18,23,11,23,23,5,29,22,15,30,30,26,25,25,24,32,25,19,14,25,5,6,24,4,24,24,18,21,1,25,1,11,21,25,25,17,24,24,30,33,33,0,0,0,0,0,0,0,0,0,0,0,0,0,0,0,0,0,0,0,0,0,0,0,0,0,0,0,0,0,0,0,0,0,0,0,0,0,0,0,0,0,0,0,0,0,0,0,0,0,0,0,0,0,0,0,0,0,0,0,0,0,0,0,0],"split_type":[0,0,0,0,0,0,0,0,0,0,0,0,0,0,0,0,0,0,0,0,0,0,0,0,0,0,0,0,0,0,0,0,0,0,0,0,0,0,0,0,0,0,0,0,0,0,0,0,0,0,0,0,0,0,0,0,0,0,0,0,0,0,0,0,0,0,0,0,0,0,0,0,0,0,0,0,0,0,0,0,0,0,0,0,0,0,0,0,0,0,0,0,0,0,0,0,0,0,0,0,0,0,0,0,0,0,0,0,0,0,0,0,0,0,0,0,0,0,0,0,0,0,0,0,0,0,0],"sum_hessian":[9.934896E3,4.459655E3,5.475242E3,3.6493098E3,8.1034485E2,1.9194191E3,3.5558232E3,2.823607E3,8.2570276E2,6.39636E2,1.7070885E2,9.0172076E2,1.01769824E3,3.1226135E3,4.3320972E2,2.6455474E3,1.7805971E2,4.6346637E2,3.6223636E2,1.2074242E2,5.1889355E2,1.3249332E2,3.8215527E1,4.298629E2,4.7185785E2,7.480331E2,2.6966516E2,2.9561035E3,1.6651015E2,1.0961412E2,3.235956E2,2.0297834E1,2.6252495E3,9.3677155E1,8.438255E1,3.1467923E2,1.4878716E2,1.1381493E1,3.5085486E2,8.020718E1,4.0535236E1,4.4755286E2,7.134072E1,2.1353119E1,1.1114019E2,3.3438797E1,4.776732E0,1.1674709E2,3.131158E2,1.8415274E2,2.877051E2,9.7105316E1,6.509278E2,1.4209978E2,1.2756538E2,8.2332715E2,2.1327764E3,6.0873704E0,1.6042278E2,4.649425E1,6.3119865E1,2.0308542E2,1.20510185E2,1.2707397E1,7.590438E0,1.8362607E3,7.889888E2,4.93711E1,4.4306057E1,7.239978E1,1.1982775E1,1.503994E2,1.6427983E2,1.0193283E2,4.6854317E1,5.4295855E0,5.9519076E0,3.4557962E2,5.2752323E0,5.0188274E1,3.0018904E1,2.2123508E1,1.8411728E1,7.3163614E0,4.4023648E2,4.0261967E1,3.1078756E1,5.5638223E0,1.5789297E1,1.01415535E2,9.724661E0,1.7439826E0,3.1694813E1,3.3643231E0,1.4124087E0,6.0071383E0,1.1073995E2,1.53427E2,1.5968883E2,1.2907708E1,1.7124503E2,2.8655078E2,1.1543343E0,2.4763409E1,7.234191E1,1.5969301E2,4.9123474E2,1.5900024E1,1.2619975E2,5.0914185E1,7.665119E1,2.7368383E0,8.205903E2,3.253211E1,2.1002441E3,3.9946125E0,2.0927577E0,2.2779167E1,1.376436E2,3.5849617E1,1.0644636E1,5.2242794E1,1.0877072E1,1.8278926E2,2.0296152E1,9.564518E1,2.4865011E1],"tree_param":{"num_deleted":"0","num_feature":"34","num_nodes":"127","size_leaf_vector":"0"}},{"base_weights":[9.037447E-3,-2.9273748E-1,2.954798E-1,-5.000714E-1,-1.528758E-1,1.6927446E-1,5.0868046E-1,-5.095358E-1,1.6437939E-1,-4.1185653E-1,-1.9691179E-2,-2.4527532E-1,2.318511E-1,5.420723E-1,3.0475166E-1,-5.7645893E-1,-4.6873346E-1,-4.781808E-1,5.3474665E-1,-4.246096E-1,2.5339612E-1,-3.657234E-1,5.596609E-2,-1.4390425E-1,-5.4853445E-1,-2.0144454E-1,2.9825988E-1,1.3216628E-1,5.59425E-1,2.4228042E-2,4.7588626E-1,-5.7895684E-1,-1.8734612E-1,-4.9034652E-1,-2.3748706E-1,-5.528901E-1,1.14383616E-1,9.972982E-1,3.921656E-2,-4.9703157E-1,-3.4613168E-1,6.7520076E-1,-4.5661533E-1,1.8369435E-1,-4.0732747E-1,1.6948387E-1,-3.3702275E-1,1.56354E-1,-2.601389E-1,-5.963637E-1,-1.7526183E-1,2.2188182E-1,-3.0344132E-1,3.9169326E-1,4.615124E-2,2.675933E-1,-5.191151E-1,5.252133E-1,7.119353E-1,-3.003146E-1,2.3087677E-1,-2.3041447E-1,5.257997E-1,-2.8889036E-1,-5.8021843E-1,6.076867E-1,-4.828258E-1,-5.728697E-1,-4.5361036E-1,3.0474553E-1,-4.0073118E-1,1.0816146E0,2.7876377E-1,-2.795833E-1,7.4520236E-1,-5.004594E-1,4.4790816E-1,-4.535493E-1,-2.194453E-1,9.263974E-1,-4.7203577E-1,-6.7178595E-1,2.2092223E-1,-5.1353123E-2,1.1789E0,-2.1136332E-1,-5.1189953E-1,-1.7353842E-1,2.405916E-1,-5.464114E-1,-2.3624808E-1,-1.6054867E-1,5.7864517E-1,-4.6380845E-1,-4.2370062E-2,-6.1577505E-1,1.550535E-1,-4.1660511E-1,7.232617E-1,4.0043708E-2,7.385219E-1,-4.1790926E-1,-7.611638E-2,-4.7181465E-2,4.4392526E-1,-3.0536383E-2,5.6259483E-1,4.2302004E-1,-2.024021E-1,-7.162472E-1,5.542986E-1,9.1413714E-2,5.398923E-1,7.213798E-1,-2.9745607E-2,-4.651004E-1,5.076897E-1,7.699327E-1,8.218835E-2,5.955871E-1,-5.9194255E-1,3.4725678E-1,6.7572045E-1],"categories":[],"categories_nodes":[],"categories_segments":[],"categories_sizes":[],"default_left":[true,true,true,true,true,true,true,true,true,true,true,true,true,true,true,true,true,true,true,true,true,true,true,true,true,true,true,true,true,true,true,true,true,true,true,false,false,true,true,true,true,true,true,true,true,true,true,true,true,true,true,true,true,true,true,true,true,true,true,true,true,true,true,false,false,false,false,false,false,false,false,false,false,false,false,false,false,false,false,false,false,false,false,false,false,false,false,false,false,false,false,false,false,false,false,false,false,false,false,false,false,false,false,false,false,false,false,false,false,false,false,false,false,false,false,false,false,false,false,false,false,false,false],"id":10,"left_children":[1,3,5,7,9,11,13,15,17,19,21,23,25,27,29,31,33,35,37,39,41,43,45,47,49,51,53,55,57,59,61,63,65,67,69,-1,-1,71,73,75,77,79,81,83,85,87,89,91,93,95,97,99,101,103,105,107,109,111,113,115,117,119,121,-1,-1,-1,-1,-1,-1,-1,-1,-1,-1,-1,-1,-1,-1,-1,-1,-1,-1,-1,-1,-1,-1,-1,-1,-1,-1,-1,-1,-1,-1,-1,-1,-1,-1,-1,-1,-1,-1,-1,-1,-1,-1,-1,-1,-1,-1,-1,-1,-1,-1,-1,-1,-1,-1,-1,-1,-1,-1,-1,-1],"loss_changes":[8.9484186E2,1.4610614E2,1.4281522E2,1.2851471E1,1.0387671E2,8.663795E1,1.3279053E1,5.196533E0,7.2212615E0,8.785126E0,5.211897E1,1.3392767E1,8.3517365E1,1.1984314E1,1.3434263E1,6.243286E-1,6.1263733E0,5.603895E-1,4.3248334E0,5.533905E0,6.2575855E0,8.239067E0,7.29452E1,1.1550524E1,1.8491936E0,1.6735977E1,5.923143E1,6.327121E0,8.110443E0,7.2572403E0,6.2518806E0,1.063385E-1,1.7704016E0,3.2003174E0,9.744171E0,0E0,0E0,2.925949E-1,2.5114372E0,1.9078827E0,6.5021553E0,4.144792E0,1.3146766E0,6.103121E0,6.7022476E0,3.0978489E1,7.604702E0,1.249349E1,1.0542042E1,1.5042801E0,3.3037539E0,7.066295E0,8.074211E0,4.208658E1,2.6998777E1,4.376745E0,3.024673E0,8.43222E0,2.088745E0,5.8455315E0,5.230466E0,3.9878697E0,4.121151E0,0E0,0E0,0E0,0E0,0E0,0E0,0E0,0E0,0E0,0E0,0E0,0E0,0E0,0E0,0E0,0E0,0E0,0E0,0E0,0E0,0E0,0E0,0E0,0E0,0E0,0E0,0E0,0E0,0E0,0E0,0E0,0E0,0E0,0E0,0E0,0E0,0E0,0E0,0E0,0E0,0E0,0E0,0E0,0E0,0E0,0E0,0E0,0E0,0E0,0E0,0E0,0E0,0E0,0E0,0E0,0E0,0E0,0E0,0E0,0E0],"parents":[2147483647,0,0,1,1,2,2,3,3,4,4,5,5,6,6,7,7,8,8,9,9,10,10,11,11,12,12,13,13,14,14,15,15,16,16,17,17,18,18,19,19,20,20,21,21,22,22,23,23,24,24,25,25,26,26,27,27,28,28,29,29,30,30,31,31,32,32,33,33,34,34,37,37,38,38,39,39,40,40,41,41,42,42,43,43,44,44,45,45,46,46,47,47,48,48,49,49,50,50,51,51,52,52,53,53,54,54,55,55,56,56,57,57,58,58,59,59,60,60,61,61,62,62],"right_children":[2,4,6,8,10,12,14,16,18,20,22,24,26,28,30,32,34,36,38,40,42,44,46,48,50,52,54,56,58,60,62,64,66,68,70,-1,-1,72,74,76,78,80,82,84,86,88,90,92,94,96,98,100,102,104,106,108,110,112,114,116,118,120,122,-1,-1,-1,-1,-1,-1,-1,-1,-1,-1,-1,-1,-1,-1,-1,-1,-1,-1,-1,-1,-1,-1,-1,-1,-1,-1,-1,-1,-1,-1,-1,-1,-1,-1,-1,-1,-1,-1,-1,-1,-1,-1,-1,-1,-1,-1,-1,-1,-1,-1,-1,-1,-1,-1,-1,-1,-1,-1,-1,-1],"split_conditions":[1.05849996E-1,7.4650005E-2,1.3115E-1,8.207399E0,9.0386E0,1.12849995E-1,2.2235E-1,6.075E-2,7.775E-2,1.05749995E-1,8.115E-2,1E-4,2.27265E0,9.805E-2,4.8065996E0,9.81E-2,5.86295E0,3.6756752E1,2.8245002E-1,1.2823529E2,-3.2899998E-2,3.2064998E-1,8.6985E-1,4.8860002E-1,2.6115E-1,7.5885E-1,9.458E-1,8.3185E-1,1.8595001E-1,-4.725E-2,9.4205E-1,2.22E-2,1.011E-1,2.1125E-1,3.365E-2,-1.6586705E-1,3.4315087E-2,1.126E-1,3.843E-1,8.93E-2,-1.8849999E-2,1.939E-1,7.593E-1,4.4634903E1,4.145E-2,9.515E-2,5.1747E0,9.805E-2,9.455E-2,1.435E-1,7.2975004E-1,1.4225E-1,1.4925E-1,1.1095E-1,1.99702E1,4.2955E-1,8.6810005E-1,4.0283897E1,8.6380005E-1,1.43185E0,7.49E-1,8.823E-1,1.8205E-1,-8.666711E-2,-1.7406553E-1,1.8230602E-1,-1.4484774E-1,-1.7186092E-1,-1.3608311E-1,9.142366E-2,-1.2021936E-1,3.244844E-1,8.362913E-2,-8.387499E-2,2.2356072E-1,-1.5013781E-1,1.3437246E-1,-1.360648E-1,-6.583359E-2,2.7791923E-1,-1.4161074E-1,-2.0153579E-1,6.627667E-2,-1.5405937E-2,3.5367E-1,-6.3409E-2,-1.5356986E-1,-5.2061528E-2,7.2177485E-2,-1.6392343E-1,-7.087442E-2,-4.8164602E-2,1.7359355E-1,-1.3914254E-1,-1.2711019E-2,-1.8473253E-1,4.651605E-2,-1.2498154E-1,2.1697852E-1,1.2013113E-2,2.2155657E-1,-1.2537278E-1,-2.2834916E-2,-1.415444E-2,1.3317758E-1,-9.160915E-3,1.6877845E-1,1.2690602E-1,-6.0720634E-2,-2.1487416E-1,1.6628958E-1,2.7424116E-2,1.619677E-1,2.1641396E-1,-8.923682E-3,-1.3953012E-1,1.5230691E-1,2.3097982E-1,2.4656506E-2,1.7867613E-1,-1.7758277E-1,1.04177035E-1,2.0271614E-1],"split_indices":[24,28,30,6,1,33,33,23,33,20,23,26,6,28,5,20,6,2,27,7,21,27,22,22,15,32,22,32,20,21,32,23,20,15,25,0,0,29,27,25,26,23,0,1,20,29,5,28,23,25,0,23,24,28,2,27,17,8,0,32,17,32,30,0,0,0,0,0,0,0,0,0,0,0,0,0,0,0,0,0,0,0,0,0,0,0,0,0,0,0,0,0,0,0,0,0,0,0,0,0,0,0,0,0,0,0,0,0,0,0,0,0,0,0,0,0,0,0,0,0,0,0,0],"split_type":[0,0,0,0,0,0,0,0,0,0,0,0,0,0,0,0,0,0,0,0,0,0,0,0,0,0,0,0,0,0,0,0,0,0,0,0,0,0,0,0,0,0,0,0,0,0,0,0,0,0,0,0,0,0,0,0,0,0,0,0,0,0,0,0,0,0,0,0,0,0,0,0,0,0,0,0,0,0,0,0,0,0,0,0,0,0,0,0,0,0,0,0,0,0,0,0,0,0,0,0,0,0,0,0,0,0,0,0,0,0,0,0,0,0,0,0,0,0,0,0,0,0,0],"sum_hessian":[1.0350038E4,5.0401157E3,5.309923E3,2.0292849E3,3.0108306E3,3.3365986E3,1.9733242E3,2.0010159E3,2.8269102E1,1.021808E3,1.9890227E3,4.372225E2,2.8993762E3,1.6942461E3,2.7907816E2,7.529361E2,1.2480797E3,1.022989E1,1.8039211E1,1.00294305E3,1.8864958E1,3.5617194E2,1.6328507E3,3.287913E2,1.0843122E2,3.8504565E2,2.5143306E3,6.916022E1,1.6250858E3,1.06176056E2,1.729021E2,7.4764874E2,5.2873306E0,1.140376E3,1.0770374E2,9.143988E0,1.085902E0,8.806352E0,9.23286E0,5.188229E2,4.8412015E2,1.1865132E1,6.999826E0,2.4831762E1,3.3134018E2,1.2673391E3,3.655117E2,9.16626E1,2.3712868E2,9.558569E1,1.2845529E1,7.453227E1,3.105134E2,1.8340602E3,6.802703E2,5.7742424E1,1.1417794E1,1.3309626E3,2.9412326E2,4.1129208E1,6.504685E1,1.1173608E1,1.617285E2,4.233658E0,7.434151E2,1.1463339E0,4.1409965E0,3.4678134E2,7.9359467E2,2.472158E1,8.298216E1,7.4292593E0,1.3770926E0,6.7767053E0,2.4561546E0,5.174163E2,1.4065604E0,2.605875E2,2.2353267E2,9.89175E0,1.9733818E0,5.3190913E0,1.6807346E0,2.0854702E1,3.9770598E0,1.163416E2,2.1499858E2,2.1735968E2,1.0499794E3,1.1732104E2,2.4819066E2,5.2719658E1,3.8942936E1,1.2194713E2,1.1518156E2,9.335458E1,2.231108E0,1.0548538E1,2.2969909E0,5.592593E1,1.8606342E1,2.0596347E2,1.0454991E2,1.9507303E2,1.6389872E3,5.931355E2,8.7134865E1,4.346768E1,1.4274744E1,9.927375E0,1.4904202E0,4.379983E1,1.2871627E3,2.9045203E2,3.6712356E0,3.451462E1,6.6145873E0,1.3159641E1,5.1887207E1,3.2045636E0,7.9690447E0,7.533142E1,8.639708E1],"tree_param":{"num_deleted":"0","num_feature":"34","num_nodes":"123","size_leaf_vector":"0"}},{"base_weights":[-2.017235E-4,3.490852E-1,-3.221276E-1,-1.2833114E-1,5.157303E-1,-1.4158589E-1,-4.2880788E-1,-4.0717167E-1,2.8529754E-1,6.1907923E-1,3.1580535E-1,-4.2712066E-1,-1.1544946E-3,-5.319178E-1,-3.5827506E-1,2.3803754E-2,-4.633115E-1,5.767883E-1,1.23492554E-1,1.8475506E-1,6.5322214E-1,5.431771E-1,1.7554969E-1,-5.110704E-1,-2.0495382E-1,-1.45585E-1,2.651348E-1,-5.8407986E-1,-4.7388542E-1,-2.716636E-1,-4.8813692E-1,1.7525186E-1,-6.2015265E-1,1.085347E-1,-4.936555E-1,-3.3934325E-1,6.055487E-1,4.266495E-1,-1.4324825E-1,5.72941E-1,-3.632421E-1,4.1759565E-1,6.667333E-1,5.7839435E-1,-3.230848E-1,-3.5653675E-1,2.5592583E-1,6.7035055E-1,-5.242945E-1,-6.089658E-1,-8.267451E-2,6.139955E-2,-2.8206027E-1,4.4879332E-1,1.37585625E-2,-3.774289E-1,-5.866809E-1,1.3366586E0,-4.8402816E-1,-4.9862772E-1,-2.3145723E-1,-4.2798266E-1,-5.7560545E-1,4.5098722E-1,-2.3801935E-1,4.8591197E-1,-6.033274E-1,-5.427168E-1,-2.4804738E-1,-5.806852E-1,2.9967844E-1,6.354622E-1,-2.1234448E-1,-2.5469828E-1,4.7691384E-1,-2.9057026E-1,7.673457E-1,6.4775336E-1,-5.226865E-1,4.1138822E-1,-4.922052E-1,5.620868E-1,-4.104469E-1,6.914364E-1,5.618108E-1,3.7581003E-1,7.1412325E-1,1.21751115E-1,-6.2526906E-1,1.8875128E-1,-5.311828E-1,3.0426925E-1,-4.3019843E-1,8.763033E-1,1.2668158E-1,-1.9592485E-1,-5.473931E-1,-1.4325237E-1,-6.5518546E-1,6.2462837E-1,-2.3237292E-1,-1.837389E-1,1.9870749E-1,-1.2273078E-2,-3.7517172E-1,2.88188E-1,7.8487056E-1,-9.863491E-2,5.571252E-1,-5.487648E-1,6.829486E-1,-8.543484E-3,-5.0321186E-1,5.6463337E-1,-5.2436465E-1,-1.3696747E-1,-3.7103575E-1,-5.944256E-1,-3.3585134E-1,-5.894915E-1,-4.253509E-1],"categories":[],"categories_nodes":[],"categories_segments":[],"categories_sizes":[],"default_left":[true,true,true,true,true,true,true,true,true,true,true,true,true,true,true,true,true,true,true,true,true,true,true,true,true,true,true,true,true,true,true,true,false,true,true,true,true,true,true,true,true,true,true,true,true,true,true,true,true,true,true,true,true,true,true,true,false,false,true,true,true,true,true,false,false,false,false,false,false,false,false,false,false,false,false,false,false,false,false,false,false,false,false,false,false,false,false,false,false,false,false,false,false,false,false,false,false,false,false,false,false,false,false,false,false,false,false,false,false,false,false,false,false,false,false,false,false,false,false,false,false],"id":11,"left_children":[1,3,5,7,9,11,13,15,17,19,21,23,25,27,29,31,33,35,37,39,41,43,45,47,49,51,53,55,57,59,61,63,-1,65,67,69,71,73,75,77,79,81,83,85,87,89,91,93,95,97,99,101,103,105,107,109,-1,-1,111,113,115,117,119,-1,-1,-1,-1,-1,-1,-1,-1,-1,-1,-1,-1,-1,-1,-1,-1,-1,-1,-1,-1,-1,-1,-1,-1,-1,-1,-1,-1,-1,-1,-1,-1,-1,-1,-1,-1,-1,-1,-1,-1,-1,-1,-1,-1,-1,-1,-1,-1,-1,-1,-1,-1,-1,-1,-1,-1,-1,-1],"loss_changes":[1.1232167E3,3.812293E2,1.0005652E2,1.4318112E2,7.318628E1,7.747646E1,2.3568665E1,1.7947708E1,2.3514523E1,3.458246E1,3.856582E1,1.1775764E1,4.9890537E1,3.7339783E0,2.1721222E1,8.533995E0,1.1435715E1,4.9015427E0,2.6167597E1,3.678693E1,6.6276245E0,1.42825775E1,3.222127E1,7.5637207E0,8.662243E0,2.3774931E1,2.1053688E1,1.5130615E-1,1.2261841E1,1.0541702E1,3.837387E0,8.166252E0,0E0,9.392767E0,7.3733826E0,1.1095004E0,4.371578E0,5.305107E0,2.336191E1,8.620586E0,7.3864202E0,1.4626175E1,4.9248047E0,1.1949738E1,2.5887227E0,9.529374E0,2.1799534E1,5.103054E-1,3.3596954E0,7.8477E-1,1.460243E1,1.131269E1,1.2731907E1,1.3999306E1,1.1878878E1,2.4502084E0,0E0,0E0,5.7395325E0,5.0817604E0,1.3058369E1,6.9121323E0,4.030838E-1,0E0,0E0,0E0,0E0,0E0,0E0,0E0,0E0,0E0,0E0,0E0,0E0,0E0,0E0,0E0,0E0,0E0,0E0,0E0,0E0,0E0,0E0,0E0,0E0,0E0,0E0,0E0,0E0,0E0,0E0,0E0,0E0,0E0,0E0,0E0,0E0,0E0,0E0,0E0,0E0,0E0,0E0,0E0,0E0,0E0,0E0,0E0,0E0,0E0,0E0,0E0,0E0,0E0,0E0,0E0,0E0,0E0,0E0],"parents":[2147483647,0,0,1,1,2,2,3,3,4,4,5,5,6,6,7,7,8,8,9,9,10,10,11,11,12,12,13,13,14,14,15,15,16,16,17,17,18,18,19,19,20,20,21,21,22,22,23,23,24,24,25,25,26,26,27,27,28,28,29,29,30,30,31,31,33,33,34,34,35,35,36,36,37,37,38,38,39,39,40,40,41,41,42,42,43,43,44,44,45,45,46,46,47,47,48,48,49,49,50,50,51,51,52,52,53,53,54,54,55,55,58,58,59,59,60,60,61,61,62,62],"right_children":[2,4,6,8,10,12,14,16,18,20,22,24,26,28,30,32,34,36,38,40,42,44,46,48,50,52,54,56,58,60,62,64,-1,66,68,70,72,74,76,78,80,82,84,86,88,90,92,94,96,98,100,102,104,106,108,110,-1,-1,112,114,116,118,120,-1,-1,-1,-1,-1,-1,-1,-1,-1,-1,-1,-1,-1,-1,-1,-1,-1,-1,-1,-1,-1,-1,-1,-1,-1,-1,-1,-1,-1,-1,-1,-1,-1,-1,-1,-1,-1,-1,-1,-1,-1,-1,-1,-1,-1,-1,-1,-1,-1,-1,-1,-1,-1,-1,-1,-1,-1,-1],"split_conditions":[1.2235E-1,1.508175E1,1.5095E-1,4.5050003E-2,8.415E-2,4.815E-2,7.715E-2,7.7524996E-1,8.5635E-1,1.915E-2,9.684E-1,6.2573004E0,7.845E-1,2.8949998E-2,1.9365E-1,1.0355E-1,-6.48E-2,3.2899998E-2,1.0045E-1,-2.7449999E-2,2.375E-2,1.309E-1,3.555E-2,1.4349E0,1.035E-2,1.1745E-1,1.2725E-1,5.6275E-1,1.831E-1,-6.335E-2,-1.145E-2,-1.8849999E-2,-1.860458E-1,2.633E-1,3.335E-2,6.7625E-1,1.3205001E-1,3.1200001E-2,5E-5,1.066E-1,1.573E-1,6.195E-2,7.655E-2,6.037E-1,1.0595E-1,4.975E-2,1.338E-1,7.0945E-1,7.2195E-1,9.978E-1,5.23E-2,5.7178E0,1.205E-1,-3E-3,9.9E-1,5.506E-1,-1.7600428E-1,4.009976E-1,6.685E-2,7.8899994E-2,-2.1949999E-2,-3.775E-2,2.622E-1,1.3529617E-1,-7.1405806E-2,1.4577359E-1,-1.8099822E-1,-1.6281505E-1,-7.4414216E-2,-1.7420557E-1,8.990353E-2,1.9063868E-1,-6.370335E-2,-7.640949E-2,1.4307415E-1,-8.717108E-2,2.3020373E-1,1.9432601E-1,-1.5680595E-1,1.2341647E-1,-1.4766157E-1,1.6862606E-1,-1.2313408E-1,2.0743093E-1,1.6854325E-1,1.1274301E-1,2.1423699E-1,3.6525335E-2,-1.8758072E-1,5.6625385E-2,-1.5935485E-1,9.128078E-2,-1.2905954E-1,2.62891E-1,3.8004477E-2,-5.8777455E-2,-1.6421793E-1,-4.2975713E-2,-1.9655564E-1,1.8738851E-1,-6.971188E-2,-5.512167E-2,5.9612248E-2,-3.6819235E-3,-1.1255152E-1,8.64564E-2,2.3546118E-1,-2.9590474E-2,1.6713756E-1,-1.6462946E-1,2.0488459E-1,-2.5630454E-3,-1.5096356E-1,1.6939002E-1,-1.573094E-1,-4.1090243E-2,-1.1131073E-1,-1.783277E-1,-1.0075541E-1,-1.7684746E-1,-1.2760527E-1],"split_indices":[33,11,33,20,23,20,30,3,3,20,9,5,32,25,33,28,26,25,33,26,25,20,25,6,25,28,28,3,27,21,26,26,0,15,20,22,28,25,26,33,27,19,23,32,33,24,25,22,3,10,24,5,23,26,32,3,0,0,28,30,21,26,16,0,0,0,0,0,0,0,0,0,0,0,0,0,0,0,0,0,0,0,0,0,0,0,0,0,0,0,0,0,0,0,0,0,0,0,0,0,0,0,0,0,0,0,0,0,0,0,0,0,0,0,0,0,0,0,0,0,0],"split_type":[0,0,0,0,0,0,0,0,0,0,0,0,0,0,0,0,0,0,0,0,0,0,0,0,0,0,0,0,0,0,0,0,0,0,0,0,0,0,0,0,0,0,0,0,0,0,0,0,0,0,0,0,0,0,0,0,0,0,0,0,0,0,0,0,0,0,0,0,0,0,0,0,0,0,0,0,0,0,0,0,0,0,0,0,0,0,0,0,0,0,0,0,0,0,0,0,0,0,0,0,0,0,0,0,0,0,0,0,0,0,0,0,0,0,0,0,0,0,0,0,0],"sum_hessian":[9.987075E3,4.789943E3,5.1971323E3,1.2394142E3,3.5505286E3,1.9311881E3,3.2659443E3,7.4034155E2,4.9907266E2,2.3392063E3,1.2113223E3,6.35996E2,1.2951921E3,1.3239534E3,1.9419911E3,8.5390434E1,6.549511E2,1.7722969E2,3.21843E2,1.7095369E2,2.1682527E3,4.610425E2,7.502797E2,4.6063602E2,1.7535995E2,